   0.97662,   0.27626,   0.99219,   0.94550,   0.98441,   0.92993,   0.99219,   0.87546,   0.78986,   0.43189
  -0.83655,  -0.05058,  -0.71982,   0.32295,  -0.78208,  -0.71982,   0.20622,   0.52528,   0.98441,  -0.92215
   0.93771,   0.53306,  -0.68869,  -0.05058,  -0.07393,   0.22178,   0.99219,  -0.23735,   0.97662,   0.99219
  -0.63422,   0.21400,  -0.14396,   0.99219,  -0.42411,  -0.47080,  -0.20622,   0.24513,  -0.06615,  -0.02724
   0.99219,   0.93771,  -0.43189,   0.01167,  -0.68869,  -0.40855,  -0.33073,   0.99219,   0.92993,   0.71982
  -0.29182,  -0.01945,   0.45524,  -0.10506,   0.69648,   0.99219,  -0.41633,  -0.78208,  -0.19844,  -0.00389
   0.40077,  -0.22956,  -0.11284,   0.12840,   0.36964,  -0.55640,  -0.09727,   0.99219,   0.33851,  -0.42411
  -0.47080,  -0.29960,  -0.10506,  -0.78208,  -0.83655,   0.96884,  -0.01945,   0.94550,  -0.90659,  -0.79764
  -0.99219,  -0.10506,   0.96884,  -0.82099,   0.95328,   0.07393,  -0.27626,   0.14396,  -0.78208,  -0.31517
  -0.43189,   0.96106,  -0.82099,   0.17509,   0.99219,  -0.29960,  -0.25291,   0.15953,  -0.71204,  -0.92215
  -0.23735,   0.46302,   0.98441,   0.98441,   0.33073,   0.93771,  -0.27626,  -0.39298,   0.12062,   0.05836
  -0.25291,   0.97662,   0.05058,   0.95328,   0.94550,   0.57197,   0.03502,   0.15175,  -0.04280,   0.48637
  -0.09727,   0.00389,   0.25291,   0.96106,   0.99219,   0.22957,  -0.23735,  -0.24513,  -0.05058,  -0.05836
   0.92993,   0.98441,   0.15953,   0.56419,  -0.36964,   0.36964,  -0.15953,  -0.15175,   0.33851,   0.81320
   0.89881,   0.91437,   0.97662,  -0.15175,   0.93771,   0.57975,   0.05058,  -0.07393,   0.26847,  -0.08171
  -0.60309,  -0.32295,  -0.72760,  -0.29960,   0.93771,  -0.26847,  -0.19066,   0.97662,   0.18287,  -0.67313
   0.65757,   0.26069,  -0.30738,   0.99219,  -0.70426,   0.89881,  -0.21400,  -0.51749,   0.33851,  -0.54084
   0.01167,   0.99219,   0.40077,  -0.89102,  -0.42411,  -0.08171,  -0.50971,  -0.25291,  -0.33851,  -0.92215
  -0.24513,  -0.82877,   0.97662,   0.79764,  -0.26847,  -0.48637,  -0.31517,  -0.04280,  -0.00389,   0.99219
   0.78986,   0.96884,   0.66535,   0.72760,   0.69648,   0.89881,   0.78208,   0.59531,   0.50193,   0.89102
  -0.78208,  -0.65757,   0.92215,   0.38520,   0.99219,  -0.19066,  -0.30738,  -0.15953,  -0.21400,   0.15953
  -0.92993,  -0.30738,  -0.11284,   0.35407,  -0.23735,   0.44746,  -0.19066,  -0.52528,   0.13618,  -0.12840
  -0.82877,  -0.78986,   0.98441,  -0.63422,   0.98441,  -0.78986,   0.20622,  -0.98441,   0.23735,   0.34629
   0.00389,  -0.01945,   0.05836,  -0.40855,  -0.34629,   0.27626,   0.99219,   0.99219,   0.34629,  -0.62644
   0.21400,  -0.26847,   0.98441,   0.29960,   0.97662,   0.30738,  -0.50193,   0.06615,  -0.16731,   0.11284
  -0.14396,   0.12840,   0.22957,  -0.19066,   0.93771,  -0.13618,  -0.20622,  -0.31517,   0.94550,   0.08171
  -0.31517,  -0.17509,   0.15175,  -0.38520,   0.99219,  -0.15953,  -0.19844,   0.65757,  -0.51749,   0.18287
   0.91437,   0.82099,  -0.99219,   0.89881,  -0.66535,  -0.78986,   0.82099,  -0.77430,   0.67313,   0.67313
  -0.79764,  -0.44746,   0.28404,   0.92993,  -0.52528,   0.38520,  -0.43968,   0.99219,  -0.13618,  -0.08171
  -0.91437,  -0.49415,  -0.54084,  -0.32295,   0.98441,   0.64200,  -0.36186,  -0.22956,   0.43968,   0.64979
   0.96884,   0.02724,   0.99219,  -0.90659,  -0.80542,  -0.87546,  -0.42411,  -0.21400,   0.13618,   0.33851
  -0.29182,  -0.12840,  -0.00389,   0.98441,   0.08171,   0.96884,  -0.83655,   0.57197,   0.41633,  -0.86768
   0.15175,   0.05836,  -0.55640,  -0.36964,   0.98441,   0.81320,   0.04280,  -0.57197,  -0.19844,   0.01167
  -0.13618,  -0.73539,  -0.19844,  -0.96106,   0.74317,   0.99219,   0.57197,  -0.96106,  -0.47858,   0.26069
   0.10506,   0.08949,   0.26847,  -0.01167,  -0.14396,  -0.41633,   0.99219,   0.99219,  -0.21400,  -0.42411
  -0.69648,  -0.65757,   0.09727,  -0.26847,  -0.01945,   0.98441,   0.99219,  -0.12840,  -0.33073,   0.16731
  -0.98441,   0.32295,   0.99219,  -0.79764,   0.09727,  -0.13618,   0.48637,   0.08171,  -0.69648,  -0.73539
  -0.71204,   0.99219,  -0.29182,  -0.35407,  -0.17509,  -0.29182,   0.27626,  -0.19844,  -0.36186,   0.92993
   0.05058,   0.29182,   0.97662,   0.61866,   0.21400,   0.58753,  -0.59531,   0.64200,   0.09727,   0.96884
   0.71982,   0.21400,   0.98441,  -0.00389,   0.54084,  -0.02724,   0.31517,  -0.55640,   0.98441,   0.33073
   0.98441,  -0.57197,  -0.19844,   0.14396,  -0.43189,  -0.44746,  -0.03502,   0.99219,  -0.21400,  -0.19066
  -0.67313,  -0.61088,  -0.11284,  -0.46302,   0.29960,  -0.64200,   0.19844,  -0.58753,  -0.01167,   0.99219
   0.19066,  -0.27626,  -0.78208,  -0.38520,  -0.76651,  -0.18287,   0.98441,  -0.43968,  -0.21400,   0.99219
   0.96106,   0.92215,   0.80542,   0.01167,   0.27626,   0.01167,   0.56419,  -0.37742,   0.99219,   0.98441
  -0.86768,   0.29960,  -0.89881,  -0.55640,  -0.63422,   0.99219,  -0.36964,   0.78986,   0.65757,  -0.82877
   0.99219,   0.00389,  -0.09727,  -0.34629,   0.53306,   0.01167,  -0.06615,  -0.47080,   0.70426,  -0.05836
  -0.46302,   0.04280,  -0.64979,  -0.38520,   0.63422,   0.99219,  -0.04280,   0.01167,   0.35407,  -0.02724
  -0.08949,  -0.07393,   0.96884,  -0.67313,  -0.47080,  -0.37742,   0.97662,  -0.08949,   0.47080,  -0.53306
  -0.27626,  -0.47858,   0.33851,  -0.52528,   0.96884,   0.18287,   0.09727,   0.92993,  -0.27626,   0.00389
  -0.89102,   0.57197,  -0.55640,  -0.08171,   0.99219,  -0.68869,  -0.26069,  -0.64979,  -0.26847,   0.30738
  -0.82099,  -0.36964,   0.05836,   0.16731,   0.49415,  -0.29960,   0.35407,  -0.65757,  -0.23735,   0.99219
   0.12062,   0.19066,  -0.12062,  -0.39298,   0.82877,   0.98441,  -0.98441,   0.99219,  -0.50971,   0.19066
  -0.61088,   0.96106,   0.09727,  -0.57197,  -0.42411,  -0.61088,  -0.08171,  -0.30738,  -0.19844,   0.98441
  -0.05836,   0.96884,  -0.28404,   0.97662,  -0.39298,  -0.40855,  -0.33851,  -0.17509,  -0.50193,  -0.46302
  -0.69648,   0.99219,  -0.74317,   0.44746,   0.15175,   0.69648,  -0.63422,  -0.76651,   0.29182,  -0.50971
  -0.70426,   0.05836,   0.25291,  -0.58753,   0.99219,   0.71982,   0.47858,   0.90659,  -0.69648,  -0.59531
  -0.75873,   0.75095,   0.98441,   0.87546,  -0.95328,   0.83655,   0.82877,  -0.19844,  -0.61866,   0.93771
  -0.23735,  -0.73539,  -0.17509,  -0.34629,   0.43968,  -0.28404,   0.99219,  -0.28404,   0.07393,  -0.43968
  -0.33851,   0.05836,   0.19066,  -0.11284,   0.16731,  -0.03502,  -0.05836,   0.03502,   0.99219,  -0.01167
  -0.03502,  -0.60309,  -0.18287,  -0.77430,  -0.01167,   0.99219,   0.70426,  -0.38520,   0.18287,  -0.36964
  -0.34629,   0.90659,   0.99219,   0.58753,   0.80542,   0.52528,   0.93771,  -0.02724,   0.06615,  -0.26069
  -0.29960,  -0.47858,  -0.13618,   0.96884,   0.91437,  -0.15175,   0.34629,  -0.04280,  -0.29182,  -0.32295
   0.26069,  -0.07393,   0.84433,   0.64979,   0.97662,  -0.01945,   0.95328,  -0.08171,  -0.14396,  -0.36186
   0.64200,  -0.15953,   0.99219,  -0.29960,   0.48637,   0.15953,   0.54084,  -0.30738,   0.68091,   0.22178
  -0.19844,   0.00389,   0.50971,   0.07393,  -0.63422,  -0.43189,  -0.15953,   0.99219,  -0.06615,  -0.00389
  -0.58753,  -0.14396,   0.04280,  -0.38520,  -0.56419,  -0.36964,  -0.55640,   0.62644,   0.99219,  -0.80542
  -0.81320,  -0.33851,  -0.19066,  -0.70426,  -0.12062,  -0.05836,  -0.07393,   0.43968,   0.99219,   0.17509
  -0.78986,   0.04280,   0.98441,  -0.70426,  -0.50193,   0.97662,   0.70426,  -0.58753,  -0.14396,  -0.29182
   0.18287,   0.40855,  -0.54862,  -0.19066,  -0.58753,  -0.38520,   0.12062,   0.99219,  -0.01945,  -0.57197
  -0.88324,   0.57975,   0.99219,  -0.27626,   0.92215,  -0.12840,  -0.16731,  -0.40077,  -0.59531,  -0.54084
   0.92993,   0.04280,   0.92993,   0.96884,   0.99219,   0.70426,   0.98441,   0.71204,   0.60309,   0.72760
   0.98441,   0.71982,   0.99219,  -0.33851,   0.75873,  -0.58753,  -0.85990,   0.31517,   0.42411,   0.39298
   0.07393,  -0.67313,  -0.50971,   0.98441,  -0.65757,   0.92993,   0.68869,  -0.26847,  -0.22178,   0.34629
   0.16731,  -0.15175,  -0.22956,  -0.08949,  -0.54862,  -0.34629,  -0.02724,   0.99219,  -0.87546,  -0.52528
   0.28404,   0.98441,  -0.62644,  -0.12840,  -0.71982,  -0.38520,  -0.22956,   0.26847,  -0.96106,   0.06615
   0.43189,  -0.61088,  -0.57197,  -0.57197,  -0.86768,   0.05836,   0.99219,  -0.40077,  -0.45524,  -0.52528
  -0.38520,  -0.93771,   0.42411,   0.11284,   0.00389,  -0.97662,  -0.71204,   0.99219,   0.09727,   0.76651
  -0.68869,   0.99219,   0.93771,  -0.90659,   0.75095,   0.94550,  -0.67313,   0.97662,  -0.75095,  -0.29960
  -0.27626,   0.35407,   0.55640,   0.98441,  -0.39298,  -0.52528,   0.43189,   0.47858,  -0.50971,  -0.57975
   0.57975,  -0.57197,  -0.48637,  -0.73539,  -0.01945,   0.64979,  -0.41633,  -0.35407,  -0.41633,   0.99219
   0.99219,  -0.68869,   0.15175,  -0.15953,  -0.62644,   0.29182,  -0.85211,  -0.19844,   0.97662,   0.23735
   0.99219,  -0.84433,   0.84433,  -0.62644,  -0.45524,  -0.68091,   0.92215,  -0.76651,   0.08171,  -0.04280
   0.82877,   0.50193,  -0.87546,  -0.15953,   0.99219,  -0.60309,   0.09727,  -0.33851,  -0.31517,  -0.04280
   0.14396,  -0.17509,   0.41633,  -0.32295,  -0.06615,  -0.35407,   0.99219,   0.20622,   0.88324,  -0.35407
   0.68869,  -0.13618,  -0.43968,  -0.69648,  -0.86768,  -0.90659,   0.99219,   0.22957,  -0.86768,  -0.57975
  -0.31517,   0.06615,   0.17509,   0.77430,   0.78986,   0.99219,   0.00389,   0.99219,   0.00389,  -0.40077
  -0.36186,   0.99219,  -0.06615,  -0.07393,  -0.42411,   0.18287,  -0.24513,  -0.01167,  -0.08171,  -0.32295
  -0.83655,   0.74317,  -0.24513,   0.08949,   0.99219,  -0.47858,   0.19844,  -0.49415,  -0.27626,   0.07393
  -0.01167,   0.10506,  -0.26069,   0.64979,   0.39298,   0.43968,   0.04280,   0.99219,   0.54084,  -0.40855
   0.84433,  -0.13618,  -0.40855,   0.99219,  -0.82877,  -0.51749,   0.17509,   0.28404,  -0.17509,   0.45524
  -0.15953,   0.26847,   0.98441,   0.22178,   0.92215,  -0.50193,   0.75095,   0.98441,  -0.39298,   0.20622
   0.99219,   0.57975,  -0.08949,  -0.23735,  -0.55640,  -0.32295,   0.89881,  -0.59531,   0.79764,   0.31517
  -0.92993,   0.99219,  -0.08949,   0.12840,  -0.22178,  -0.39298,  -0.62644,   0.01945,  -0.13618,   0.47080
  -0.44746,  -0.78986,  -0.14396,  -0.13618,   0.95328,  -0.80542,  -0.44746,  -0.57975,   0.28404,   0.99219
   0.77430,   0.93771,  -0.02724,  -0.42411,   0.98441,  -0.60309,  -0.39298,  -0.26069,   0.23735,  -0.50193
   0.71204,  -0.64979,  -0.89102,  -0.84433,   0.99219,  -0.94550,  -0.43189,   0.05058,  -0.34629,  -0.36186
  -0.03502,  -0.04280,   0.95328,   0.97662,  -0.22178,   0.26847,   0.30738,  -0.18287,  -0.15175,  -0.08171
   0.77430,   0.29960,   0.94550,   0.95328,   0.19844,   0.89102,   0.80542,   0.71982,   0.71204,   0.97662
   0.26847,   0.99219,  -0.29960,   0.34629,   0.23735,   0.31517,  -0.74317,  -0.73539,  -0.12062,  -0.02724
  -0.26069,  -0.27626,   0.57197,   0.32295,   0.34629,   0.98441,   0.04280,  -0.26847,   0.97662,   0.33073
  -0.22178,   0.26069,   0.99219,   0.68091,   0.64979,  -0.36964,  -0.19066,   0.29182,  -0.37742,   0.01167
  -0.29960,   0.10506,  -0.00389,   0.92993,   0.45524,   0.93771,  -0.12062,   0.99219,  -0.10506,   0.02724
  -0.54084,   0.15953,   0.64200,  -0.54084,   0.03502,   0.75095,  -0.01945,  -0.78208,  -0.37742,   0.99219
  -0.99219,   0.67313,   0.99219,  -0.29182,  -0.26847,  -0.48637,  -0.85211,  -0.26069,   0.03502,  -0.44746
   0.99219,   0.98441,  -0.82877,  -0.05836,  -0.42411,   0.12840,  -0.19844,   0.15953,   0.22178,   0.92215
   0.04280,   0.99219,  -0.40855,   0.45524,   0.02724,   0.12062,   0.97662,   0.21400,  -0.29182,   0.47080
  -0.15953,  -0.20622,  -0.26069,   0.17509,   0.99219,   0.89102,  -0.25291,  -0.55640,   0.07393,   0.94550
   0.78986,  -0.03502,   0.99219,  -0.52528,  -0.63422,   0.98441,   0.08949,   0.77430,  -0.87546,  -0.04280
   0.99219,  -0.78986,  -0.05058,  -0.67313,  -0.35407,   0.06615,  -0.89881,  -0.08949,  -0.67313,   0.11284
   0.84433,  -0.98441,  -0.77430,   0.36186,  -0.08949,  -0.02724,   0.05836,   0.15175,   0.99219,  -0.71204
  -0.97662,   0.15175,  -0.84433,   0.92215,   0.98441,   0.66535,   0.92993,   0.87546,  -0.66535,   0.91437
   0.80542,  -0.30738,  -0.75095,  -0.80542,  -0.71204,  -0.68091,  -0.87546,  -0.17509,   0.64979,   0.88324
  -0.85211,  -0.46302,  -0.48637,   0.99219,   0.71982,  -0.53306,  -0.54084,   0.47080,   0.81320,  -0.80542
   0.96884,   0.16731,  -0.02724,   0.96884,   0.42411,  -0.13618,   0.66535,   0.08171,  -0.66535,  -0.71982
   0.99219,   0.43968,   0.16731,   0.80542,  -0.15953,  -0.64200,   0.99219,  -0.51749,  -0.54084,  -0.29960
  -0.61088,   0.24513,  -0.43968,   0.99219,   0.90659,   0.96106,   0.72760,  -0.22178,   0.48637,  -0.53306
   0.28404,   0.99219,  -0.29182,  -0.01167,   0.92993,   0.15953,  -0.81320,   0.15953,  -0.29182,  -0.47858
   0.01945,  -0.02724,   0.57975,   0.99219,  -0.08171,   0.97662,  -0.15175,  -0.16731,   0.23735,  -0.00389
   0.99219,  -0.12840,  -0.82099,   0.74317,  -0.94550,   0.92993,   0.64979,   0.39298,  -0.53306,  -0.56419
   0.99219,   0.58753,  -0.48637,   0.42411,  -0.61866,  -0.16731,  -0.50193,  -0.10506,  -0.24513,   0.36186
   0.53306,   0.59531,  -0.40077,   0.41633,  -0.40855,  -0.23735,  -0.23735,   0.98441,   0.51749,  -0.54084
  -0.40077,   0.73539,  -0.66535,  -0.87546,   0.99219,   0.18287,   0.90659,   0.19844,  -0.08171,  -0.23735
   0.85990,  -0.80542,   0.05058,  -0.40077,  -0.03502,  -0.64979,   0.97662,  -0.02724,  -0.19066,   0.03502
  -0.45524,  -0.25291,   0.19066,  -0.82099,  -0.51749,  -0.40855,  -0.57197,   0.03502,  -0.40855,   0.75095
  -0.19844,  -0.24513,  -0.21400,   0.57975,  -0.49415,  -0.78208,  -0.98441,  -0.81320,  -0.52528,   0.99219
  -0.85990,   0.02724,  -0.49415,   0.32295,  -0.53306,  -0.02724,   0.99219,  -0.08949,  -0.51749,   0.64979
  -0.95328,  -0.45524,   0.98441,  -0.85990,  -0.89102,   0.97662,   0.78986,  -0.75095,   0.96106,   0.94550
   0.96106,  -0.65757,   0.71204,  -0.64979,   0.22178,  -0.22178,  -0.40855,   0.04280,   0.99219,  -0.05836
  -0.13618,  -0.29960,  -0.84433,  -0.92215,   0.55640,   0.98441,   0.99219,  -0.39298,  -0.55640,  -0.34629
   0.98441,  -0.23735,  -0.09727,  -0.00389,   0.59531,  -0.00389,  -0.12062,   0.12840,  -0.78208,   0.55640
   0.96884,  -0.30738,  -0.47080,   0.49415,   0.98441,  -0.26069,  -0.19066,  -0.05836,  -0.04280,  -0.46302
  -0.33073,  -0.71204,  -0.65757,  -0.68091,  -0.25291,   0.81320,   0.94550,   0.01945,   0.99219,   0.64200
  -0.94550,  -0.08949,   0.71982,   0.12062,  -0.68091,   0.95328,   0.03502,  -0.44746,  -0.04280,  -0.13618
  -0.28404,   0.27626,  -0.39298,  -0.75095,  -0.24513,  -0.10506,  -0.40077,  -0.52528,   0.99219,   0.68869
  -0.91437,  -0.27626,   0.99219,  -0.64979,   0.90659,   0.05836,   0.12840,   0.08949,  -0.50971,   0.01167
   0.99219,   0.13618,  -0.45524,  -0.76651,  -0.34629,  -0.34629,   0.00389,   0.47858,  -0.64200,  -0.29960
  -0.15953,  -0.07393,   0.72760,   0.99219,  -0.85211,   0.92993,  -0.94550,   0.36964,  -0.85211,  -0.14396
  -0.64979,   0.41633,  -0.49415,   0.97662,   0.03502,  -0.53306,  -0.88324,  -0.99219,   0.26847,  -0.50971
  -0.15953,  -0.10506,  -0.36964,   0.57197,  -0.52528,  -0.36964,   0.99219,  -0.15175,   0.92993,  -0.81320
  -0.82877,  -0.87546,  -0.37742,   0.36186,  -0.54862,  -0.40855,  -0.82099,   0.98441,   0.80542,  -0.11284
   0.64200,   0.96884,   0.96884,   0.99219,   0.98441,   0.68091,   0.29960,   0.99219,  -0.19844,   0.89102
  -0.33851,   0.94550,  -0.44746,  -0.17509,  -0.34629,  -0.65757,   0.32295,  -0.98441,   0.45524,  -0.48637
   0.10506,  -0.48637,  -0.03502,   0.98441,  -0.58753,  -0.58753,   0.33073,  -0.53306,  -0.09727,   0.96106
   0.12062,  -0.61088,  -0.02724,  -0.64979,  -0.54862,  -0.88324,   0.99219,   0.05836,  -0.08949,   0.93771
   0.54084,  -0.43189,  -0.50193,   0.99219,  -0.23735,  -0.64200,   0.22178,   0.82877,   0.04280,  -0.78208
  -0.62644,   0.99219,  -0.30738,  -0.71204,   0.25291,  -0.65757,   0.15175,  -0.47080,  -0.06615,   0.85990
   0.19066,   0.56419,   0.99219,   0.55640,   0.95328,  -0.95328,  -0.26847,  -0.41633,   0.21400,  -0.34629
   0.01167,  -0.63422,  -0.44746,  -0.81320,   0.99219,  -0.72760,  -0.76651,  -0.91437,   0.33073,   0.30738
   0.99219,  -0.90659,   0.40855,   0.97662,   0.15953,   0.69648,   0.96106,   0.09727,  -0.90659,  -0.97662
  -0.44746,  -0.08949,   0.22957,  -0.50193,  -0.34629,  -0.04280,   0.58753,  -0.71982,  -0.53306,   0.99219
   0.12062,   0.09727,  -0.45524,  -0.10506,  -0.75095,  -0.84433,  -0.03502,   0.99219,   0.45524,  -0.06615
  -0.10506,   0.98441,   0.23735,  -0.26847,   0.02724,   0.19066,  -0.09727,   0.46302,  -0.50193,   0.12062
  -0.68869,   0.31517,  -0.18287,  -0.43189,   0.96884,   0.47858,  -0.09727,   0.03502,  -0.15175,   0.98441
  -0.09727,   0.49415,  -0.40855,   0.94550,   0.38520,   0.99219,  -0.29960,  -0.16731,   0.30738,   0.62644
   0.54084,  -0.15953,   0.27626,   0.69648,  -0.11284,  -0.20622,   0.68091,  -0.16731,   0.99219,  -0.05058
  -0.29182,   0.80542,  -0.31517,   0.05836,  -0.12062,  -0.35407,   0.44746,  -0.48637,  -0.96884,   0.99219
   0.93771,   0.48637,   0.99219,   0.70426,   0.93771,   0.81320,   0.92993,   0.88324,   0.14396,   0.48637
   0.08949,   0.24513,   0.75095,  -0.29960,  -0.69648,   0.99219,   0.17509,   0.72760,  -0.67313,  -0.36186
   0.39298,   0.31517,   0.98441,  -0.13618,  -0.57197,  -0.65757,  -0.98441,  -0.29960,  -0.46302,  -0.26069
   0.89102,  -0.70426,  -0.96106,  -0.55640,   0.96884,   0.52528,  -0.61088,   0.98441,   0.34629,   0.88324
   0.68091,   0.93771,  -0.33851,  -0.14396,   0.36964,  -0.43189,  -0.52528,   0.98441,   0.75095,   0.96884
  -0.64979,  -0.29182,  -0.79764,   0.35407,   0.56419,  -0.83655,   0.99219,  -0.91437,   0.09727,  -0.60309
   0.99219,  -0.68869,   0.97662,  -0.02724,   0.81320,   0.00389,   0.35407,  -0.79764,  -0.82099,  -0.44746
   0.38520,  -0.02724,  -0.32295,  -0.34629,   0.21400,   0.26069,  -0.57197,  -0.75095,   0.96884,   0.99219
  -0.59531,  -0.29182,   0.12062,   0.99219,  -0.87546,  -0.77430,   0.60309,  -0.79764,   0.45524,  -0.22956
   0.99219,   0.85211,  -0.43189,  -0.96884,  -0.75873,   0.12062,  -0.92215,   0.72760,  -0.77430,  -0.33851
   0.09727,  -0.53306,   0.34629,  -0.92993,   0.80542,   0.40077,   0.99219,  -0.24513,   0.05058,   0.62644
   0.59531,   0.98441,   0.48637,  -0.35407,   0.70426,   0.08171,  -0.61866,  -0.36964,  -0.23735,  -0.71204
  -0.42411,  -0.12062,  -0.56419,   0.97662,   0.35407,  -0.27626,  -0.60309,  -0.79764,  -0.54084,   0.43968
  -0.29960,   0.28404,  -0.45524,  -0.38520,  -0.06615,  -0.19844,   0.24513,   0.98441,   0.89881,  -0.25291
   0.99219,  -0.01167,  -0.40077,  -0.14396,   0.51749,   0.08171,  -0.01945,  -0.26847,  -0.17509,  -0.07393
   0.96106,   0.33073,   0.98441,   0.46302,   0.90659,   0.48637,   0.08949,   0.99219,   0.40855,   0.27626
  -0.78208,  -0.47080,   0.03502,   0.99219,  -0.32295,   0.54862,  -0.65757,  -0.90659,  -0.22178,  -0.25291
  -0.13618,  -0.54862,  -0.91437,  -0.89102,  -0.01167,   0.99219,  -0.15175,  -0.16731,  -0.56419,   0.26069
  -0.84433,  -0.23735,   0.11284,   0.99219,  -0.16731,   0.07393,   0.06615,  -0.43968,   0.94550,   0.05058
   0.15953,  -0.26847,   0.05058,   0.20622,  -0.83655,   0.02724,   0.44746,   0.99219,  -0.12062,  -0.81320
  -0.57975,  -0.96106,   0.68091,   0.19844,   0.12840,   0.23735,   0.05058,   0.56419,   0.98441,   0.90659
  -0.12840,  -0.69648,   0.33073,  -0.35407,   0.98441,  -0.44746,  -0.24513,   0.37742,   0.95328,   0.06615
   0.89102,   0.95328,   0.29960,   0.26069,   0.10506,   0.06615,  -0.08171,   0.06615,   0.91437,   0.12062
   0.09727,   0.05058,   0.01945,  -0.19066,   0.27626,   0.51749,  -0.65757,   0.74317,  -0.12840,  -0.12840
  -0.54862,  -0.47858,   0.99219,  -0.85211,   0.58753,  -0.59531,   0.27626,  -0.32295,   0.49415,   0.57975
   0.99219,  -0.33851,   0.96884,   0.91437,   0.73539,   0.82877,  -0.53306,  -0.22178,  -0.38520,  -0.40077
   0.85211,  -0.08171,  -0.47858,   0.99219,  -0.61866,  -0.41633,  -0.09727,  -0.34629,  -0.53306,  -0.12840
  -0.27626,  -0.70426,  -0.31517,  -0.51749,   0.99219,  -0.56419,   0.84433,  -0.71204,  -0.48637,   0.11284
  -0.29960,  -0.45524,  -0.49415,  -0.29960,  -0.61866,  -0.56419,  -0.89102,  -0.50971,   0.99219,   0.02724
  -0.53306,  -0.28404,  -0.28404,  -0.38520,  -0.08171,   0.29960,  -0.28404,   0.83655,   0.00389,   0.99219
   0.20622,   0.06615,   0.83655,  -0.60309,   0.23735,   0.98441,  -0.82099,  -0.64979,   0.29182,   0.14396
  -0.99219,  -0.90659,   0.01167,   0.42411,  -0.45524,  -0.18287,  -0.56419,  -0.32295,   0.99219,  -0.35407
   0.96106,   0.90659,  -0.17509,  -0.40077,   0.83655,   0.99219,   0.92993,  -0.47080,   0.92993,  -0.29182
  -0.33851,  -0.26069,   0.95328,  -0.35407,  -0.08949,   0.99219,  -0.31517,  -0.19066,  -0.11284,  -0.30738
  -0.46302,   0.12062,  -0.34629,   0.98441,   0.23735,  -0.72760,   0.08171,   0.29960,  -0.13618,   0.01945
   0.78986,  -0.27626,  -0.59531,   0.99219,   0.12840,  -0.55640,  -0.65757,   0.23735,  -0.66535,  -0.11284
   0.07393,  -0.34629,  -0.23735,  -0.89881,   0.29960,   0.78986,  -0.30738,   0.03502,   0.03502,   0.98441
   0.06615,   0.98441,   0.01945,   0.06615,   0.98441,  -0.36186,  -0.33073,  -0.26847,   0.07393,   0.10506
  -0.57197,   0.15175,  -0.31517,  -0.79764,  -0.92215,   0.61866,   0.98441,  -0.33073,  -0.50193,  -0.42411
   0.99219,   0.61866,   0.26069,  -0.93771,   0.22957,  -0.26847,  -0.82099,   0.64979,  -0.53306,   0.15175
  -0.65757,  -0.93771,   0.99219,  -0.22178,  -0.10506,  -0.52528,  -0.88324,  -0.62644,   0.03502,   0.10506
   0.18287,   0.19844,  -0.12840,  -0.48637,  -0.56419,   0.92215,   0.33073,  -0.27626,   0.11284,   0.99219
  -0.68091,  -0.21400,  -0.65757,   0.22178,  -0.21400,  -0.08171,   0.99219,  -0.09727,  -0.83655,  -0.27626
   0.64979,  -0.00389,   0.64200,   0.90659,   0.99219,   0.99219,  -0.54084,   0.94550,   0.43968,   0.14396
   0.22957,   0.54084,   0.75095,   0.81320,   0.38520,   0.99219,   0.96106,   0.93771,   0.29960,   0.98441
   0.67313,  -0.38520,  -0.47080,   0.55640,  -0.45524,   0.29182,  -0.52528,   0.05058,   0.99219,  -0.19066
  -0.17509,  -0.01945,  -0.12062,  -0.50971,   0.58753,   0.99219,  -0.24513,  -0.66535,  -0.08949,  -0.12840
   0.39298,   0.99219,   0.01167,   0.43189,   0.77430,  -0.27626,  -0.99219,   0.06615,  -0.30738,  -0.87546
  -0.19844,   0.97662,   0.15175,  -0.09727,   0.98441,  -0.08171,   0.43189,  -0.39298,   0.42411,   0.28404
  -0.06615,   0.99219,   0.18287,   0.00389,  -0.60309,  -0.71982,   0.94550,  -0.23735,  -0.42411,   0.87546
   0.75873,   0.99219,  -0.53306,   0.04280,   0.54084,  -0.59531,   0.56419,   0.63422,   0.12062,  -0.77430
  -0.37742,  -0.53306,  -0.45524,  -0.23735,   0.84433,  -0.63422,  -0.05836,  -0.35407,   0.98441,  -0.07393
  -0.55640,   0.17509,  -0.49415,   0.98441,   0.98441,  -0.63422,   0.22178,   0.25291,  -0.39298,  -0.33851
   0.27626,   0.55640,   0.29960,   0.98441,   0.15953,   0.30738,   0.95328,  -0.19844,   0.68869,  -0.39298
  -0.38520,  -0.84433,  -0.62644,   0.37742,  -0.82099,  -0.73539,   0.95328,  -0.76651,  -0.21400,   0.99219
  -0.25291,   0.99219,   0.06615,  -0.13618,   0.75095,   0.65757,  -0.20622,   0.14396,   0.33851,  -0.33073
   0.66535,  -0.40855,  -0.64200,  -0.15175,   0.54862,  -0.75095,   0.92215,   0.99219,   0.52528,   0.57197
  -0.78208,  -0.99219,   0.71204,   0.15175,  -0.81320,  -0.02724,   0.15953,   0.14396,  -0.20622,   0.98441
   0.99219,  -0.26069,  -0.60309,   0.97662,  -0.43968,   0.62644,  -0.15175,  -0.19844,   0.98441,  -0.78208
  -0.04280,  -0.20622,   0.95328,   0.27626,   0.96106,  -0.23735,  -0.05836,  -0.29960,   0.19066,  -0.20622
   0.08949,  -0.11284,   0.01167,   0.00389,  -0.86768,   0.92215,  -0.31517,   0.99219,  -0.26847,  -0.25291
   0.58753,   0.04280,  -0.37742,   0.44746,  -0.51749,  -0.92215,   0.99219,   0.15175,   0.40077,  -0.91437
   0.99219,   0.78208,  -0.71204,  -0.34629,  -0.06615,  -0.12840,   0.07393,  -0.54084,   0.00389,   0.12062
  -0.38520,  -0.30738,   0.49415,   0.12062,  -0.64979,  -0.57197,  -0.19066,  -0.18287,  -0.18287,   0.98441
   0.03502,   0.94550,   0.26069,  -0.05058,  -0.12062,   0.07393,  -0.16731,   0.94550,   0.22957,   0.47080
  -0.22956,  -0.04280,  -0.48637,  -0.42411,  -0.22178,  -0.29182,   0.99219,  -0.11284,  -0.43189,  -0.55640
  -0.15953,   0.10506,   0.06615,  -0.76651,  -0.74317,   0.97662,  -0.30738,   0.96884,   0.46302,  -0.51749
  -0.23735,   0.96106,  -0.65757,  -0.43968,  -0.23735,   0.99219,  -0.31517,   0.20622,  -0.57975,   0.47858
  -0.64979,   0.34629,  -0.15953,   0.55640,   0.99219,  -0.71982,  -0.75095,  -0.93771,  -0.75873,  -0.40077
  -0.05836,  -0.28404,   0.29960,   0.19844,   0.99219,  -0.01945,   0.19844,   0.96884,  -0.19844,  -0.26847
   0.40855,  -0.62644,  -0.26069,   0.99219,   0.71204,  -0.66535,   0.72760,   0.03502,  -0.32295,   0.50193
  -0.38520,   0.00389,  -0.55640,  -0.50971,   0.01945,   0.95328,  -0.23735,   0.96106,  -0.20622,   0.00389
  -0.43968,  -0.82099,  -0.38520,  -0.20622,  -0.84433,  -0.11284,   0.19066,   0.39298,   0.26069,   0.92215
  -0.98441,   0.52528,   0.99219,   0.08949,  -0.64979,   0.50971,   0.39298,   0.19844,   0.05836,   0.65757
   0.20622,  -0.55640,  -0.48637,  -0.64200,  -0.17509,   0.03502,  -0.27626,   0.99219,  -0.26847,  -0.85990
  -0.33073,  -0.26069,  -0.82099,   0.97662,   0.97662,  -0.64200,  -0.01945,   0.07393,  -0.04280,  -0.54084
  -0.19844,  -0.88324,   0.24513,   0.97662,   0.29182,  -0.25291,   0.92993,  -0.01167,  -0.36964,   0.80542
   0.78208,   0.29960,   0.99219,   0.94550,  -0.71982,   0.98441,   0.87546,  -0.74317,   0.33851,   0.08171
  -0.51749,  -0.74317,  -0.08171,  -0.12840,   0.87546,   0.86768,   0.05058,   0.99219,  -0.28404,  -0.63422
  -0.96106,  -0.00389,   0.64979,   0.89102,   0.99219,   0.77430,   0.90659,  -0.61088,  -0.02724,  -0.33073
  -0.31517,  -0.09727,  -0.31517,  -0.71204,   0.99219,  -0.55640,  -0.06615,  -0.19844,  -0.04280,   0.03502
   0.92993,   0.00389,   0.09727,  -0.08949,   0.89881,  -0.12062,   0.30738,   0.93771,   0.47080,  -0.09727
   0.20622,   0.82099,  -0.19066,  -0.19066,  -0.75095,  -0.43968,  -0.75095,   0.57197,   0.95328,   0.95328
   0.01167,  -0.00389,  -0.67313,  -0.33851,  -0.47080,   0.75873,   0.43189,  -0.92215,   0.01945,   0.02724
  -0.53306,  -0.33073,   0.51749,   0.99219,   0.44746,  -0.57197,   0.99219,  -0.43189,  -0.20622,   0.68869
   0.99219,  -0.22178,  -0.60309,   0.96106,   0.92215,   0.91437,  -0.37742,  -0.92993,  -0.24513,  -0.57197
  -0.36964,  -0.29960,   0.99219,  -0.29182,  -0.85211,   0.22178,  -0.40855,  -0.09727,  -0.14396,  -0.22178
   0.41633,   0.99219,  -0.23735,   0.36964,   0.29960,  -0.24513,   0.08949,  -0.26069,  -0.99219,  -0.83655
  -0.77430,  -0.88324,   0.46302,  -0.98441,   0.66535,  -0.41633,  -0.50193,   0.05836,   0.02724,   0.99219
   0.51749,   0.18287,   0.24513,   0.99219,  -0.49415,   0.23735,  -0.46302,  -0.65757,   0.94550,   0.06615
   0.99219,  -0.80542,  -0.38520,  -0.78208,   0.29960,  -0.25291,  -0.73539,  -0.73539,  -0.60309,   0.36964
   0.96106,   0.24513,  -0.29960,  -0.38520,  -0.33851,  -0.78986,  -0.57197,  -0.53306,   0.98441,  -0.21400
  -0.09727,   0.99219,  -0.41633,  -0.16731,   0.91437,  -0.18287,   0.20622,   0.99219,  -0.16731,   0.05058
   0.80542,   0.72760,   0.11284,  -0.59531,   0.41633,  -0.55640,  -0.02724,  -0.00389,   0.99219,  -0.85211
   0.78208,   0.01945,   0.92215,  -0.95328,   0.92993,  -0.20622,  -0.87546,   0.97662,   0.60309,   0.96106
   0.22957,  -0.89102,   0.01167,   0.10506,  -0.18287,   0.57197,   0.70426,  -0.82877,   0.14396,   0.99219
  -0.78208,  -0.34629,  -0.96106,  -0.50193,  -0.73539,  -0.26847,   0.82099,  -0.94550,   0.98441,  -0.28404
   0.99219,   0.10506,  -0.74317,   0.10506,   0.99219,  -0.48637,  -0.77430,  -0.87546,  -0.47858,  -0.57975
   0.44746,   0.74317,   0.12840,   0.99219,  -0.82099,  -0.53306,  -0.85211,   0.44746,  -0.46302,   0.08949
  -0.17509,  -0.70426,  -0.46302,   0.63422,  -0.89102,  -0.84433,   0.99219,  -0.15953,  -0.40855,  -0.47858
   0.29960,  -0.02724,   0.34629,  -0.09727,  -0.52528,  -0.27626,   0.53306,   0.99219,   0.14396,  -0.47858
   0.96106,   0.95328,   0.92215,   0.71982,   0.99219,  -0.08949,   0.84433,   0.18287,   0.38520,  -0.27626
  -0.06615,  -0.10506,  -0.33073,   0.87546,   0.97662,   0.98441,   0.40855,   0.81320,   0.06615,  -0.29182
  -0.69648,   0.99219,  -0.41633,  -0.46302,   0.10506,  -0.19844,  -0.36964,   0.67313,  -0.13618,  -0.50193
  -0.33073,  -0.51749,   0.71204,   0.33851,  -0.32295,  -0.55640,  -0.44746,   0.99219,  -0.39298,  -0.68869
  -0.97662,  -0.15953,   0.22957,  -0.89881,   0.98441,   0.19844,   0.98441,  -0.84433,  -0.77430,  -0.53306
  -0.97662,  -0.36964,  -0.22178,  -0.96884,  -0.82099,   0.99219,   0.03502,  -0.11284,  -0.89102,  -0.59531
  -0.09727,  -0.92993,  -0.65757,   0.99219,  -0.91437,  -0.63422,  -0.79764,   0.17509,  -0.82877,  -0.54084
  -0.01167,  -0.23735,  -0.57197,  -0.25291,   0.85990,  -0.40855,   0.98441,  -0.15175,  -0.40855,   0.38520
  -0.07393,  -0.53306,  -0.30738,   0.78208,   0.99219,   0.07393,  -0.32295,  -0.87546,  -0.29960,   0.26847
  -0.47080,  -0.61088,   0.01167,  -0.71204,   0.02724,  -0.03502,   0.54084,  -0.30738,   0.99219,  -0.11284
  -0.80542,  -0.36186,   0.39298,  -0.33851,  -0.43189,  -0.45524,  -0.31517,   0.96884,  -0.11284,   0.96884
  -0.44746,  -0.43968,   0.99219,   0.43189,  -0.66535,  -0.85990,   0.36964,  -0.36186,  -0.35407,  -0.33073
   0.36186,  -0.07393,  -0.89102,   0.98441,  -0.57197,  -0.45524,  -0.34629,  -0.29182,   0.61088,   0.43189
  -0.96884,  -0.57197,  -0.12062,   0.79764,  -0.02724,   0.75873,   0.44746,  -0.22178,   0.99219,  -0.75095
  -0.24513,   0.42411,   0.99219,   0.99219,   0.71204,  -0.26847,   0.63422,  -0.36186,  -0.67313,  -0.23735
   0.97662,   0.27626,   0.98441,  -0.35407,   0.70426,   0.90659,   0.55640,   0.97662,   0.50971,   0.03502
  -0.82099,  -0.24513,   0.99219,   0.74317,  -0.40855,   0.96106,  -0.91437,  -0.65757,  -0.42411,  -0.66535
  -0.26069,   0.28404,  -0.65757,   0.41633,  -0.95328,   0.13618,   0.99219,   0.09727,  -0.06615,   0.10506
  -0.84433,   0.93771,   0.26847,  -0.65757,  -0.86768,   0.40855,  -0.76651,   0.63422,  -0.42411,   0.57197
   0.38520,   0.98441,   0.33851,   0.93771,  -0.26847,  -0.07393,  -0.43189,   0.25291,   0.43189,  -0.48637
  -0.17509,  -0.16731,  -0.23735,   0.99219,  -0.05836,   0.05058,   0.05836,  -0.05836,   0.12062,   0.05836
   0.19844,  -0.17509,  -0.72760,  -0.09727,  -0.09727,  -0.54084,   0.11284,   0.85990,  -0.39298,   0.99219
   0.64979,  -0.23735,  -0.59531,   0.94550,   0.22957,   0.97662,   0.93771,   0.85211,  -0.03502,  -0.29182
  -0.47080,   0.08949,   0.47858,  -0.97662,  -0.20622,   0.99219,   0.30738,  -0.16731,  -0.31517,  -0.89881
  -0.63422,   0.75095,  -0.87546,   0.99219,   0.89881,   0.97662,  -0.94550,   0.62644,   0.99219,   0.85211
  -0.26847,  -0.36964,   0.47080,   0.22957,   0.05058,  -0.78208,   0.99219,   0.08171,   0.29960,  -0.01945
   0.99219,  -0.73539,  -0.78208,  -0.08949,   0.98441,  -0.20622,  -0.63422,  -0.56419,   0.11284,  -0.01167
  -0.66535,  -0.83655,   0.51749,  -0.41633,   0.33073,   0.71204,  -0.01167,  -0.18287,  -0.40077,   0.99219
  -0.12840,   0.08949,  -0.17509,  -0.19844,  -0.38520,   0.43189,  -0.12062,   0.12062,   0.98441,  -0.95328
   0.99219,  -0.44746,  -0.97662,  -0.47858,  -0.11284,   0.38520,   0.30738,  -0.97662,  -0.83655,  -0.50193
   0.71982,  -0.38520,   0.99219,  -0.98441,  -0.95328,   0.17509,  -0.82877,  -0.63422,   0.93771,  -0.36186
   0.96106,   0.33851,   0.99219,  -0.24513,  -0.91437,  -0.01945,  -0.51749,   0.01945,   0.97662,   0.33851
   0.69648,  -0.11284,  -0.29182,  -0.09727,   0.99219,   0.27626,   0.79764,  -0.75095,   0.34629,   0.15953
   0.99219,  -0.13618,   0.94550,   0.03502,   0.36964,   0.14396,   0.82877,   0.58753,   0.12062,  -0.22956
   0.08171,   0.00389,   0.96884,  -0.70426,   0.13618,  -0.64979,   0.64979,  -0.62644,  -0.36964,  -0.24513
  -0.49415,  -0.03502,   0.99219,  -0.23735,  -0.86768,  -0.39298,   0.61088,   0.85211,  -0.56419,  -0.29960
  -0.21400,   0.99219,  -0.36186,  -0.13618,  -0.55640,  -0.29960,  -0.29182,   0.38520,  -0.27626,  -0.56419
  -0.76651,  -0.08171,  -0.31517,   0.78986,  -0.05058,   0.98441,  -0.28404,  -0.61866,  -0.30738,   0.04280
  -0.33851,   0.43968,   0.42411,  -0.11284,  -0.16731,   0.48637,  -0.23735,   0.99219,  -0.32295,   0.99219
   0.75095,  -0.17509,   0.21400,   0.92993,   0.98441,   0.85211,   0.69648,   0.97662,   0.98441,  -0.86768
   0.91437,  -0.51749,  -0.05836,  -0.42411,  -0.34629,  -0.75873,   0.83655,  -0.76651,   0.99219,  -0.81320
  -0.32295,   0.10506,  -0.24513,   0.34629,  -0.06615,  -0.11284,   0.96884,   0.51749,  -0.16731,   0.97662
  -0.21400,   0.98441,   0.96106,  -0.34629,  -0.34629,   0.50971,  -0.12840,  -0.55640,   0.40855,   0.61088
  -0.00389,   0.83655,   0.82877,  -0.35407,   0.99219,  -0.77430,   0.91437,  -0.71204,   0.32295,   0.29960
  -0.51749,  -0.04280,   0.52528,  -0.37742,  -0.36186,   0.68869,   0.47858,   0.64979,  -0.16731,   0.26069
   0.99219,  -0.80542,   0.23735,  -0.85990,  -0.82877,  -0.50193,   0.47858,   0.99219,  -0.40077,   0.12840
  -0.40855,   0.09727,   0.99219,  -0.35407,  -0.54084,  -0.94550,   0.50193,  -0.12840,   0.89102,  -0.20622
  -0.07393,  -0.08171,  -0.78986,  -0.67313,   0.57197,   0.99219,   0.37742,  -0.61088,  -0.01167,   0.26847
   0.87546,   0.22957,   0.90659,   0.98441,   0.70426,   0.92215,   0.93771,   0.70426,   0.32295,   0.32295
  -0.08949,   0.15953,   0.00389,  -0.33073,  -0.05836,   0.99219,  -0.32295,   0.59531,   0.92215,  -0.02724
   0.59531,   0.47858,   0.71204,   0.58753,   0.96884,   0.61088,   0.07393,   0.21400,   0.99219,  -0.23735
  -0.48637,  -0.12062,   0.11284,  -0.77430,  -0.96106,   0.31517,  -0.21400,  -0.62644,  -0.52528,  -0.20622
  -0.19844,   0.98441,   0.26069,  -0.48637,  -0.47858,  -0.18287,  -0.32295,  -0.04280,   0.96106,   0.29960
   0.00389,   0.71982,  -0.06615,  -0.85211,  -0.93771,  -0.10506,   0.99219,   0.21400,   0.24513,  -0.49415
   0.68869,  -0.43968,  -0.61088,   0.96106,  -0.01945,  -0.53306,   0.96884,   0.63422,  -0.71204,  -0.77430
  -0.57197,  -0.12840,   0.15175,   0.99219,  -0.42411,  -0.59531,   0.03502,   0.63422,  -0.18287,   0.04280
   0.10506,   0.00389,   0.75873,   0.96106,  -0.16731,   0.99219,   0.99219,   0.04280,   0.28404,  -0.50971
   0.72760,   0.16731,   0.89102,  -0.97662,  -0.85211,  -0.70426,   0.71982,   0.96106,   0.32295,   0.75095
   0.23735,  -0.85211,  -0.84433,  -0.81320,   0.98441,   0.30738,  -0.36186,  -0.47080,  -0.17509,   0.99219
   0.37742,   0.98441,   0.37742,   0.99219,   0.94550,   0.98441,  -0.01167,   0.63422,   0.55640,   0.97662
   0.32295,  -0.23735,   0.60309,   0.87546,   0.92993,   0.92993,   0.43189,   0.97662,   0.40855,   0.36964
   0.24513,   0.57975,   0.61866,  -0.82877,  -0.29960,  -0.40855,  -0.00389,   0.99219,   0.36186,  -0.85990
   0.03502,  -0.12840,   0.91437,  -0.43968,   0.22178,   0.57975,   0.58753,  -0.38520,   0.99219,  -0.54084
  -0.29182,   0.99219,  -0.05836,   0.25291,  -0.65757,  -0.23735,  -0.48637,   0.31517,  -0.35407,  -0.83655
  -0.94550,  -0.56419,   0.99219,   0.78986,  -0.40855,  -0.18287,  -0.95328,  -0.07393,   0.60309,  -0.17509
  -0.96106,  -0.43968,   0.99219,   0.20622,   0.31517,  -0.21400,  -0.36964,  -0.07393,   0.99219,  -0.93771
  -0.55640,  -0.93771,  -0.00389,  -0.59531,   0.52528,  -0.05058,  -0.49415,  -0.46302,   0.99219,  -0.00389
  -0.05058,   0.99219,  -0.54084,   0.12840,  -0.06615,  -0.17509,  -0.49415,   0.35407,   0.07393,  -0.55640
  -0.68869,  -0.50193,  -0.34629,  -0.89102,   0.98441,   0.17509,  -0.78986,  -0.32295,   0.98441,   0.16731
  -0.21400,  -0.28404,   0.98441,  -0.85990,   0.90659,   0.02724,  -0.77430,  -0.46302,   0.40077,   0.19844
   0.19844,   0.85990,  -0.38520,  -0.15953,  -0.49415,  -0.56419,  -0.95328,  -0.78986,  -0.61088,  -0.35407
   0.21400,  -0.38520,   0.99219,  -0.01167,  -0.68091,  -0.92215,  -0.64979,   0.54084,  -0.73539,  -0.20622
   0.99219,   0.08171,   0.50971,   0.15175,  -0.90659,  -0.54084,   0.23735,  -0.47080,   0.57975,  -0.15175
   0.96106,  -0.06615,  -0.01167,   0.98441,   0.23735,  -0.20622,  -0.57197,   0.04280,  -0.15175,  -0.52528
  -0.61866,  -0.01945,   0.99219,   0.15175,   0.06615,  -0.36964,  -0.20622,   0.05058,   0.23735,  -0.08949
  -0.57197,  -0.08949,   0.44746,  -0.05058,   0.99219,  -0.23735,   0.08949,   0.98441,  -0.89881,   0.68869
  -0.64979,  -0.37742,  -0.14396,   0.85211,   0.34629,  -0.09727,  -0.35407,  -0.85211,  -0.41633,   0.99219
   0.17509,   0.40077,  -0.33073,   0.96884,  -0.06615,   0.97662,   0.91437,   0.37742,   0.05836,   0.13618
  -0.00389,  -0.33851,  -0.30738,  -0.32295,   0.98441,   0.05058,  -0.64979,   0.77430,  -0.36186,   0.96884
  -0.20622,   0.96106,  -0.51749,   0.01167,   0.98441,  -0.53306,  -0.08171,   0.60309,  -0.19844,  -0.19844
   0.89102,  -0.33073,   0.82099,  -0.70426,   0.76651,  -0.82877,  -0.75873,  -0.26847,  -0.18287,   0.85990
  -0.51749,  -0.06615,   0.18287,  -0.63422,   0.89881,   0.29960,   0.22957,   0.97662,   0.02724,  -0.10506
   0.97662,  -0.11284,  -0.67313,   0.83655,  -0.07393,  -0.19066,  -0.19066,   0.36964,  -0.15175,   0.01167
   0.36964,  -0.05058,  -0.27626,  -0.47858,  -0.50971,  -0.42411,  -0.22956,   0.99219,   0.20622,  -0.04280
  -0.37742,   0.20622,   0.98441,  -0.86768,  -0.26847,   0.97662,  -0.33073,   0.12840,  -0.62644,  -0.03502
   0.32295,   0.33073,   0.31517,  -0.22956,   0.99219,  -0.91437,  -0.97662,  -0.75873,   0.61088,   0.41633
  -0.76651,  -0.52528,  -0.92993,   0.96884,  -0.85990,   0.94550,   0.91437,   0.95328,   0.99219,  -0.71982
  -0.50193,  -0.13618,  -0.25291,   0.97662,   0.55640,  -0.38520,  -0.75873,   0.24513,   0.78986,   0.96884
  -0.31517,   0.09727,   0.99219,   0.12062,  -0.23735,  -0.33073,  -0.66535,   0.02724,   0.93771,   0.36186
   0.12840,  -0.02724,   0.19844,  -0.53306,  -0.24513,  -0.12062,   0.98441,   0.98441,   0.12840,  -0.09727
   0.47080,   0.99219,  -0.01167,  -0.42411,  -0.12062,   0.10506,  -0.82877,   0.06615,   0.43189,  -0.71204
  -0.38520,   0.14396,   0.30738,  -0.47080,  -0.46302,   0.07393,  -0.06615,  -0.78208,   0.99219,   0.03502
  -0.29960,  -0.47080,  -0.69648,   0.99219,  -0.38520,  -0.29182,  -0.05058,  -0.57197,  -0.89881,   0.98441
   0.68091,  -0.11284,   0.05836,   0.65757,  -0.38520,  -0.70426,  -0.68869,   0.99219,  -0.82877,  -0.84433
   0.13618,  -0.33073,  -0.28404,   0.99219,   0.33073,   0.96106,   0.05058,  -0.08949,  -0.05058,  -0.01167
   0.93771,  -0.29960,   0.95328,   0.79764,   0.57197,  -0.22956,   0.98441,   0.19066,  -0.03502,   0.25291
  -0.47080,  -0.68869,   0.98441,  -0.89881,  -0.62644,   0.81320,   0.78208,  -0.08171,   0.25291,   0.40077
  -0.04280,  -0.02724,   0.02724,  -0.61088,   0.68869,   0.84433,  -0.53306,   0.99219,   0.15175,  -0.04280
  -0.57975,   0.71204,  -0.52528,  -0.71204,  -0.57975,   0.99219,  -0.60309,  -0.44746,  -0.55640,   0.92215
   0.08949,   0.99219,  -0.26069,  -0.17509,  -0.98441,   0.06615,   0.61088,  -0.22956,   0.33073,   0.22957
   0.99219,   0.40077,   0.94550,  -0.66535,   0.87546,   0.07393,  -0.28404,  -0.47858,   0.97662,   0.94550
   0.99219,  -0.70426,  -0.91437,  -0.65757,   0.75095,   0.07393,  -0.15175,  -0.54862,  -0.49415,   0.75873
  -0.28404,   0.61866,   0.60309,   0.78208,   0.99219,   0.24513,   0.92215,   0.92215,  -0.33073,   0.95328
   0.97662,   0.71204,  -0.43968,  -0.01945,  -0.12062,  -0.10506,  -0.29182,   0.96884,  -0.36964,  -0.71204
  -0.89881,  -0.58753,  -0.59531,   0.98441,  -0.98441,  -0.96884,  -0.09727,   0.06615,   0.30738,   0.29960
   0.61088,   0.05058,  -0.43189,   0.98441,   0.94550,   0.01945,  -0.67313,  -0.42411,  -0.16731,  -0.30738
  -0.35407,  -0.50193,  -0.89102,   0.96884,  -0.08949,  -0.11284,   0.07393,  -0.34629,   0.09727,  -0.04280
   0.94550,  -0.10506,   0.96106,  -0.08171,   0.89102,  -0.18287,  -0.57197,  -0.57975,   0.94550,   0.35407
  -0.45524,   0.39298,   0.09727,   0.15953,  -0.68091,  -0.82877,   0.99219,  -0.01945,  -0.70426,   0.20622
   0.09727,   0.19066,   0.05836,   0.97662,  -0.81320,  -0.70426,  -0.06615,   0.25291,   0.03502,   0.08171
   0.97662,  -0.51749,   0.95328,  -0.22178,  -0.22956,  -0.11284,  -0.46302,  -0.92993,  -0.85990,  -0.89881
   0.04280,   0.89102,   0.44746,  -0.29182,  -0.06615,  -0.59531,   0.99219,  -0.61866,  -0.32295,   0.83655
  -0.08171,   0.68869,  -0.57197,   0.99219,   0.17509,  -0.47080,   0.69648,   0.54862,   0.04280,  -0.64979
  -0.75873,  -0.51749,  -0.08949,   0.94550,  -0.95328,  -0.82099,  -0.37742,   0.99219,  -0.08171,  -0.25291
  -0.21400,  -0.09727,   0.09727,  -0.35407,   0.37742,  -0.06615,  -0.12840,   0.99219,  -0.26847,   0.64200
   0.96106,  -0.30738,   0.99219,  -0.42411,  -0.44746,   0.11284,  -0.29960,   0.88324,  -0.29182,   0.10506
  -0.56419,   0.40855,  -0.04280,  -0.12840,   0.99219,  -0.48637,  -0.57197,   0.03502,  -0.12840,  -0.18287
  -0.75095,   0.86768,  -0.85990,   0.20622,  -0.66535,   0.05836,   0.79764,   0.29182,   0.99219,   0.87546
  -0.12840,  -0.63422,  -0.24513,   0.96106,  -0.20622,   0.84433,   0.12062,   0.75873,   0.98441,   0.48637
  -0.15175,   0.97662,  -0.25291,   0.95328,  -0.98441,  -0.50193,  -0.49415,  -0.64979,  -0.19066,  -0.37742
  -0.30738,  -0.47080,   0.94550,  -0.10506,  -0.37742,  -0.31517,   0.98441,  -0.07393,  -0.96884,   0.29182
  -0.99219,  -0.88324,   0.89881,   0.97662,   0.96106,   0.36964,   0.90659,   0.73539,  -0.79764,  -0.19066
  -0.03502,  -0.25291,   0.49415,  -0.37742,  -0.26069,  -0.13618,   0.96106,  -0.75873,   0.28404,   0.98441
   0.99219,  -0.33073,  -0.60309,  -0.54862,  -0.67313,  -0.58753,   0.97662,  -0.40077,   0.80542,  -0.32295
   0.99219,   0.31517,   0.02724,  -0.01945,   0.99219,  -0.70426,  -0.13618,   0.19844,  -0.20622,   0.43968
   0.99219,   0.33073,  -0.93771,  -0.61088,   0.78208,   0.98441,  -0.68091,  -0.33073,   0.83655,  -0.82099
   0.99219,   0.96884,   0.27626,   0.14396,   0.91437,  -0.40077,  -0.46302,   0.05058,  -0.04280,   0.61866
  -0.15175,   0.27626,  -0.81320,   0.33851,  -0.57197,   0.94550,   0.96106,  -0.55640,  -0.40855,  -0.15953
  -0.95328,   0.08171,   0.03502,   0.99219,  -0.96884,  -0.97662,  -0.89881,   0.15953,   0.92993,  -0.43968
   0.99219,   0.25291,  -0.96106,  -0.34629,  -0.78208,  -0.43189,  -0.70426,   0.26847,  -0.37742,  -0.43968
  -0.36964,   0.89881,  -0.09727,  -0.89881,  -0.50193,  -0.38520,  -0.68091,   0.48637,  -0.54862,   0.90659
   0.12840,  -0.67313,  -0.96884,  -0.77430,  -0.72760,   0.99219,  -0.10506,   0.41633,   0.18287,   0.36186
  -0.36186,  -0.33073,  -0.28404,  -0.23735,  -0.91437,   0.23735,  -0.22178,  -0.13618,   0.99219,  -0.21400
  -0.89102,  -0.09727,  -0.23735,   0.26069,  -0.08171,  -0.45524,  -0.68091,   0.99219,  -0.13618,   0.22178
   0.07393,  -0.06615,  -0.61088,   0.98441,  -0.57197,  -0.92993,   0.54862,  -0.68869,  -0.73539,  -0.03502
   0.99219,   0.63422,  -0.78208,  -0.05058,   0.51749,  -0.33851,   0.71982,  -0.17509,  -0.34629,   0.11284
   0.99219,  -0.05836,  -0.07393,   0.12840,   0.50193,   0.24513,  -0.79764,   0.28404,  -0.98441,  -0.30738
  -0.97662,  -0.73539,   0.99219,  -0.35407,  -0.05058,  -0.59531,  -0.57975,   0.61088,   0.15953,   0.03502
  -0.13618,   0.03502,  -0.34629,   0.91437,   0.35407,   0.98441,   0.95328,  -0.21400,   0.09727,   0.97662
   0.26847,  -0.79764,   0.03502,  -0.33851,  -0.36186,  -0.45524,  -0.66535,  -0.40077,  -0.37742,   0.99219
   0.14396,   0.16731,  -0.14396,   0.61088,  -0.23735,   0.98441,   0.20622,  -0.57975,   0.14396,   0.10506
   0.36186,   0.36964,  -0.40077,   0.99219,  -0.51749,   0.96884,  -0.80542,  -0.43189,   0.34629,  -0.08949
  -0.78208,   0.99219,  -0.54862,   0.99219,  -0.26847,  -0.22956,   0.89102,   0.07393,  -0.40077,   0.64979
  -0.59531,   0.95328,   0.90659,   0.96884,  -0.43189,   0.08949,   0.17509,  -0.44746,   0.96106,  -0.05836
   0.98441,  -0.19066,   0.82877,   0.63422,   0.26847,   0.29960,   0.11284,   0.98441,   0.93771,   0.27626
   0.63422,   0.36964,   0.23735,  -0.20622,   0.25291,   0.08171,   0.06615,   0.98441,  -0.27626,  -0.19844
  -0.29182,   0.61088,  -0.55640,   0.03502,  -0.76651,   0.28404,   0.66535,   0.99219,  -0.05836,  -0.76651
  -0.75873,  -0.03502,   0.34629,   0.99219,   0.82099,   0.92993,  -0.12062,   0.35407,   0.07393,   0.53306
   0.55640,   0.87546,  -0.68869,  -0.89102,   0.33851,  -0.66535,  -0.07393,  -0.04280,   0.99219,  -0.61866
   0.15175,  -0.50971,  -0.75873,  -0.79764,   0.99219,   0.31517,  -0.01945,  -0.40077,   0.23735,  -0.96884
  -0.13618,   0.98441,   0.17509,  -0.19844,  -0.47080,  -0.71204,  -0.38520,   0.56419,   0.64200,  -0.72760
   0.39298,  -0.84433,  -0.38520,  -0.33073,  -0.05058,   0.43189,   0.99219,   0.57975,  -0.12840,  -0.12840
   0.63422,   0.40077,   0.96884,   0.05058,   0.54862,   0.39298,   0.83655,   0.61866,   0.98441,  -0.36186
  -0.79764,   0.98441,   0.46302,  -0.28404,  -0.29960,   0.19844,  -0.91437,  -0.12840,  -0.40855,  -0.60309
  -0.58753,   0.07393,  -0.46302,   0.99219,   0.36186,  -0.73539,  -0.66535,   0.02724,  -0.10506,  -0.05058
   0.99219,   0.18287,   0.16731,   0.96884,  -0.40077,  -0.04280,   0.28404,   0.05058,  -0.25291,   0.22957
  -0.28404,   0.21400,  -0.43189,  -0.82877,  -0.20622,  -0.58753,   0.99219,   0.08171,   0.05058,   0.39298
   0.10506,   0.36964,  -0.43968,  -0.34629,  -0.14396,   0.42411,   0.97662,   0.18287,  -0.72760,   0.99219
   0.26069,  -0.83655,  -0.04280,   0.19066,   0.99219,  -0.34629,  -0.97662,  -0.93771,   0.10506,   0.16731
   0.95328,  -0.45524,  -0.53306,  -0.44746,  -0.51749,  -0.84433,   0.15175,  -0.59531,   0.91437,  -0.63422
  -0.55640,  -0.51749,  -0.20622,  -0.54084,   0.64979,   0.42411,   0.23735,  -0.62644,  -0.94550,   0.99219
   0.93771,  -0.50971,   0.99219,  -0.28404,   0.95328,  -0.29182,  -0.61866,   0.51749,   0.10506,   0.29960
  -0.80542,  -0.65757,   0.99219,  -0.52528,   0.75873,   0.08171,   0.95328,   0.16731,   0.33851,  -0.24513
  -0.22178,  -0.58753,   0.99219,  -0.76651,  -0.85211,  -0.85990,   0.67313,  -0.87546,  -0.47858,  -0.38520
  -0.92215,  -0.40077,   0.18287,  -0.75873,  -0.36964,  -0.05058,   0.87546,   0.48637,   0.98441,  -0.91437
   0.88324,   0.15175,  -0.29182,   0.99219,   0.45524,   0.61088,  -0.69648,  -0.12062,  -0.97662,  -0.90659
   0.41633,   0.89102,  -0.17509,   0.07393,  -0.25291,   0.98441,   0.95328,  -0.67313,   0.92993,   0.75873
  -0.89102,  -0.66535,   0.10506,   0.70426,   0.13618,  -0.22178,   0.64200,  -0.64200,   0.33851,   0.99219
  -0.25291,   0.99219,  -0.28404,   0.78986,   0.04280,   0.15953,   0.13618,   0.08949,  -0.35407,  -0.62644
  -0.17509,   0.07393,   0.89102,   0.98441,  -0.40855,   0.95328,   0.22178,  -0.04280,   0.00389,  -0.24513
   0.07393,   0.89102,  -0.15175,   0.26069,  -0.66535,  -0.29182,  -0.01167,   0.99219,  -0.24513,  -0.18287
  -0.59531,   0.68091,  -0.56419,  -0.51749,  -0.26069,   0.48637,  -0.99219,   0.19066,   0.98441,   0.42411
  -0.41633,   0.54862,   0.99219,  -0.60309,   0.20622,   0.88324,  -0.57197,  -0.68091,  -0.70426,  -0.55640
   0.92215,   0.08949,  -0.54084,   0.12062,   0.99219,  -0.43968,   0.09727,   0.18287,  -0.37742,   0.40855
  -0.83655,  -0.44746,  -0.23735,  -0.26069,  -0.49415,   0.50971,  -0.02724,   0.99219,  -0.12062,   0.66535
  -0.92993,   0.22178,  -0.85990,  -0.20622,   0.04280,   0.07393,  -0.95328,  -0.08949,   0.99219,  -0.99219
  -0.60309,   0.84433,   0.96106,  -0.32295,   0.96884,  -0.37742,  -0.34629,   0.04280,  -0.69648,   0.40855
   0.99219,  -0.19844,  -0.97662,   0.44746,   0.50193,  -0.64979,   0.78986,   0.42411,   0.01167,  -0.47080
  -0.13618,  -0.68869,  -0.46302,   0.86768,  -0.92215,  -0.30738,  -0.95328,  -0.70426,  -0.46302,   0.99219
   0.43968,  -0.53306,   0.02724,  -0.59531,   0.08949,   0.61088,   0.99219,   0.19844,  -0.72760,   0.07393
  -0.41633,  -0.37742,   0.89881,   0.99219,  -0.68869,  -0.44746,  -0.27626,  -0.01945,  -0.71982,   0.99219
   0.51749,  -0.16731,   0.96884,   0.15953,  -0.17509,   0.99219,  -0.50971,  -0.75095,  -0.08949,  -0.05058
  -0.82099,   0.36186,   0.99219,   0.10506,  -0.46302,  -0.90659,  -0.78208,   0.25291,   0.23735,  -0.00389
  -0.80542,  -0.28404,   0.96884,   0.71982,   0.99219,   0.92993,   0.93771,   0.93771,  -0.72760,  -0.17509
   0.20622,   0.75095,   0.99219,  -0.71982,   0.92215,  -0.57197,  -0.43189,  -0.85990,  -0.50193,   0.05058
   0.20622,   0.99219,  -0.28404,   0.15953,  -0.54084,   0.57975,  -0.29960,  -0.08171,   0.32295,  -0.42411
   0.12840,   0.05058,   0.10506,   0.96884,  -0.34629,  -0.84433,   0.96884,  -0.60309,   0.15175,  -0.51749
  -0.49415,  -0.81320,   0.99219,   0.98441,   0.98441,  -0.21400,   0.67313,  -0.45524,  -0.82877,  -0.11284
   0.50971,  -0.03502,  -0.72760,   0.99219,  -0.81320,  -0.50193,   0.95328,  -0.56419,   0.24513,   0.43189
   0.05058,   0.96884,  -0.36186,   0.96884,   0.79764,  -0.33851,   0.53306,   0.01167,  -0.00389,   0.43189
  -0.49415,  -0.45524,  -0.12840,  -0.26069,  -0.12062,   0.99219,  -0.67313,  -0.67313,   0.74317,  -0.26847
  -0.45524,   0.48637,   0.12062,   0.22178,  -0.68091,  -0.22956,   0.98441,   0.18287,   0.96884,  -0.29182
  -0.22178,   0.85990,   0.20622,  -0.22178,   0.02724,   0.18287,   0.21400,   0.18287,  -0.10506,   0.99219
  -0.54862,  -0.72760,  -0.79764,  -0.32295,  -0.73539,   0.52528,   0.99219,  -0.25291,   0.72760,   0.13618
   0.94550,  -0.85211,  -0.08949,   0.37742,   0.48637,   0.65757,   0.92993,   0.55640,   0.78986,  -0.88324
  -0.86768,   0.16731,  -0.19066,  -0.56419,  -0.30738,   0.88324,  -0.35407,   0.99219,  -0.08949,   0.67313
  -0.87546,  -0.15953,   0.99219,  -0.28404,  -0.50193,  -0.64200,  -0.49415,  -0.47080,   0.26847,   0.09727
   0.40077,  -0.98441,  -0.75095,   0.02724,   0.99219,   0.58753,  -0.35407,  -0.85990,   0.16731,  -0.41633
   0.89881,  -0.87546,  -0.20622,  -0.27626,   0.21400,  -0.43189,  -0.04280,   0.04280,   0.95328,  -0.08949
   0.15953,   0.96884,   0.96884,  -0.75095,   0.97662,  -0.89102,  -0.58753,   0.25291,   0.24513,   0.99219
   0.02724,  -0.15953,   0.32295,   0.99219,   0.09727,  -0.30738,  -0.79764,   0.02724,  -0.27626,  -0.81320
  -0.99219,   0.96106,  -0.36186,  -0.77430,  -0.09727,   0.39298,   0.99219,   0.03502,   0.57975,   0.96884
   0.23735,  -0.54084,  -0.08171,  -0.17509,   0.31517,   0.01167,  -0.40855,  -0.34629,   0.99219,   0.40855
  -0.85211,   0.96106,   0.92993,   0.75095,  -0.89102,   0.29960,   0.01167,   0.70426,  -0.93771,   0.93771
   0.75873,   0.08171,   0.98441,   0.94550,  -0.63422,  -0.97662,  -0.82877,  -0.19844,   0.09727,  -0.28404
   0.22178,   0.00389,  -0.80542,   0.98441,   0.91437,  -0.35407,   0.97662,   0.12062,   0.07393,   0.53306
   0.33073,  -0.39298,  -0.69648,   0.16731,  -0.54084,  -0.84433,   0.99219,   0.56419,  -0.50193,  -0.75873
  -0.15953,  -0.47858,  -0.59531,  -0.57975,  -0.70426,  -0.34629,  -0.04280,   0.99219,   0.01167,  -0.22178
  -0.06615,   0.96884,  -0.66535,  -0.16731,  -0.02724,  -0.50193,  -0.02724,   0.47080,   0.24513,  -0.00389
   0.13618,  -0.40855,  -0.75873,  -0.08171,   0.43968,   0.99219,   0.47080,  -0.58753,  -0.39298,  -0.55640
  -0.78986,  -0.24513,  -0.73539,   0.99219,   0.89881,   0.88324,  -0.63422,   0.83655,  -0.08949,   0.11284
  -0.57197,  -0.17509,   0.96884,   0.97662,  -0.64979,  -0.26069,  -0.58753,   0.84433,  -0.05836,   0.32295
   0.51749,  -0.70426,  -0.22956,   0.26847,  -0.84433,  -0.00389,   0.19844,   0.99219,  -0.27626,  -0.48637
  -0.61866,  -0.68091,   0.45524,   0.58753,  -0.29182,  -0.59531,  -0.43968,  -0.28404,   0.98441,  -0.66535
   0.96106,   0.92993,  -0.88324,   0.97662,  -0.88324,   0.94550,  -0.85211,   0.77430,   0.83655,   0.07393
   0.99219,   0.09727,  -0.30738,  -0.71982,  -0.92993,   0.78208,  -0.26847,  -0.36186,  -0.51749,  -0.15175
   0.98441,   0.74317,   0.82099,  -0.43189,  -0.31517,  -0.16731,  -0.28404,   0.12840,   0.07393,  -0.64979
  -0.05058,   0.97662,  -0.42411,   0.55640,  -0.63422,  -0.49415,  -0.36186,  -0.29182,  -0.84433,  -0.95328
  -0.66535,  -0.07393,   0.52528,   0.21400,  -0.91437,   0.99219,  -0.41633,   0.93771,  -0.26847,  -0.33851
   0.88324,   0.99219,   0.45524,   0.48637,   0.33073,   0.22957,  -0.02724,   0.01167,   0.80542,   0.96884
   0.82099,   0.99219,  -0.93771,  -0.71204,  -0.19066,  -0.52528,   0.94550,  -0.50193,  -0.68869,   0.29182
   0.48637,   0.12840,   0.89881,  -0.99219,  -0.96106,  -0.87546,   0.82099,  -0.50193,   0.23735,  -0.64200
   0.69648,  -0.30738,  -0.12840,  -0.16731,  -0.32295,   0.99219,  -0.12062,  -0.61088,  -0.07393,  -0.05836
   0.92215,  -0.02724,  -0.10506,   0.97662,   0.04280,  -0.36186,   0.01167,  -0.12062,   0.01167,   0.18287
   0.64979,  -0.07393,  -0.22956,   0.99219,  -0.22178,  -0.22178,   0.26847,   0.00389,  -0.08171,  -0.10506
  -0.89102,  -0.89881,   0.35407,  -0.72760,   0.99219,  -0.01945,   0.50193,  -0.98441,  -0.96106,   0.35407
  -0.69648,  -0.05836,   0.99219,   0.28404,  -0.68869,  -0.72760,  -0.99219,   0.51749,   0.75095,  -0.48637
   0.31517,  -0.22178,  -0.95328,  -0.54862,  -0.54862,   0.41633,  -0.01167,   0.99219,   0.16731,  -0.31517
  -0.35407,  -0.94550,   0.00389,  -0.50193,  -0.16731,   0.99219,   0.40077,  -0.43968,   0.21400,   0.97662
   0.99219,   0.43968,   0.08171,   0.12062,   0.33073,  -0.80542,  -0.08171,  -0.61866,   0.98441,  -0.05058
  -0.97662,   0.33073,  -0.67313,  -0.14396,   0.99219,  -0.08949,  -0.22178,  -0.52528,  -0.56419,  -0.01167
  -0.90659,   0.95328,   0.99219,  -0.23735,  -0.41633,  -0.71982,  -0.89102,   0.26069,  -0.36964,  -0.78986
   0.89102,  -0.31517,   0.99219,  -0.83655,   0.95328,   0.88324,   0.92993,  -0.45524,  -0.07393,  -0.40077
   0.99219,   0.36964,  -0.60309,   0.32295,   0.90659,   0.81320,   0.60309,   0.74317,  -0.64979,  -0.49415
   0.27626,   0.99219,  -0.08171,  -0.12062,  -0.60309,   0.15175,   0.85990,  -0.67313,  -0.08171,  -0.82877
   0.16731,  -0.15175,   0.99219,   0.82877,   0.82877,   0.72760,   0.61866,   0.86768,  -0.11284,  -0.24513
   0.06615,  -0.39298,  -0.44746,  -0.05058,   0.91437,   0.96884,  -0.47080,  -0.48637,  -0.11284,   0.13618
  -0.01945,  -0.31517,  -0.05058,  -0.26069,   0.15175,   0.11284,  -0.11284,   0.99219,  -0.22178,  -0.20622
   0.96884,  -0.03502,   0.15175,   0.01167,  -0.49415,   0.44746,   0.33073,   0.15953,  -0.17509,   0.04280
  -0.39298,  -0.52528,  -0.41633,  -0.72760,  -0.77430,   0.99219,   0.61866,  -0.50971,  -0.78986,   0.66535
  -0.58753,  -0.78986,  -0.78986,   0.26069,   0.98441,   0.31517,   0.41633,  -0.12062,  -0.41633,   0.00389
   0.44746,   0.26069,  -0.75095,   0.66535,   0.83655,  -0.43968,  -0.36964,   0.08171,   0.98441,   0.99219
   0.98441,  -0.23735,   0.09727,   0.54084,   0.04280,   0.15175,   0.99219,  -0.56419,   0.68091,  -0.68869
   0.08949,   0.77430,  -0.19066,   0.65757,   0.99219,  -0.99219,  -0.67313,   0.63422,  -0.64979,  -0.80542
   0.84433,   0.12840,   0.30738,  -0.85211,   0.99219,  -0.27626,  -0.48637,   0.86768,   0.28404,  -0.47858
   0.57975,   0.05836,  -0.08171,  -0.18287,   0.61088,  -0.56419,   0.67313,  -0.10506,  -0.71982,  -0.87546
  -0.11284,   0.15953,   0.20622,  -0.68091,  -0.33851,  -0.30738,  -0.47858,  -0.31517,  -0.61088,   0.99219
  -0.67313,  -0.03502,   0.93771,  -0.28404,  -0.06615,  -0.36186,  -0.67313,   0.96884,   0.40077,   0.09727
   0.99219,  -0.42411,  -0.14396,  -0.47858,  -0.70426,  -0.26847,  -0.55640,  -0.19844,  -0.47080,   0.33073
  -0.29960,   0.99219,   0.49415,   0.03502,  -0.94550,  -0.34629,  -0.43189,  -0.24513,  -0.83655,  -0.11284
  -0.35407,   0.99219,  -0.82099,   0.12840,  -0.34629,  -0.20622,   0.98441,   0.20622,   0.26847,  -0.36964
   0.03502,   0.99219,  -0.19844,   0.96106,   0.12062,   0.98441,   0.21400,  -0.09727,   0.20622,   0.47858
   0.97662,  -0.02724,   0.86768,   0.96884,  -0.06615,  -0.42411,  -0.10506,  -0.24513,   0.99219,   0.17509
  -0.75095,  -0.18287,   0.98441,  -0.54084,  -0.93771,  -0.29960,   0.95328,   0.38520,  -0.77430,   0.56419
   0.90659,  -0.14396,  -0.36186,  -0.31517,  -0.47080,   0.99219,  -0.02724,   0.52528,  -0.19844,   0.09727
  -0.27626,  -0.08171,   0.53306,   0.01167,   0.05836,   0.99219,   0.28404,  -0.12840,   0.02724,  -0.07393
  -0.47858,   0.15953,  -0.41633,   0.58753,   0.00389,  -0.82877,   0.06615,  -0.36186,   0.99219,   0.11284
  -0.60309,   0.99219,   0.45524,   0.44746,  -0.66535,  -0.31517,   0.64979,   0.78208,  -0.61866,   0.11284
  -0.26847,   0.92993,  -0.14396,  -0.72760,  -0.20622,   0.11284,   0.96884,   0.43189,   0.16731,  -0.61866
   0.72760,  -0.16731,  -0.85990,  -0.56419,   0.99219,  -0.01167,   0.20622,  -0.19844,   0.34629,   0.34629
  -0.47080,   0.32295,  -0.05058,   0.71204,  -0.29960,  -0.05836,   0.99219,   0.97662,  -0.08949,   0.12062
   0.99219,   0.46302,   0.56419,  -0.01167,   0.18287,  -0.36186,  -0.53306,  -0.78208,  -0.29182,  -0.97662
  -0.40077,   0.80542,  -0.54084,   0.92993,  -0.54862,  -0.40077,  -0.36186,  -0.32295,   0.99219,  -0.95328
   0.48637,  -0.42411,  -0.53306,  -0.02724,   0.61088,  -0.08171,  -0.44746,   0.98441,   0.10506,   0.92215
   0.72760,   0.26847,   0.26847,   0.99219,  -0.42411,  -0.72760,  -0.63422,  -0.75873,   0.95328,   0.85990
   0.56419,   0.99219,  -0.15953,   0.14396,  -0.64200,  -0.06615,  -0.70426,  -0.28404,  -0.97662,   0.96106
   0.03502,  -0.33851,   0.03502,   0.27626,   0.99219,  -0.64200,   0.87546,  -0.57197,   0.31517,   0.22957
   0.60309,   0.38520,   0.42411,   0.85211,   0.68091,   0.98441,   0.24513,  -0.14396,   0.05836,   0.97662
  -0.33073,   0.19066,   0.27626,  -0.33073,   0.09727,  -0.33073,  -0.10506,   0.07393,   0.99219,  -0.10506
  -0.19066,  -0.62644,   0.96884,  -0.89881,  -0.80542,  -0.44746,  -0.96884,   0.59531,   0.26847,   0.48637
   0.57975,  -0.46302,  -0.82877,  -0.94550,   0.99219,   0.94550,  -0.74317,   0.91437,  -0.50193,  -0.54084
  -0.40077,   0.15175,   0.95328,  -0.11284,  -0.03502,  -0.42411,  -0.19844,   0.61866,  -0.03502,   0.07393
   0.24513,   0.29960,   0.96884,   0.19066,   0.99219,   0.23735,   0.88324,   0.25291,  -0.34629,  -0.47858
  -0.82877,   0.02724,  -0.27626,   0.98441,  -0.32295,  -0.50193,   0.12840,   0.36964,   0.89881,  -0.15175
  -0.14396,   0.18287,  -0.33851,  -0.64200,   0.94550,   0.99219,  -0.91437,   0.28404,  -0.15175,   0.27626
  -0.71982,   0.55640,   0.68869,  -0.57197,  -0.00389,  -0.78986,  -0.12062,  -0.37742,   0.99219,  -0.79764
   0.92993,  -0.29182,  -0.85990,   0.99219,  -0.73539,   0.89881,  -0.81320,   0.77430,  -0.76651,   0.95328
  -0.65757,  -0.22178,  -0.70426,   0.28404,   0.40855,  -0.05058,  -0.28404,   0.19844,   0.99219,   0.80542
  -0.05058,   0.09727,  -0.47858,   0.97662,  -0.29960,   0.18287,   0.96884,  -0.54084,   0.54862,  -0.09727
   0.82099,  -0.37742,  -0.08949,   0.99219,  -0.15953,  -0.64979,  -0.70426,   0.05058,  -0.23735,  -0.99219
  -0.78986,  -0.87546,  -0.03502,  -0.29182,   0.40855,  -0.57197,   0.98441,   0.93771,  -0.14396,  -0.78986
  -0.57197,  -0.26847,  -0.48637,  -0.33073,   0.14396,  -0.74317,   0.76651,   0.70426,  -0.54084,   0.98441
  -0.36186,  -0.39298,  -0.30738,  -0.05058,  -0.90659,  -0.49415,  -0.36186,   0.99219,  -0.03502,  -0.15175
   0.05058,   0.36964,  -0.01167,  -0.96884,   0.20622,   0.99219,   0.16731,  -0.52528,   0.27626,  -0.22178
  -0.16731,  -0.05836,   0.01945,   0.13618,   0.40855,  -0.40077,   0.98441,   0.68091,   0.01945,   0.26069
   0.92215,   0.50193,   0.99219,   0.96884,   0.33851,   0.07393,  -0.68869,   0.98441,  -0.32295,  -0.68869
  -0.29960,   0.89881,   0.41633,  -0.26069,  -0.29960,   0.98441,   0.61866,   0.18287,   0.97662,   0.43189
   0.93771,  -0.41633,   0.97662,   0.95328,   0.12062,   0.91437,   0.99219,   0.91437,   0.33073,   0.63422
   0.73539,  -0.35407,   0.99219,  -0.34629,  -0.68091,  -0.81320,  -0.05058,  -0.91437,  -0.90659,  -0.55640
  -0.17509,  -0.65757,  -0.00389,   0.98441,  -0.20622,   0.08949,  -0.74317,  -0.87546,  -0.62644,  -0.43968
  -0.57975,   0.11284,  -0.36964,   0.99219,  -0.78208,   0.47080,   0.99219,  -0.01945,  -0.14396,  -0.47858
   0.98441,   0.29960,   0.94550,   0.59531,   0.99219,   0.98441,   0.28404,   0.75095,   0.41633,   0.16731
  -0.48637,  -0.07393,   0.96884,   0.98441,  -0.57975,  -0.40855,  -0.12062,   0.03502,  -0.15953,   0.37742
   0.96106,   0.54862,  -0.87546,  -0.64979,   0.97662,  -0.55640,   0.98441,   0.89881,   0.61088,   0.23735
   0.92215,   0.82877,  -0.10506,   0.06615,   0.46302,  -0.14396,  -0.27626,  -0.54862,   0.99219,  -0.38520
  -0.96106,  -0.13618,  -0.34629,  -0.52528,  -0.32295,   0.99219,  -0.81320,  -0.27626,   0.04280,  -0.66535
   0.47858,   0.98441,  -0.61866,  -0.04280,   0.05836,  -0.34629,  -0.56419,  -0.64979,  -0.26847,   0.99219
  -0.10506,  -0.29182,   0.11284,  -0.24513,   0.98441,  -0.28404,  -0.58753,  -0.29182,   0.08949,   0.67313
   0.99219,  -0.11284,  -0.30738,  -0.08949,  -0.78986,   0.98441,   0.26847,  -0.09727,  -0.09727,   0.06615
  -0.00389,   0.08949,   0.25291,   0.93771,  -0.26847,   0.98441,  -0.24513,  -0.20622,  -0.02724,  -0.13618
   0.47858,  -0.17509,   0.29182,  -0.83655,   0.21400,   0.08171,   0.87546,  -0.61866,  -0.97662,  -0.66535
   0.85211,  -0.07393,  -0.19066,   0.99219,   0.05836,   0.11284,   0.40077,   0.61088,   0.91437,   0.08949
   0.08949,   0.50193,   0.64200,   0.99219,  -0.56419,  -0.98441,  -0.41633,  -0.21400,  -0.49415,  -0.87546
   0.16731,   0.13618,   0.61866,   0.96884,   0.18287,   0.89102,  -0.08171,   0.03502,   0.15175,   0.05058
   0.99219,  -0.05836,  -0.51749,  -0.85211,  -0.33073,  -0.87546,   0.10506,  -0.44746,  -0.90659,  -0.49415
  -0.84433,  -0.66535,  -0.96884,   0.23735,   0.51749,   0.19844,   0.99219,  -0.96884,  -0.92993,  -0.20622
   0.91437,  -0.99219,   0.82877,   0.98441,  -0.82099,   0.97662,  -0.81320,  -0.84433,   0.85211,  -0.73539
  -0.15175,   0.06615,   0.72760,  -0.33073,  -0.37742,   0.99219,   0.07393,  -0.40855,  -0.09727,   0.01945
  -0.99219,   0.99219,   0.05058,  -0.32295,   0.84433,  -0.25291,  -0.41633,  -0.16731,  -0.14396,  -0.15953
  -0.78208,  -0.49415,  -0.65757,  -0.16731,   0.37742,  -0.75873,   0.54084,   0.99219,   0.20622,  -0.92993
   0.98441,  -0.38520,   0.46302,  -0.49415,   0.97662,  -0.65757,  -0.32295,   0.09727,  -0.82099,  -0.62644
  -0.07393,  -0.35407,  -0.17509,  -0.05836,   0.99219,  -0.18287,  -0.33073,  -0.05836,   0.22957,  -0.97662
  -0.03502,   0.71204,   0.24513,   0.02724,  -0.76651,  -0.46302,  -0.64979,   0.99219,  -0.22178,  -0.71204
   0.12062,   0.93771,  -0.06615,  -0.10506,   0.32295,  -0.08949,  -0.06615,  -0.21400,   0.26069,   0.96106
   0.06615,   0.44746,   0.09727,  -0.26069,   0.99219,  -0.22178,  -0.02724,  -0.87546,  -0.12062,   0.99219
  -0.24513,   0.99219,  -0.39298,   0.00389,  -0.65757,  -0.05836,   0.71204,  -0.78986,  -0.08949,  -0.35407
  -0.64979,   0.91437,  -0.04280,  -0.36964,   0.03502,  -0.80542,  -0.80542,  -0.04280,   0.75095,   0.99219
   0.96106,  -0.03502,   0.11284,  -0.08171,   0.14396,   0.99219,   0.11284,  -0.00389,   0.06615,   0.33851
   0.59531,   0.98441,   0.78208,  -0.91437,  -0.13618,   0.00389,   0.29960,  -0.54084,   0.50193,  -0.47080
  -0.89102,  -0.26847,   0.33073,   0.98441,  -0.00389,  -0.26847,  -0.15953,  -0.20622,   0.91437,   0.49415
   0.23735,  -0.22178,  -0.41633,   0.99219,   0.20622,  -0.50971,  -0.78986,  -0.16731,   0.02724,  -0.05836
   0.26847,   0.40077,  -0.19066,   0.99219,  -0.41633,   0.86768,  -0.49415,   0.73539,  -0.19844,   0.77430
  -0.47858,   0.98441,  -0.19066,  -0.36186,   0.01945,   0.13618,  -0.29182,   0.24513,   0.48637,  -0.10506
   0.99219,   0.07393,   0.99219,  -0.02724,  -0.13618,   0.33073,  -0.12840,  -0.05836,  -0.12840,  -0.25291
   0.67313,   0.01945,   0.72760,   0.94550,   0.89881,   0.99219,   0.99219,   0.94550,   0.46302,   0.92215
  -0.36964,   0.15953,  -0.63422,  -0.91437,  -0.36186,   0.98441,   0.87546,   0.89881,   0.12062,  -0.59531
  -0.33851,   0.08949,  -0.91437,  -0.34629,  -0.78208,   0.99219,  -0.11284,   0.07393,  -0.06615,  -0.29182
  -0.48637,   0.36964,  -0.60309,  -0.22178,  -0.25291,   0.35407,  -0.36964,  -0.61866,   0.99219,  -0.10506
  -0.14396,  -0.02724,   0.99219,  -0.64979,  -0.74317,  -0.97662,  -0.39298,   0.18287,  -0.57197,   0.15953
  -0.31517,   0.16731,   0.92993,  -0.71982,   0.61866,   0.99219,   0.88324,  -0.10506,  -0.69648,  -0.30738
  -0.75873,   0.40077,  -0.87546,  -0.13618,  -0.20622,  -0.49415,   0.23735,   0.12062,   0.99219,   0.02724
   0.13618,  -0.02724,  -0.85211,  -0.13618,  -0.29182,  -0.99219,  -0.54084,   0.99219,  -0.06615,  -0.58753
   0.84433,  -0.27626,  -0.37742,   0.99219,   0.62644,  -0.19844,   0.52528,  -0.43968,  -0.84433,  -0.91437
  -0.29182,   0.43968,   0.03502,   0.57975,  -0.36186,   0.99219,  -0.70426,   0.40077,   0.15953,   0.29960
  -0.86768,   0.01167,  -0.40855,   0.97662,   0.11284,   0.96106,  -0.06615,  -0.71982,  -0.42411,  -0.22178
  -0.02724,  -0.68091,  -0.57975,   0.13618,  -0.33073,  -0.54084,  -0.11284,  -0.22956,   0.05058,   0.98441
   0.50971,  -0.39298,   0.06615,  -0.04280,  -0.89881,   0.20622,  -0.45524,   0.03502,  -0.20622,   0.99219
  -0.64979,  -0.31517,  -0.47080,  -0.50193,  -0.40077,   0.95328,   0.91437,   0.01167,   0.07393,  -0.09727
   0.99219,   0.91437,  -0.50193,   0.12840,  -0.47858,   0.27626,  -0.57197,  -0.03502,  -0.42411,  -0.57197
  -0.94550,  -0.29960,  -0.50193,   0.99219,   0.04280,  -0.80542,  -0.06615,  -0.36964,   0.75095,   0.64979
   0.99219,  -0.18287,  -0.16731,  -0.22178,   0.11284,  -0.81320,  -0.26847,   0.47080,  -0.73539,  -0.85990
  -0.76651,  -0.92215,  -0.75873,   0.40077,   0.99219,  -0.48637,   0.48637,   0.78208,   0.66535,   0.75095
  -0.32295,   0.10506,  -0.00389,   0.53306,   0.65757,   0.41633,  -0.75873,  -0.13618,   0.99219,  -0.78208
   0.72760,  -0.91437,   0.96884,  -0.78208,   0.97662,  -0.54862,   0.84433,  -0.32295,   0.46302,   0.22178
  -0.75095,  -0.32295,   0.77430,  -0.64200,   0.99219,   0.01167,   0.27626,   0.64979,   0.53306,   0.46302
   0.22957,   0.19066,  -0.32295,   0.85990,   0.86768,  -0.26069,   0.19844,   0.89102,  -0.05836,   0.99219
   0.99219,   0.09727,  -0.54862,  -0.31517,  -0.96106,   0.48637,  -0.85990,  -0.75095,  -0.92215,   0.82877
   0.38520,  -0.59531,  -0.49415,  -0.57197,   0.99219,  -0.99219,   0.44746,  -0.81320,  -0.50193,  -0.77430
   0.40077,   0.99219,   0.15953,   0.04280,  -0.84433,   0.16731,  -0.24513,   0.19844,  -0.05836,   0.05058
  -0.57975,   0.99219,   0.50193,  -0.87546,   0.43189,   0.05836,   0.90659,  -0.07393,  -0.46302,  -0.93771
  -0.22178,  -0.26847,   0.95328,   0.19066,   0.96884,  -0.14396,  -0.19844,   0.23735,   0.26847,   0.28404
   0.82099,   0.19844,   0.89881,   0.94550,   0.88324,   0.94550,   0.82877,   0.94550,   0.47858,   0.55640
   0.99219,  -0.01167,   0.01945,  -0.55640,  -0.80542,  -0.53306,  -0.13618,  -0.26069,  -0.58753,   0.12062
   0.80542,   0.29960,  -0.08949,   0.97662,  -0.39298,   0.89881,   0.29960,  -0.22178,   0.92215,   0.04280
  -0.54084,   0.38520,   0.99219,   0.34629,  -0.99219,  -0.95328,   0.50193,  -0.12062,  -0.34629,  -0.75873
  -0.43968,   0.48637,  -0.33073,   0.99219,  -0.90659,  -0.82877,   0.88324,  -0.50971,  -0.06615,   0.40077
   0.99219,   0.61088,  -0.11284,   0.98441,  -0.41633,  -0.21400,  -0.45524,  -0.75095,  -0.86768,  -0.64200
   0.72760,   0.97662,   0.01945,  -0.16731,  -0.79764,  -0.14396,  -0.42411,   0.99219,   0.96106,   0.92215
  -0.35407,   0.98441,   0.99219,   0.20622,  -0.14396,  -0.15175,   0.03502,  -0.29960,  -0.28404,   0.20622
   0.98441,  -0.44746,  -0.33851,  -0.27626,  -0.47858,  -0.15953,  -0.41633,  -0.56419,   0.57975,   0.98441
  -0.43968,   0.12062,   0.22178,   0.64200,   0.99219,  -0.03502,  -0.52528,  -0.63422,  -0.11284,  -0.23735
   0.05058,  -0.04280,  -0.03502,   0.88324,   0.05836,   0.97662,   0.98441,   0.92993,  -0.20622,   0.44746
   0.29182,   0.44746,  -0.26847,  -0.73539,   0.99219,   0.61088,  -0.03502,  -0.57197,  -0.55640,   0.27626
   0.98441,  -0.44746,   0.25291,  -0.68869,  -0.05836,   0.95328,   0.99219,   0.46302,  -0.12840,   0.67313
   0.99219,  -0.07393,  -0.39298,  -0.12840,  -0.51749,  -0.80542,  -0.66535,   0.92993,  -0.96106,  -0.76651
   0.99219,  -0.50193,   0.96106,   0.90659,   0.31517,   0.74317,   0.99219,   0.01167,  -0.34629,  -0.37742
   0.94550,  -0.15175,   0.77430,  -0.08171,   0.97662,   0.33073,   0.22957,   0.43189,   0.29182,  -0.53306
   0.98441,   0.88324,  -0.35407,  -0.37742,  -0.70426,   0.10506,  -0.30738,   0.08949,  -0.08171,  -0.54084
   0.78208,  -0.19066,   0.43189,   0.11284,   0.97662,   0.01167,  -0.53306,  -0.03502,   0.99219,   0.70426
  -0.76651,   0.79764,   0.99219,  -0.83655,  -0.41633,  -0.78208,   0.72760,  -0.14396,  -0.14396,   0.56419
  -0.69648,   0.11284,   0.45524,  -0.82877,   0.99219,  -0.26847,  -0.17509,  -0.08949,  -0.47858,   0.79764
  -0.13618,  -0.61088,   0.13618,  -0.47080,  -0.30738,   0.98441,  -0.19844,   0.53306,   0.26847,  -0.64979
  -0.73539,  -0.42411,   0.98441,  -0.71204,  -0.06615,  -0.68091,  -0.47858,   0.98441,  -0.33851,  -0.07393
  -0.92215,  -0.91437,  -0.64979,   0.99219,   0.08949,  -0.64200,  -0.45524,  -0.96884,  -0.12062,  -0.05058
  -0.68869,   0.97662,   0.08949,  -0.21400,   0.99219,   0.19844,  -0.43968,  -0.57975,  -0.18287,  -0.33851
  -0.61088,   0.33073,   0.99219,  -0.65757,  -0.26069,   0.76651,  -0.66535,  -0.30738,  -0.30738,  -0.20622
   0.95328,  -0.57975,   0.72760,  -0.52528,  -0.48637,   0.99219,   0.89881,  -0.14396,  -0.90659,  -0.70426
   0.91437,   0.24513,  -0.13618,   0.89102,   0.88324,   0.86768,  -0.12840,   0.75095,   0.68091,   0.97662
   0.98441,  -0.67313,  -0.71204,  -0.57975,   0.98441,  -0.78986,   0.09727,  -0.21400,  -0.54862,  -0.82877
   0.99219,   0.68091,  -0.98441,  -0.64979,  -0.91437,  -0.54862,  -0.68091,   0.08949,  -0.89102,   0.40077
   0.10506,  -0.29960,   0.08171,   0.89102,  -0.71204,   0.99219,  -0.82099,   0.51749,  -0.49415,  -0.89881
   0.96106,   0.67313,   0.05836,  -0.40855,   0.09727,  -0.12062,  -0.49415,   0.41633,   0.99219,   0.86768
   0.97662,  -0.47858,   0.78208,   0.71204,  -0.01945,   0.15175,  -0.20622,   0.33073,   0.94550,  -0.01945
  -0.82099,  -0.57975,  -0.75873,   0.99219,   0.33851,  -0.65757,  -0.33073,   0.19844,  -0.72760,   0.14396
   0.99219,   0.19844,   0.95328,   0.14396,  -0.00389,  -0.01945,   0.02724,   0.10506,  -0.12840,   0.96106
  -0.82099,   0.89881,   0.98441,  -0.26847,   0.98441,   0.47080,  -0.04280,   0.21400,   0.28404,  -0.64200
  -0.69648,   0.11284,   0.99219,  -0.82099,  -0.26847,  -0.68869,  -0.46302,   0.74317,   0.36186,   0.89102
  -0.91437,  -0.11284,  -0.54862,  -0.41633,   0.10506,  -0.41633,   0.99219,  -0.23735,   0.05058,  -0.99219
  -0.57197,  -0.63422,   0.40855,   0.36964,   0.99219,  -0.23735,  -0.53306,   0.61088,  -0.64200,  -0.29182
   0.76651,  -0.85211,   0.26069,  -0.26069,   0.99219,  -0.37742,   0.38520,   0.80542,   0.85990,  -0.74317
  -0.41633,  -0.18287,   0.01945,  -0.73539,   0.41633,  -0.40077,  -0.36186,   0.59531,   0.99219,  -0.47080
  -0.73539,   0.46302,  -0.85211,   0.99219,  -0.22956,  -0.92993,   0.59531,  -0.36186,  -0.13618,  -0.56419
  -0.08949,  -0.01167,  -0.67313,   0.63422,   0.99219,  -0.67313,  -0.22178,  -0.66535,  -0.25291,  -0.01167
   0.48637,   0.28404,   0.20622,   0.54862,  -0.30738,  -0.29182,   0.95328,   0.15953,   0.19844,  -0.14396
  -0.82877,  -0.57197,   0.95328,  -0.88324,   0.92993,  -0.97662,  -0.40855,   0.90659,   0.92993,  -0.57197
  -0.24513,  -0.33073,  -0.33073,   0.23735,  -0.15175,  -0.44746,  -0.47858,   0.57197,  -0.64200,   0.99219
   0.53306,   0.78208,  -0.70426,  -0.76651,   0.77430,   0.98441,  -0.50971,   0.15953,   0.08949,  -0.21400
   0.24513,   0.26847,  -0.87546,  -0.65757,   0.52528,   0.99219,   0.07393,   0.26847,  -0.01167,   0.42411
  -0.75095,   0.00389,   0.47080,  -0.58753,  -0.50971,  -0.49415,   0.82099,  -0.19066,   0.99219,   0.47080
  -0.60309,   0.05836,   0.70426,   0.98441,   0.59531,  -0.11284,  -0.26847,  -0.85990,  -0.12062,  -0.23735
  -0.79764,   0.38520,  -0.68869,   0.98441,  -0.31517,  -0.34629,  -0.53306,   0.98441,   0.22957,  -0.69648
  -0.75095,   0.00389,  -0.57975,  -0.33073,  -0.85211,  -0.84433,  -0.78208,   0.99219,   0.33851,   0.93771
  -0.84433,  -0.62644,  -0.97662,  -0.54862,   0.99219,  -0.68091,   0.19066,  -0.01167,   0.06615,  -0.46302
  -0.60309,  -0.08171,  -0.71204,  -0.06615,   0.30738,  -0.12062,   0.79764,  -0.35407,   0.98441,  -0.89881
   0.78208,  -0.21400,  -0.54862,  -0.09727,  -0.06615,   0.95328,  -0.04280,   0.09727,   0.08949,   0.04280
   0.99219,  -0.87546,  -0.36964,  -0.04280,  -0.79764,  -0.01945,  -0.05058,  -0.72760,   0.34629,  -0.72760
   0.08949,  -0.11284,  -0.80542,   0.98441,  -0.64200,   0.93771,  -0.61866,  -0.32295,  -0.08171,  -0.15953
  -0.49415,   0.21400,  -0.47858,   0.99219,  -0.88324,   0.98441,  -0.90659,  -0.66535,   0.21400,  -0.62644
   0.57975,   0.21400,  -0.83655,   0.27626,  -0.15175,  -0.06615,   0.99219,  -0.72760,   0.07393,   0.16731
  -0.01167,  -0.36964,   0.62644,   0.99219,  -0.95328,   0.41633,   0.91437,   0.26069,  -0.36186,   0.17509
  -0.40855,  -0.10506,   0.45524,   0.99219,  -0.15175,  -0.28404,   0.09727,   0.03502,   0.02724,   0.07393
  -0.40077,   0.29960,   0.97662,   0.32295,  -0.86768,   0.99219,   0.29960,   0.72760,  -0.05058,  -0.57975
  -0.52528,   0.98441,   0.14396,  -0.17509,   0.99219,  -0.53306,   0.05836,   0.40077,   0.20622,   0.27626
   0.35407,  -0.01167,   0.53306,  -0.11284,  -0.17509,  -0.08949,   0.69648,   0.30738,   0.96106,  -0.71982
   0.98441,  -0.00389,   0.96106,   0.01167,   0.21400,   0.50193,   0.73539,  -0.25291,   0.72760,   0.96884
   0.08949,  -0.15175,   0.13618,  -0.70426,  -0.41633,  -0.08171,   0.68091,   0.99219,  -0.20622,   0.64200
  -0.78986,  -0.05836,   0.69648,   0.17509,   0.99219,  -0.10506,  -0.97662,  -0.53306,  -0.32295,  -0.19844
  -0.35407,   0.96884,   0.61866,   0.88324,   0.96884,   0.78986,   0.94550,   0.90659,   0.15953,   0.38520
  -0.55640,   0.44746,  -0.96884,  -0.96106,  -0.75095,  -0.82877,  -0.43968,   0.98441,   0.19844,   0.60309
  -0.62644,   0.21400,   0.89881,   0.99219,   0.93771,   0.93771,   0.97662,  -0.62644,  -0.15175,  -0.48637
   0.79764,  -0.52528,   0.96884,   0.97662,  -0.44746,  -0.51749,   0.65757,  -0.61866,   0.58753,  -0.11284
   0.26069,  -0.71204,   0.52528,  -0.22178,   0.08949,  -0.31517,   0.99219,  -0.28404,  -0.75873,   0.01945
  -0.84433,  -0.82099,  -0.81320,   0.99219,   0.50971,  -0.61866,   0.97662,  -0.22956,  -0.50193,  -0.02724
   0.54084,   0.28404,   0.93771,   0.95328,   0.09727,  -0.11284,   0.13618,   0.25291,   0.90659,   0.15953
   0.33851,  -0.19844,   0.67313,   0.96884,  -0.93771,  -0.05836,  -0.34629,   0.99219,  -0.19066,   0.05836
   0.95328,   0.80542,  -0.01945,   0.98441,  -0.82877,  -0.59531,  -0.32295,   0.39298,   0.10506,   0.22957
  -0.33851,   0.60309,  -0.50971,  -0.45524,   0.97662,  -0.56419,  -0.21400,   0.98441,  -0.29182,  -0.75095
   0.63422,   0.28404,   0.85990,  -0.82099,  -0.94550,  -0.90659,   0.84433,   0.99219,   0.14396,   0.02724
  -0.83655,  -0.89881,   0.69648,  -0.84433,  -0.20622,   0.22178,   0.65757,  -0.54862,   0.90659,   0.99219
   0.96106,   0.61088,   0.11284,   0.24513,  -0.64979,   0.98441,  -0.68091,  -0.39298,  -0.45524,   0.98441
  -0.40855,  -0.58753,  -0.35407,   0.99219,   0.89102,   0.97662,   0.95328,   0.82099,  -0.04280,   0.28404
  -0.21400,  -0.16731,  -0.39298,  -0.53306,  -0.89881,   0.07393,  -0.54084,   0.15175,   0.99219,   0.49415
   0.98441,  -0.06615,   0.99219,   0.57197,  -0.84433,  -0.57975,   0.88324,  -0.33073,  -0.39298,   0.14396
   0.19844,  -0.29182,  -0.47858,  -0.19066,  -0.42411,   0.99219,  -0.00389,  -0.05058,   0.02724,  -0.50971
  -0.16731,   0.91437,  -0.19066,  -0.05058,   0.63422,  -0.16731,   0.80542,   0.27626,   0.89102,   0.86768
  -0.53306,   0.34629,  -0.68091,   0.36186,  -0.77430,  -0.67313,  -0.23735,   0.99219,  -0.69648,  -0.92993
  -0.43189,   0.96884,  -0.38520,  -0.47080,   0.58753,  -0.07393,   0.99219,  -0.03502,   0.64200,   0.89102
   0.86768,   0.40077,  -0.51749,   0.49415,  -0.15953,   0.99219,  -0.68869,   0.01945,   0.22178,   0.96884
  -0.30738,   0.94550,   0.15175,   0.31517,  -0.03502,   0.02724,  -0.26847,  -0.76651,  -0.36186,   0.96884
   0.01945,  -0.68091,   0.96884,   0.06615,   0.29182,   0.97662,  -0.37742,  -0.33073,  -0.09727,  -0.19844
   0.18287,  -0.16731,   0.57975,   0.99219,   0.39298,  -0.70426,  -0.82099,  -0.45524,   0.05058,   0.10506
  -0.96884,  -0.24513,  -0.83655,  -0.86768,   0.11284,   0.90659,  -0.23735,  -0.75095,   0.99219,   0.28404
  -0.55640,   0.66535,   0.77430,   0.79764,  -0.54862,   0.83655,   0.99219,   0.03502,  -0.02724,   0.05058
  -0.33851,   0.34629,  -0.00389,  -0.40077,  -0.66535,  -0.47858,   0.99219,   0.58753,  -0.91437,  -0.64200
  -0.17509,  -0.01167,   0.76651,   0.23735,   0.93771,  -0.12840,   0.92993,   0.99219,  -0.35407,   0.66535
   0.92215,  -0.89881,  -0.73539,  -0.89881,  -0.22956,  -0.22178,   0.07393,  -0.15175,   0.99219,   0.57197
   0.02724,  -0.17509,   0.19066,  -0.89881,   0.84433,  -0.50193,   0.08171,   0.99219,   0.12062,   0.57197
   0.99219,  -0.08171,   0.85990,   0.64200,   0.59531,  -0.07393,  -0.19066,   0.27626,   0.68091,   0.78986
  -0.00389,  -0.57197,   0.97662,   0.24513,  -0.54862,  -0.89102,   0.94550,  -0.39298,  -0.15175,   0.23735
   0.99219,   0.20622,  -0.59531,  -0.49415,   0.30738,  -0.47080,   0.68091,  -0.40077,  -0.53306,  -0.75095
  -0.15175,   0.99219,  -0.29182,  -0.64979,  -0.50193,  -0.60309,  -0.37742,   0.81320,  -0.32295,   0.91437
  -0.11284,  -0.96106,   0.24513,   0.67313,   0.55640,  -0.19066,   0.98441,  -0.43968,   0.94550,  -0.04280
  -0.42411,   0.57197,  -0.89102,   0.96106,  -0.96106,   0.96106,  -0.87546,  -0.34629,   0.90659,   0.78208
   0.90659,   0.96884,  -0.19844,   0.94550,   0.87546,   0.95328,   0.58753,   0.98441,   0.58753,   0.84433
  -0.85990,  -0.39298,  -0.59531,   0.27626,   0.99219,  -0.75873,  -0.01167,   0.20622,  -0.76651,  -0.06615
   0.84433,  -0.13618,   0.07393,  -0.88324,   0.96106,  -0.26069,  -0.20622,   0.26069,   0.96884,  -0.14396
   0.05836,   0.99219,  -0.49415,  -0.15175,  -0.05058,   0.01945,  -0.18287,   0.75095,  -0.19844,  -0.38520
  -0.49415,  -0.32295,   0.99219,   0.18287,  -0.24513,  -0.33073,   0.10506,   0.98441,   0.26847,  -0.27626
  -0.60309,  -0.18287,   0.11284,  -0.28404,   0.95328,   0.98441,  -0.57197,   0.04280,  -0.08171,  -0.14396
  -0.99219,   0.58753,   0.55640,  -0.07393,   0.45524,  -0.47858,   0.99219,  -0.52528,   0.59531,   0.60309
  -0.93771,   0.99219,  -0.59531,   0.91437,  -0.68869,   0.76651,  -0.72760,  -0.54862,  -0.12840,   0.02724
  -0.05058,   0.33851,  -0.44746,  -0.05058,   0.97662,   0.07393,   0.01167,  -0.48637,   0.99219,  -0.16731
  -0.26847,   0.10506,  -0.29960,  -0.96884,  -0.28404,   0.11284,  -0.60309,   0.99219,   0.00389,  -0.54862
   0.68091,   0.52528,  -0.45524,  -0.26069,  -0.50971,   0.99219,  -0.07393,  -0.44746,  -0.19844,   0.54862
  -0.40077,   0.06615,  -0.89881,  -0.57975,   0.10506,  -0.10506,  -0.18287,  -0.57197,  -0.10506,   0.99219
   0.99219,   0.39298,  -0.13618,   0.14396,   0.38520,   0.29960,  -0.24513,  -0.09727,   0.84433,   0.96106
   0.15953,  -0.80542,   0.99219,  -0.59531,  -0.58753,   0.13618,   0.57975,  -0.26069,  -0.89102,  -0.08949
   0.82099,  -0.57197,   0.15953,  -0.24513,   0.12062,  -0.34629,  -0.65757,   0.62644,   0.99219,  -0.26847
   0.05058,  -0.09727,  -0.06615,   0.96884,   0.11284,   0.99219,  -0.07393,  -0.64200,  -0.38520,   0.48637
   0.00389,  -0.34629,  -0.66535,  -0.44746,   0.99219,  -0.33851,  -0.37742,  -0.12062,   0.62644,  -0.30738
   0.37742,  -0.09727,  -0.74317,   0.04280,   0.99219,   0.04280,  -0.09727,  -0.15953,   0.26847,  -0.50193
   0.95328,  -0.27626,   0.99219,  -0.35407,  -0.50193,  -0.68091,   0.05836,  -0.51749,  -0.13618,  -0.05058
  -0.05058,   0.98441,  -0.72760,  -0.17509,  -0.64979,  -0.29960,  -0.48637,   0.98441,   0.01945,   0.82877
   0.98441,  -0.16731,   0.26069,   0.86768,  -0.09727,   0.99219,   0.44746,  -0.05058,  -0.42411,  -0.37742
   0.05058,  -0.12062,   0.93771,  -0.78986,  -0.78208,   0.99219,  -0.91437,  -0.28404,  -0.04280,   0.01167
   0.75095,   0.10506,   0.09727,  -0.77430,  -0.73539,   0.99219,   0.26847,   0.09727,   0.19066,  -0.35407
  -0.57975,   0.10506,   0.03502,  -0.08171,   0.40855,   0.14396,   0.23735,   0.99219,  -0.37742,  -0.19066
  -0.27626,  -0.21400,   0.20622,   0.99219,  -0.40855,  -0.50193,  -0.24513,   0.50971,  -0.19066,   0.01945
  -0.02724,   0.98441,   0.85990,  -0.71982,   0.06615,  -0.51749,   0.02724,  -0.10506,  -0.57197,  -0.72760
  -0.16731,  -0.48637,  -0.70426,   0.01945,   0.73539,   0.96884,  -0.54862,   0.96884,  -0.12062,  -0.80542
  -0.29182,   0.89102,   0.85211,   0.55640,   0.15953,   0.30738,  -0.13618,  -0.53306,   0.99219,   0.57197
  -0.01945,  -0.24513,   0.89881,  -0.42411,   0.29182,  -0.69648,   0.98441,  -0.14396,  -0.15953,  -0.07393
   0.05058,   0.97662,  -0.69648,  -0.92215,  -0.18287,  -0.26069,  -0.78208,  -0.47858,   0.98441,  -0.82099
  -0.57197,  -0.39298,   0.79764,  -0.69648,   0.99219,  -0.06615,   0.29182,   0.96106,  -0.46302,  -0.43189
   0.38520,   0.03502,   0.41633,  -0.07393,   0.00389,   0.99219,  -0.31517,   0.65757,   0.11284,  -0.15175
  -0.66535,   0.85211,   0.99219,  -0.22178,   0.01945,   0.22178,  -0.15953,  -0.12840,  -0.68869,   0.96884
  -0.05058,  -0.50971,   0.99219,  -0.54862,  -0.89102,   0.71204,  -0.82099,  -0.82877,  -0.83655,  -0.00389
   0.40077,  -0.50193,   0.45524,  -0.23735,  -0.75873,   0.13618,  -0.82099,   0.66535,  -0.43189,   0.99219
  -0.13618,  -0.69648,  -0.28404,   0.59531,   0.06615,  -0.01167,  -0.29960,   0.57975,  -0.39298,   0.99219
  -0.10506,   0.02724,   0.97662,   0.30738,  -0.09727,   0.98441,  -0.22178,   0.12062,   0.08171,  -0.13618
  -0.12062,   0.08171,  -0.52528,  -0.29960,   0.09727,  -0.22956,   0.97662,   0.99219,   0.29960,  -0.60309
   0.82099,   0.99219,   0.07393,  -0.53306,  -0.57197,  -0.76651,  -0.85211,  -0.72760,   0.45524,  -0.11284
   0.29182,   0.76651,   0.04280,   0.05058,   0.80542,  -0.23735,   0.98441,   0.54084,  -0.32295,  -0.78986
   0.44746,  -0.65757,   0.97662,  -0.54862,   0.96106,  -0.17509,  -0.17509,   0.15953,  -0.09727,   0.85211
   0.40855,  -0.08171,  -0.40855,   0.92993,  -0.49415,   0.91437,  -0.18287,  -0.91437,  -0.71982,  -0.08171
   0.15953,   0.98441,   0.70426,  -0.24513,  -0.71982,  -0.09727,   0.05058,  -0.27626,  -0.01945,   0.54862
   0.99219,   0.05836,   0.27626,  -0.45524,   0.21400,  -0.19844,  -0.12840,  -0.39298,  -0.65757,   0.22178
  -0.89881,   0.96884,  -0.49415,  -0.04280,   0.98441,  -0.32295,  -0.24513,   0.10506,  -0.48637,   0.21400
  -0.29960,  -0.34629,   0.09727,  -0.29960,  -0.48637,   0.43968,   0.25291,   0.99219,  -0.27626,  -0.95328
   0.33073,  -0.26069,  -0.58753,   0.03502,  -0.16731,   0.99219,  -0.95328,  -0.22956,  -0.26069,  -0.07393
   0.98441,   0.96884,   0.00389,   0.35407,  -0.44746,  -0.05836,  -0.02724,  -0.41633,  -0.50971,   0.08949
   0.93771,   0.21400,   0.42411,   0.19066,   0.99219,  -0.29182,  -0.47858,  -0.78986,  -0.55640,   0.49415
  -0.78986,  -0.20622,   0.93771,  -0.96884,  -0.29182,   0.75873,   0.62644,  -0.39298,   0.99219,  -0.19066
   0.99219,  -0.40077,  -0.54862,  -0.23735,   0.59531,  -0.08171,  -0.19844,   0.83655,  -0.54084,   0.84433
   0.91437,   0.52528,  -0.44746,  -0.97662,  -0.52528,   0.00389,   0.99219,  -0.21400,  -0.61088,   0.53306
  -0.10506,   0.34629,   0.82099,  -0.68869,  -0.73539,  -0.88324,   0.99219,  -0.53306,  -0.75095,  -0.53306
   0.99219,  -0.43968,  -0.22956,  -0.82877,  -0.58753,  -0.68091,   0.03502,  -0.83655,   0.09727,   0.97662
   0.26847,  -0.24513,   0.22957,   0.93771,  -0.64200,   0.99219,   0.44746,   0.37742,  -0.07393,  -0.20622
   0.78986,  -0.61088,   0.40077,  -0.75095,  -0.94550,  -0.61088,  -0.38520,   0.96106,  -0.61088,   0.99219
   0.84433,  -0.18287,   0.99219,   0.95328,   0.96884,  -0.74317,  -0.61866,  -0.80542,  -0.28404,   0.99219
   0.08949,   0.52528,   0.04280,  -0.02724,   0.98441,  -0.08171,  -0.30738,   0.99219,   0.35407,  -0.72760
  -0.67313,  -0.22956,   0.22957,   0.94550,   0.94550,   0.99219,  -0.30738,   0.16731,   0.06615,  -0.18287
   0.75873,  -0.48637,   0.99219,  -0.24513,  -0.95328,   0.54084,   0.84433,  -0.23735,   0.48637,   0.61866
   0.98441,   0.12840,  -0.92993,   0.94550,  -0.77430,   0.16731,   0.29960,  -0.22178,  -0.12062,   0.92993
  -0.70426,   0.21400,   0.95328,   0.98441,   0.93771,   0.99219,   0.95328,   0.89102,  -0.15953,   0.56419
   0.99219,  -0.67313,   0.87546,  -0.68869,  -0.60309,   0.14396,   0.20622,   0.55640,   0.90659,  -0.37742
   0.83655,   0.50193,   0.26069,  -0.36964,   0.99219,   0.24513,  -0.31517,  -0.89102,  -0.08171,   0.11284
   0.57197,   0.63422,   0.26069,   0.06615,   0.27626,  -0.85211,  -0.16731,   0.05836,  -0.85211,  -0.26069
  -0.25291,  -0.34629,   0.98441,  -0.51749,  -0.04280,   0.85990,   0.71982,   0.20622,   0.11284,   0.22178
   0.98441,   0.02724,  -0.07393,   0.19066,   0.21400,   0.32295,   0.46302,   0.44746,   0.96106,   0.22957
  -0.82877,   0.98441,   0.78208,  -0.42411,   0.06615,   0.14396,   0.94550,  -0.33851,  -0.35407,  -0.09727
   0.75095,   0.26847,  -0.04280,   0.99219,   0.21400,   0.17509,  -0.54862,  -0.35407,   0.49415,   0.20622
   0.99219,  -0.26847,  -0.81320,  -0.70426,  -0.29182,  -0.00389,  -0.19844,   0.97662,   0.07393,  -0.03502
   0.61866,  -0.49415,   0.29960,  -0.70426,  -0.01167,   0.85211,  -0.69648,   0.99219,  -0.02724,  -0.44746
   0.56419,  -0.22178,  -0.64979,  -0.29960,   0.83655,  -0.16731,   0.96884,   0.15175,  -0.04280,  -0.31517
   0.50971,   0.08949,  -0.51749,  -0.75095,   0.21400,   0.99219,  -0.18287,  -0.68091,   0.08171,  -0.11284
  -0.85990,  -0.41633,   0.05058,  -0.79764,  -0.79764,  -0.58753,   0.99219,  -0.75095,  -0.54084,  -0.54084
  -0.99219,   0.98441,  -0.15953,  -0.46302,   0.08171,  -0.39298,   0.20622,  -0.35407,  -0.22956,  -0.63422
   0.90659,   0.14396,   0.74317,   0.95328,   0.86768,   0.89881,   0.87546,   0.64200,   0.33851,   0.62644
   0.99219,  -0.77430,  -0.61866,  -0.79764,   0.87546,   0.23735,  -0.20622,  -0.12840,  -0.19844,  -0.78986
  -0.35407,  -0.47080,  -0.15175,  -0.29960,  -0.15953,   0.45524,  -0.36186,  -0.12062,   0.99219,   0.74317
   0.56419,   0.15953,   0.96106,  -0.47858,  -0.71982,  -0.18287,   0.17509,   0.05836,   0.97662,   0.03502
   0.01945,  -0.15175,  -0.12840,  -0.38520,   0.09727,   0.99219,   0.08171,  -0.37742,  -0.21400,   0.88324
  -0.01167,   0.24513,  -0.33851,   0.96884,  -0.07393,  -0.61866,   0.23735,   0.20622,   0.12062,  -0.00389
  -0.87546,  -0.14396,  -0.93771,  -0.54862,  -0.92215,   0.98441,   0.54084,  -0.65757,   0.99219,   0.11284
  -0.37742,   0.47858,  -0.61088,  -0.78986,   0.64200,  -0.54862,   0.75095,  -0.56419,   0.94550,   0.95328
  -0.80542,  -0.19066,  -0.11284,  -0.23735,   0.99219,  -0.89102,   0.68869,   0.98441,  -0.91437,  -0.20622
  -0.13618,  -0.57975,   0.26847,   0.33851,  -0.79764,   0.66535,  -0.70426,  -0.54084,  -0.48637,  -0.47080
   0.94550,   0.99219,   0.86768,   0.98441,   0.89881,   0.83655,   0.81320,   0.91437,   0.82099,   0.30738
   0.48637,  -0.40855,  -0.49415,  -0.78208,  -0.28404,  -0.22956,   0.99219,   0.66535,   0.51749,   0.55640
   0.99219,  -0.50193,  -0.26069,   0.05836,   0.87546,  -0.74317,  -0.45524,  -0.06615,  -0.54862,   0.17509
  -0.18287,   0.26069,   0.99219,  -0.33073,  -0.89102,  -0.87546,   0.24513,  -0.73539,  -0.61088,   0.13618
   0.18287,  -0.46302,  -0.99219,   0.99219,  -0.18287,  -0.75873,  -0.46302,  -0.78208,  -0.94550,   0.55640
  -0.05058,   0.43968,   0.95328,   0.99219,   0.76651,  -0.43189,  -0.46302,  -0.51749,   0.01945,  -0.40855
   0.05058,   0.59531,  -0.50193,   0.99219,   0.89881,   0.85990,  -0.12840,  -0.33073,  -0.30738,   0.01167
   0.02724,  -0.22178,   0.99219,   0.31517,  -0.34629,  -0.22956,  -0.89102,   0.01945,   0.51749,   0.15175
   0.46302,  -0.21400,  -0.98441,   0.25291,  -0.78208,  -0.75095,   0.27626,   0.99219,  -0.36964,  -0.44746
   0.05836,  -0.54084,   0.98441,   0.07393,  -0.53306,  -0.14396,  -0.02724,  -0.02724,   0.16731,   0.14396
  -0.92215,   0.62644,  -0.32295,  -0.46302,   0.21400,  -0.01945,  -0.64979,  -0.68091,  -0.40855,   0.98441
  -0.21400,  -0.54084,   0.99219,   0.05058,   0.23735,  -0.26069,   0.24513,   0.52528,   0.07393,   0.00389
   0.35407,   0.82877,  -0.17509,   0.36186,   0.35407,   0.99219,  -0.90659,  -0.97662,   0.71204,  -0.89102
  -0.92993,  -0.01945,   0.22957,   0.18287,   0.98441,  -0.84433,   0.58753,  -0.08171,  -0.82099,  -0.43968
   0.99219,   0.96884,  -0.51749,  -0.03502,   0.89102,   0.92993,   0.43968,   0.62644,   0.36964,   0.47080
   0.99219,  -0.23735,   0.40077,  -0.68869,   0.13618,  -0.66535,  -0.26847,   0.97662,  -0.50971,   0.92215
  -0.66535,   0.28404,   0.99219,  -0.34629,   0.25291,  -0.57975,   0.04280,   0.10506,   0.10506,   0.12062
   0.33073,  -0.43189,   0.01945,  -0.11284,   0.86768,   0.04280,  -0.60309,  -0.44746,  -0.25291,   0.99219
  -0.04280,  -0.49415,   0.77430,   0.96106,   0.97662,   0.33073,  -0.25291,  -0.39298,   0.41633,  -0.25291
  -0.83655,  -0.78208,  -0.11284,  -0.60309,   0.61866,   0.29960,  -0.74317,  -0.37742,  -0.54862,  -0.82099
   0.96106,   0.11284,   0.99219,  -0.01945,   0.75873,   0.02724,  -0.15175,   0.20622,  -0.50193,   0.22957
  -0.27626,  -0.20622,   0.85211,  -0.73539,  -0.53306,   0.93771,   0.99219,  -0.16731,  -0.12840,   0.68091
  -0.54862,  -0.54084,  -0.71204,  -0.76651,  -0.05836,  -0.32295,  -0.60309,  -0.04280,   0.99219,   0.58753
  -0.40077,   0.05836,  -0.45524,  -0.18287,   0.99219,   0.20622,   0.36186,  -0.75095,   0.32295,   0.47080
  -0.41633,   0.51749,   0.99219,  -0.68091,  -0.68869,   0.77430,  -0.28404,   0.85990,  -0.55640,   0.10506
  -0.63422,   0.22957,   0.99219,   0.43189,  -0.18287,  -0.62644,   0.49415,  -0.36186,  -0.07393,  -0.33073
   0.03502,  -0.92215,  -0.75873,   0.39298,   0.99219,  -0.82099,   0.98441,  -0.55640,   0.12840,  -0.62644
   0.96884,  -0.33073,  -0.23735,   0.78208,   0.94550,  -0.68869,  -0.33851,  -0.25291,  -0.12062,  -0.00389
   0.12062,  -0.27626,  -0.05836,   0.92215,  -0.26069,   0.96884,  -0.28404,   0.99219,   0.32295,   0.10506
   0.38520,   0.83655,   0.28404,  -0.25291,  -0.89102,   0.99219,   0.15953,  -0.16731,  -0.07393,  -0.05836
   0.92215,   0.38520,   0.98441,   0.92215,  -0.38520,   0.88324,   0.07393,  -0.31517,   0.99219,   0.60309
  -0.96106,  -0.94550,   0.38520,   0.19844,  -0.17509,   0.02724,  -0.07393,   0.99219,  -0.35407,   0.49415
   0.01945,  -0.53306,   0.94550,  -0.20622,   0.94550,   0.89881,   0.99219,  -0.86768,   0.97662,  -0.61866
  -0.45524,  -0.36186,  -0.18287,   0.64200,  -0.71982,  -0.33851,   0.17509,   0.99219,   0.13618,  -0.36964
  -0.31517,   0.03502,  -0.61866,   0.23735,   0.68091,  -0.66535,   0.80542,  -0.43189,   0.26847,   0.99219
   0.55640,  -0.58753,   0.99219,  -0.97662,  -0.87546,   0.72760,  -0.52528,   0.61088,  -0.94550,  -0.40077
   0.50193,   0.26847,   0.99219,   0.95328,  -0.44746,  -0.26847,  -0.31517,   0.85990,  -0.83655,  -0.98441
  -0.28404,  -0.21400,   0.98441,   0.46302,   0.08171,   0.99219,  -0.13618,   0.26847,   0.40855,   0.33851
   0.92993,  -0.32295,  -0.90659,   0.98441,  -0.07393,  -0.74317,   0.84433,   0.99219,  -0.52528,  -0.60309
   0.99219,  -0.63422,  -0.64200,  -0.83655,  -0.69648,   0.93771,   0.30738,  -0.33851,   0.71204,  -0.43189
   0.08171,  -0.50971,   0.13618,   0.79764,   0.96884,   0.47858,   0.25291,   0.13618,   0.98441,  -0.54862
   0.92215,   0.99219,   0.89102,   0.83655,  -0.38520,   0.04280,   0.96884,  -0.12062,   0.28404,   0.99219
   0.10506,  -0.91437,   0.12062,   0.12062,  -0.80542,  -0.23735,   0.92993,  -0.99219,   0.22957,   0.99219
   0.20622,  -0.00389,  -0.36186,  -0.78208,  -0.21400,   0.99219,  -0.50193,   0.08949,  -0.13618,   0.02724
  -0.26847,  -0.01167,  -0.31517,   0.05058,   0.98441,   0.98441,  -0.05836,   0.30738,   0.22957,  -0.25291
  -0.21400,  -0.07393,  -0.62644,  -0.43968,  -0.14396,   0.96884,   0.86768,  -0.32295,  -0.08171,   0.01945
   0.28404,  -0.23735,   0.99219,  -0.16731,  -0.01167,   0.99219,  -0.35407,  -0.10506,  -0.30738,   0.50193
   0.12840,   0.05836,  -0.22178,  -0.25291,   0.04280,   0.81320,   0.53306,   0.97662,   0.05058,   0.99219
  -0.14396,  -0.26069,   0.05058,  -0.26847,   0.40077,   0.98441,  -0.69648,   0.98441,   0.22957,   0.83655
   0.92993,  -0.14396,   0.99219,  -0.50971,   0.68091,  -0.78986,  -0.15175,   0.61088,  -0.26069,  -0.04280
   0.99219,  -0.28404,  -0.72760,  -0.89881,   0.95328,   0.22957,  -0.07393,  -0.22956,  -0.17509,   0.46302
  -0.43189,  -0.22178,   0.98441,   0.98441,   0.27626,  -0.15175,  -0.88324,  -0.45524,   0.45524,  -0.31517
   0.93771,   0.93771,  -0.54862,   0.20622,  -0.39298,  -0.20622,  -0.32295,   0.57975,   0.96106,   0.99219
  -0.58753,  -0.66535,   0.43189,  -0.82099,  -0.85990,   0.99219,  -0.45524,  -0.37742,   0.19844,  -0.10506
  -0.02724,   0.96106,   0.39298,   0.33851,   0.44746,   0.37742,   0.40077,   0.99219,   0.30738,   0.46302
  -0.11284,   0.57197,  -0.30738,   0.15175,   0.29960,   0.70426,   0.92215,   0.35407,   0.99219,  -0.02724
  -0.19844,  -0.04280,  -0.71204,  -0.22956,  -0.61866,   0.99219,   0.11284,   0.96884,   0.08171,   0.26069
   0.33073,  -0.00389,  -0.21400,   0.98441,  -0.38520,  -0.11284,   0.08949,   0.85211,   0.95328,  -0.01167
   0.99219,   0.15953,   0.96106,  -0.90659,   0.99219,  -0.76651,   0.95328,  -0.82877,  -0.01945,   0.93771
  -0.28404,   0.51749,  -0.95328,  -0.90659,   0.99219,  -0.82877,   0.05058,   0.43968,  -0.81320,  -0.53306
   0.00389,   0.78986,  -0.40077,  -0.65757,   0.99219,   0.05058,   0.05058,   0.29182,   0.48637,  -0.75873
   0.46302,   0.27626,  -0.35407,  -0.61866,   0.99219,  -0.59531,   0.80542,   0.72760,   0.47858,   0.36964
   0.14396,  -0.15175,  -0.25291,   0.99219,   0.45524,   0.96884,  -0.69648,  -0.64979,  -0.89881,  -0.49415
   0.78986,   0.14396,   0.97662,   0.99219,  -0.98441,  -0.49415,   0.82877,  -0.96106,  -0.17509,  -0.17509
  -0.33851,   0.43189,  -0.47080,   0.40077,   0.16731,   0.99219,  -0.23735,   0.22178,  -0.21400,   0.11284
  -0.77430,  -0.71982,   0.94550,   0.99219,   0.96884,   0.98441,   0.98441,   0.15953,  -0.94550,   0.29960
  -0.40855,  -0.22956,   0.00389,  -0.11284,  -0.59531,   0.21400,  -0.44746,  -0.20622,   0.98441,   0.99219
   0.99219,   0.22957,  -0.26847,   0.60309,  -0.36964,   0.96106,   0.08171,   0.15175,   0.16731,   0.01945
  -0.78208,  -0.74317,   0.84433,  -0.12840,  -0.21400,  -0.11284,   0.33073,   0.05836,   0.99219,  -0.64200
   0.60309,   0.14396,   0.99219,  -0.26847,   0.73539,  -0.73539,   0.91437,  -0.72760,  -0.46302,  -0.22956
   0.01167,   0.66535,   0.08949,   0.99219,   0.74317,  -0.98441,  -0.95328,  -0.46302,  -0.86768,   0.43968
  -0.82099,  -0.26847,   0.92993,   0.99219,  -0.02724,  -0.18287,   0.02724,   0.15175,  -0.43189,  -0.69648
  -0.49415,  -0.43968,   0.15175,  -0.57975,   0.95328,  -0.15953,   0.95328,   0.02724,  -0.02724,   0.28404
  -0.12062,   0.77430,   0.08949,  -0.03502,   0.06615,   0.43968,   0.96884,  -0.36186,   0.25291,   0.82099
  -0.35407,  -0.39298,   0.99219,   0.90659,   0.74317,   0.88324,  -0.41633,   0.76651,  -0.00389,  -0.24513
  -0.75873,   0.08949,   0.98441,   0.15175,   0.23735,  -0.05836,  -0.38520,  -0.83655,   0.83655,   0.29182
  -0.29182,  -0.63422,  -0.07393,   0.99219,  -0.78986,  -0.49415,  -0.39298,   0.50971,  -0.56419,   0.68869
  -0.83655,  -0.43968,   0.20622,  -0.08171,  -0.55640,   0.34629,   0.33851,   0.51749,   0.99219,  -0.27626
   0.66535,  -0.41633,  -0.56419,  -0.62644,   0.78208,   0.37742,   0.99219,  -0.50193,  -0.82877,  -0.40855
  -0.23735,   0.12062,   0.90659,   0.99219,  -0.36186,  -0.98441,  -0.19844,  -0.01167,   0.02724,   0.26069
  -0.57197,   0.99219,  -0.08171,  -0.00389,   0.13618,   0.24513,   0.96884,  -0.33073,  -0.12840,   0.81320
   0.26847,  -0.33851,   0.12840,   0.54862,   0.26847,   0.99219,   0.04280,   0.26847,  -0.08171,   0.21400
   0.95328,  -0.01945,  -0.15953,   0.12840,  -0.10506,   0.11284,   0.68869,  -0.85211,   0.96106,   0.21400
   0.60309,   0.94550,   0.99219,   0.57197,   0.11284,   0.23735,   0.57975,   0.33073,   0.61866,   0.87546
  -0.78986,  -0.50971,  -0.30738,  -0.56419,   0.99219,   0.91437,  -0.90659,   0.64200,  -0.22178,   0.29960
   0.98441,   0.99219,   0.81320,   0.97662,   0.30738,   0.99219,   0.14396,   0.42411,   0.25291,   0.77430
   0.12840,   0.11284,  -0.26847,   0.34629,  -0.98441,  -0.16731,   0.32295,   0.99219,   0.13618,   0.68091
   0.93771,  -0.68091,   0.99219,  -0.61088,  -0.20622,  -0.46302,  -0.74317,  -0.54862,   0.97662,  -0.47080
  -0.42411,  -0.31517,   0.83655,   0.99219,  -0.08171,  -0.64979,  -0.23735,   0.00389,   0.35407,   0.19844
   0.85990,  -0.60309,   0.92993,   0.94550,   0.76651,   0.76651,  -0.92993,   0.83655,   0.97662,  -0.99219
  -0.49415,  -0.54084,   0.96884,  -0.40855,   0.56419,  -0.23735,  -0.42411,  -0.16731,  -0.69648,  -0.08949
  -0.54084,   0.97662,  -0.77430,   0.99219,   0.11284,  -0.97662,  -0.60309,   0.17509,  -0.21400,   0.10506
   0.75873,   0.00389,  -0.76651,   0.99219,  -0.04280,  -0.36186,  -0.01167,   0.43189,  -0.22178,  -0.22956
   0.96884,  -0.43968,   0.02724,  -0.55640,   0.97662,  -0.36964,  -0.52528,  -0.97662,   0.19066,  -0.92215
  -0.79764,  -0.23735,  -0.74317,   0.89881,   0.99219,   0.92215,  -0.12840,  -0.33851,  -0.30738,   0.92993
  -0.16731,   0.98441,   0.16731,  -0.23735,  -0.64200,  -0.00389,  -0.11284,  -0.06615,  -0.21400,  -0.63422
   0.99219,  -0.32295,   0.78986,  -0.02724,  -0.28404,  -0.30738,   0.05836,   0.22957,  -0.46302,   0.20622
  -0.58753,  -0.25291,   0.99219,   0.22957,  -0.98441,  -0.54862,  -0.71982,  -0.97662,  -0.26847,   0.03502
   0.57197,  -0.87546,   0.95328,   0.97662,  -0.19066,  -0.34629,  -0.79764,  -0.85211,   0.99219,  -0.96884
   0.20622,  -0.08171,  -0.54084,  -0.78208,  -0.99219,   0.99219,  -0.49415,   0.44746,   0.33851,   0.82099
  -0.43968,   0.15953,  -0.13618,   0.10506,  -0.47858,   0.50193,   0.45524,   0.99219,  -0.36964,   0.78986
   0.71204,  -0.46302,  -0.64979,  -0.06615,   0.13618,   0.42411,  -0.61866,  -0.36964,  -0.28404,   0.99219
   0.48637,  -0.39298,  -0.12062,  -0.13618,   0.90659,  -0.73539,  -0.43189,   0.39298,   0.60309,   0.99219
   0.28404,  -0.10506,  -0.19844,  -0.88324,   0.40077,  -0.43968,   0.12840,  -0.09727,   0.99219,  -0.35407
  -0.47080,  -0.34629,  -0.67313,   0.93771,   0.08171,   0.94550,  -0.53306,  -0.58753,  -0.67313,  -0.33851
  -0.62644,   0.96106,   0.89102,   0.99219,  -0.38520,  -0.65757,  -0.50193,  -0.45524,  -0.47080,  -0.38520
  -0.87546,  -0.29960,   0.96106,   0.92215,  -0.42411,   0.14396,  -0.42411,  -0.47080,  -0.89881,  -0.46302
  -0.54862,  -0.33073,   0.47080,  -0.36186,   0.18287,  -0.53306,  -0.90659,   0.11284,   0.99219,   0.12062
   0.47080,   0.44746,  -0.43968,  -0.33073,  -0.09727,   0.63422,   0.01167,  -0.82099,   0.22957,   0.99219
  -0.29960,   0.26847,  -0.29960,   0.22957,  -0.56419,   0.47858,   0.09727,   0.51749,   0.99219,  -0.26847
  -0.19066,   0.05836,  -0.06615,   0.07393,   0.97662,   0.96106,   0.33073,  -0.12062,   0.15953,  -0.74317
   0.98441,   0.54084,  -0.48637,   0.97662,   0.23735,  -0.32295,  -0.43968,   0.22178,   0.97662,  -0.39298
   0.01167,   0.95328,   0.23735,   0.12062,   0.02724,   0.97662,  -0.34629,  -0.33073,  -0.19844,  -0.12062
   0.99219,  -0.51749,  -0.89102,  -0.17509,  -0.68869,   0.01945,   0.65757,  -0.35407,  -0.59531,  -0.63422
