   0.08949,   0.82877,  -0.71204,  -0.62644,  -0.42411,   0.65757,  -0.90659,   0.54084,  -0.23735,   0.64200,   0.95328,   0.89102,   0.92215,  -0.63422,  -0.57197,  -0.81320,  -0.25291,  -0.88324,   0.85211,   0.72760,  -0.10506,  -0.88324,  -0.71204,  -0.80542,  -0.67313,  -0.92215,   0.11284,   0.93771,   0.57975,   0.04280,  -0.52528,   0.84433,  -0.93771,  -0.71982,   0.90659,  -0.33851,   0.81320,  -0.82099,  -0.48637,   0.54084,   0.00389,   0.81320,  -0.70426,  -0.94550,  -0.32295,  -0.29182,  -0.59531,   0.66535,  -0.93771,  -0.57197,  -0.17509,   0.61866,   0.73539,   0.88324,   0.29182,  -0.48637,   0.87546,  -0.24513,  -0.97662,  -0.71204,  -0.26847,   0.46302,   0.68869,   0.71982,   0.44746,   0.13618,  -0.47858,  -0.26069,  -0.84433,  -0.18287,   0.93771,   0.65757,  -0.89881,  -0.29182,   0.68091,  -0.81320,  -0.78208,   0.19844,  -0.12062,  -0.86768,  -0.05058,  -0.86768,  -0.19066,  -0.41633,  -0.83655,  -0.04280,  -0.73539,   0.96106,   0.49415,  -0.05836,   0.98441,   0.20622,   0.84433,  -0.89881,   0.23735,  -0.36964,   0.43968,  -0.10506,   0.00389,  -0.86768,   0.52528,  -0.92215,  -0.66535,  -0.38520,  -0.66535,   0.97662,   0.43189,  -0.40855,  -0.66535,   0.88324,   0.55640,  -0.74317,   0.64979,   0.71982,  -0.54862,  -0.70426,  -0.85990,   0.14396,  -0.22178,   0.66535,  -0.22178,   0.60309,   0.13618,   0.84433,  -0.88324,  -0.69648,   0.94550,  -0.87546
  -0.68091,   0.31517,   0.97662,   0.26847,  -0.85211,  -0.88324,   0.72760,   0.08949,   0.96106,  -0.66535,   0.46302,   0.92993,  -0.21400,  -0.70426,  -0.26847,  -0.61866,   0.12840,  -0.91437,  -0.43968,   0.35407,   0.65757,  -0.92993,   0.41633,  -0.44746,  -0.92993,  -0.92215,  -0.50971,   0.03502,  -0.30738,  -0.97662,  -0.24513,   0.12840,  -0.91437,  -0.28404,  -0.39298,   0.02724,   0.84433,  -0.31517,  -0.64979,  -0.44746,  -0.29182,  -0.43968,  -0.74317,  -0.01167,   0.85990,   0.60309,   0.69648,  -0.38520,  -0.78986,  -0.54862,  -0.62644,   0.08171,   0.75873,  -0.71204,   0.84433,  -0.56419,  -0.67313,  -0.65757,   0.39298,  -0.91437,  -0.23735,   0.41633,  -0.03502,   0.79764,   0.30738,  -0.79764,  -0.96106,   0.40855,  -0.82877,  -0.89102,   0.40855,  -0.68869,  -0.90659,  -0.55640,  -0.42411,   0.29182,  -0.38520,  -0.64200,  -0.69648,  -0.08171,  -0.65757,   0.79764,  -0.95328,  -0.97662,  -0.40855,   0.59531,   0.96884,   0.60309,   0.39298,  -0.45524,   0.35407,  -0.74317,   0.89881,  -0.86768,  -0.92215,  -0.78208,  -0.01167,  -0.72760,   0.25291,  -0.27626,  -0.47080,  -0.72760,   0.40855,  -0.93771,  -0.96884,   0.49415,  -0.68869,  -0.83655,   0.52528,   0.57975,   0.21400,  -0.98441,   0.85990,  -0.69648,   0.75095,  -0.96106,   0.73539,  -0.15175,   0.79764,  -0.71982,   0.62644,   0.68869,   0.64200,   0.34629,  -0.33851,  -0.26069,  -0.87546,   0.17509
  -0.47858,   0.05836,   0.78986,  -0.77430,  -0.70426,  -0.76651,   0.64979,  -0.10506,   0.59531,  -0.83655,  -0.86768,   0.02724,  -0.25291,  -0.93771,  -0.98441,   0.14396,  -0.32295,  -0.78986,   0.39298,   0.77430,   0.23735,  -0.77430,   0.95328,   0.89102,  -0.99219,  -0.47858,  -0.96106,   0.63422,   0.22178,   0.88324,   0.33851,   0.48637,   0.01167,  -0.42411,  -0.85990,  -0.97662,   0.78986,   0.58753,   0.38520,  -0.33851,   0.05836,   0.52528,   0.08171,  -0.24513,   0.26069,   0.57197,   0.14396,   0.43189,  -0.77430,   0.85211,  -0.73539,   0.76651,   0.54862,  -0.13618,  -0.94550,  -0.12062,  -0.33851,   0.93771,  -0.88324,  -0.71982,   0.96884,   0.01167,   0.40077,   0.79764,  -0.33073,  -0.79764,  -0.67313,   0.67313,  -0.67313,  -0.28404,   0.54084,  -0.92993,  -0.85211,  -0.92215,  -0.84433,  -0.28404,  -0.35407,  -0.86768,  -0.61866,   0.33851,   0.39298,  -0.29960,  -0.85990,   0.82099,  -0.43189,   0.23735,  -0.15953,  -0.71982,   0.10506,   0.54862,  -0.45524,  -0.91437,   0.94550,   0.09727,   0.98441,  -0.20622,   0.71204,   0.33073,  -0.88324,  -0.47080,  -0.91437,   0.81320,  -0.72760,  -0.38520,  -0.31517,  -0.07393,   0.63422,  -0.42411,   0.40855,  -0.82877,  -0.71204,  -0.29182,  -0.76651,  -0.05058,  -0.65757,   0.65757,  -0.73539,   0.56419,   0.15175,  -0.27626,   0.71982,   0.50971,   0.71204,   0.93771,   0.42411,  -0.69648,  -0.78986,  -0.08171
   0.64200,  -0.69648,  -0.39298,   0.92993,   0.82099,   0.15953,  -0.47858,   0.32295,   0.85211,   0.71204,   0.71982,   0.45524,   0.97662,   0.71204,  -0.48637,   0.71204,  -0.54084,  -0.10506,   0.26069,  -0.21400,  -0.55640,   0.04280,   0.69648,  -0.15953,  -0.33851,  -0.79764,  -0.71204,  -0.98441,   0.17509,  -0.96106,  -0.41633,  -0.99219,  -0.79764,  -0.81320,   0.50193,  -0.24513,   0.26069,  -0.37742,  -0.95328,   0.37742,   0.19066,  -0.74317,  -0.47858,  -0.93771,   0.53306,   0.95328,  -0.27626,   0.75095,   0.53306,  -0.81320,   0.15175,  -0.30738,  -0.31517,  -0.85990,   0.15953,  -0.86768,  -0.70426,  -0.46302,   0.29960,   0.82099,  -0.31517,  -0.09727,  -0.89881,  -0.61866,  -0.43189,  -0.19066,   0.00389,  -0.78986,  -0.85990,  -0.41633,   0.93771,   0.75095,   0.82099,   0.29182,   0.37742,  -0.94550,  -0.75095,  -0.73539,   0.92215,  -0.63422,  -0.70426,   0.40855,   0.50193,  -0.79764,  -0.33851,   0.71204,   0.71204,   0.64979,  -0.27626,  -0.82099,   0.71204,   0.43189,  -0.53306,  -0.07393,   0.41633,  -0.87546,  -0.56419,  -0.78986,  -0.06615,  -0.76651,   0.91437,  -0.92993,  -0.48637,  -0.40855,   0.57197,   0.28404,  -0.15953,   0.71204,  -0.72760,   0.89881,  -0.03502,   0.86768,   0.98441,  -0.21400,  -0.11284,  -0.83655,   0.82877,  -0.15953,  -0.87546,  -0.36964,   0.87546,  -0.41633,   0.45524,  -0.82877,  -0.96106,  -0.20622,  -0.97662,  -0.35407
   0.63422,  -0.71204,   0.47858,  -0.52528,  -0.91437,   0.50193,  -0.99219,   0.92215,  -0.06615,   0.64200,  -0.97662,  -0.74317,   0.26069,   0.75095,  -0.68091,  -0.26069,   0.07393,  -0.08949,   0.36964,  -0.92993,   0.79764,   0.53306,  -0.62644,  -0.03502,  -0.83655,   0.58753,  -0.75095,  -0.92993,   0.54862,  -0.82099,  -0.63422,  -0.78986,   0.81320,  -0.78208,  -0.92993,  -0.20622,  -0.75873,  -0.59531,   0.88324,  -0.97662,   0.33073,   0.05058,   0.88324,  -0.95328,   0.87546,  -0.47858,   0.62644,  -0.15953,  -0.64200,  -0.92993,  -0.19844,  -0.32295,  -0.50193,   0.02724,   0.61088,  -0.87546,  -0.48637,   0.90659,   0.12062,   0.91437,  -0.06615,  -0.50971,   0.92215,  -0.73539,   0.97662,  -0.85211,  -0.58753,  -0.33073,  -0.88324,  -0.25291,  -0.95328,  -0.56419,   0.45524,   0.64979,   0.92215,  -0.89102,  -0.33073,  -0.96106,  -0.63422,   0.06615,  -0.71982,  -0.83655,  -0.88324,  -0.01167,  -0.40855,   0.13618,   0.83655,  -0.01167,   0.71204,  -0.24513,   0.90659,  -0.36186,  -0.91437,   0.98441,  -0.26069,  -0.85990,  -0.97662,   0.60309,  -0.41633,  -0.93771,   0.43189,  -0.33073,  -0.97662,  -0.88324,   0.77430,  -0.33851,  -0.54862,   0.31517,   0.50193,   0.80542,   0.06615,   0.84433,  -0.74317,  -0.73539,   0.26847,   0.76651,  -0.49415,  -0.57197,   0.05058,  -0.09727,   0.15175,  -0.47080,   0.73539,  -0.93771,  -0.60309,  -0.54862,  -0.99219,   0.21400
  -0.75873,  -0.80542,   0.68091,  -0.37742,   0.97662,  -0.40077,   0.92215,   0.69648,  -0.16731,   0.97662,  -0.82877,  -0.73539,  -0.16731,  -0.57975,  -0.50193,  -0.59531,  -0.88324,  -0.51749,  -0.85211,  -0.64979,   0.48637,  -0.48637,   0.62644,   0.66535,   0.32295,   0.32295,  -0.57197,   0.47858,   0.22178,  -0.71982,  -0.59531,  -0.29182,   0.26069,  -0.47858,  -0.54862,  -0.24513,  -0.92215,   0.15175,   0.47858,  -0.63422,   0.69648,   0.27626,   0.91437,  -0.78986,  -0.64200,  -0.92993,  -0.06615,   0.32295,  -0.49415,  -0.91437,  -0.75873,   0.03502,  -0.51749,  -0.78208,  -0.57975,   0.26847,   0.94550,  -0.23735,  -0.85990,  -0.30738,  -0.80542,  -0.96884,  -0.82099,  -0.55640,   0.61866,   0.33851,   0.05836,   0.90659,  -0.47080,  -0.63422,  -0.63422,  -0.19844,   0.65757,  -0.43189,  -0.14396,   0.78208,  -0.82877,   0.38520,   0.37742,   0.98441,  -0.74317,  -0.21400,  -0.82877,   0.79764,  -0.91437,  -0.53306,  -0.75873,   0.03502,  -0.78208,  -0.86768,  -0.43968,  -0.58753,   0.86768,  -0.99219,   0.28404,  -0.90659,  -0.50971,   0.83655,   0.36964,  -0.99219,  -0.45524,  -0.69648,  -0.15953,  -0.89881,   0.94550,   0.57975,  -0.57197,  -0.65757,  -0.57975,  -0.08949,  -0.94550,   0.86768,  -0.68869,  -0.79764,  -0.38520,   0.80542,   0.85211,   0.56419,   0.43968,  -0.15953,   0.65757,  -0.68091,   0.59531,  -0.79764,  -0.75095,  -0.66535,   0.61088,   0.40855
  -0.41633,  -0.59531,  -0.77430,  -0.95328,   0.54862,  -0.15175,   0.43189,  -0.37742,  -0.63422,  -0.36964,  -0.97662,   0.55640,   0.33851,  -0.99219,  -0.20622,   0.19066,  -0.67313,  -0.46302,  -0.27626,  -0.64979,  -0.79764,   0.20622,   0.47080,   0.29182,  -0.61088,  -0.92993,   0.28404,  -0.92215,  -0.73539,   0.22178,   0.64979,  -0.02724,  -0.77430,   0.45524,   0.78986,  -0.85211,  -0.57197,  -0.71982,   0.64979,  -0.17509,  -0.11284,   0.11284,   0.93771,   0.75873,  -0.99219,  -0.51749,  -0.63422,   0.71204,   0.66535,  -0.96884,   0.76651,  -0.34629,  -0.61866,   0.62644,   0.96884,  -0.71204,  -0.46302,   0.07393,   0.79764,  -0.46302,  -0.50193,  -0.08949,  -0.65757,  -0.89881,  -0.89881,  -0.43189,   0.22178,   0.13618,  -0.81320,  -0.90659,  -0.92215,   0.75095,  -0.92215,   0.71982,  -0.44746,  -0.08949,  -0.72760,  -0.82099,   0.92215,  -0.97662,  -0.70426,   0.57975,   0.54862,  -0.80542,   0.45524,   0.96106,   0.86768,   0.75873,  -0.99219,   0.01945,   0.88324,   0.00389,  -0.44746,   0.89102,   0.37742,  -0.92993,  -0.55640,   0.97662,   0.82877,   0.81320,   0.57197,  -0.75095,  -0.59531,   0.79764,  -0.39298,   0.94550,   0.20622,   0.86768,  -0.13618,  -0.46302,   0.96106,  -0.47858,   0.38520,  -0.92215,   0.92993,   0.64200,   0.94550,  -0.86768,  -0.74317,  -0.96884,   0.03502,  -0.54862,  -0.34629,   0.01167,  -0.64200,   0.28404,  -0.38520,  -0.50193
   0.15175,   0.75873,  -0.69648,  -0.13618,  -0.89881,   0.50971,   0.56419,  -0.88324,  -0.44746,  -0.37742,   0.72760,  -0.23735,  -0.44746,  -0.30738,  -0.42411,  -0.26069,   0.08949,   0.49415,   0.71982,  -0.49415,   0.46302,  -0.66535,  -0.48637,   0.22178,   0.75095,   0.73539,   0.64979,  -0.47080,  -0.78986,  -0.16731,   0.00389,   0.36186,  -0.48637,   0.22178,  -0.15175,   0.08171,  -0.12062,  -0.74317,   0.92215,  -0.78986,   0.75095,  -0.66535,   0.73539,   0.94550,  -0.50193,  -0.70426,   0.98441,  -0.06615,   0.36186,  -0.83655,   0.36186,  -0.60309,   0.34629,  -0.43968,   0.75873,   0.45524,   0.64200,  -0.39298,  -0.64979,  -0.71982,   0.63422,   0.22178,  -0.96106,  -0.71982,  -0.28404,  -0.28404,   0.22957,   0.95328,  -0.89102,  -0.46302,  -0.47080,  -0.12840,   0.09727,   0.91437,   0.66535,   0.82099,  -0.89881,  -0.18287,  -0.39298,   0.93771,  -0.54084,   0.40077,  -0.78986,  -0.78986,  -0.64200,   0.24513,  -0.91437,   0.92993,   0.56419,   0.12062,   0.86768,  -0.58753,  -0.36186,  -0.92215,   0.55640,  -0.90659,   0.79764,   0.78208,  -0.91437,   0.89102,   0.48637,   0.26069,  -0.38520,  -0.78986,  -0.71204,   0.27626,  -0.22178,   0.54862,   0.88324,  -0.86768,   0.75095,   0.12062,  -0.86768,  -0.85990,   0.71982,  -0.22956,  -0.98441,  -0.70426,  -0.39298,  -0.34629,   0.50971,  -0.43189,  -0.72760,   0.80542,  -0.55640,   0.81320,   0.95328,  -0.91437
  -0.15175,   0.92215,   0.82099,   0.22957,  -0.84433,  -0.59531,  -0.96884,  -0.45524,   0.15953,  -0.71204,   0.83655,   0.12840,  -0.95328,   0.97662,   0.68091,   0.80542,   0.22178,   0.04280,  -0.95328,  -0.09727,  -0.05058,   0.93771,   0.57975,  -0.65757,  -0.16731,   0.30738,   0.66535,   0.50193,   0.35407,   0.38520,   0.15175,   0.17509,   0.89102,   0.96106,  -0.57197,   0.15953,  -0.67313,   0.12840,   0.21400,  -0.74317,   0.73539,  -0.19066,   0.66535,   0.86768,  -0.99219,  -0.29960,   0.13618,  -0.60309,  -0.01945,  -0.78986,  -0.17509,  -0.33073,  -0.44746,  -0.90659,   0.78208,   0.64979,   0.19844,   0.81320,   0.62644,   0.26847,  -0.50193,  -0.08171,  -0.29960,   0.03502,   0.85211,   0.74317,  -0.98441,   0.81320,  -0.05836,   0.00389,   0.95328,   0.47858,  -0.50971,  -0.82877,   0.11284,   0.98441,  -0.70426,  -0.16731,   0.43189,   0.81320,   0.90659,  -0.19066,  -0.45524,  -0.11284,  -0.47858,  -0.39298,  -0.89881,   0.89102,  -0.98441,  -0.96106,  -0.22178,   0.14396,  -0.68869,  -0.85990,  -0.57975,   0.15175,   0.75873,   0.67313,  -0.49415,  -0.82877,  -0.40855,  -0.17509,  -0.68869,   0.40855,  -0.81320,  -0.64200,  -0.19844,  -0.21400,  -0.57975,  -0.73539,  -0.16731,  -0.64979,  -0.92993,  -0.73539,   0.43968,  -0.77430,  -0.81320,   0.56419,  -0.98441,  -0.12062,   0.13618,  -0.75873,   0.80542,  -0.55640,  -0.55640,  -0.09727,  -0.71982,   0.89881
   0.47858,  -0.97662,   0.14396,   0.94550,  -0.69648,  -0.47858,  -0.70426,  -0.98441,   0.59531,  -0.57197,   0.64979,  -0.15953,   0.83655,  -0.68091,  -0.92993,   0.69648,   0.48637,  -0.35407,  -0.72760,   0.39298,   0.31517,  -0.15175,   0.68869,   0.95328,  -0.89881,   0.36186,   0.89102,   0.93771,  -0.92993,   0.43968,   0.54084,   0.75873,  -0.85211,   0.45524,   0.67313,  -0.78208,   0.96106,  -0.41633,   0.70426,  -0.81320,   0.08171,  -0.28404,   0.05058,  -0.43189,  -0.22956,   0.96106,   0.89881,   0.39298,  -0.68091,  -0.29960,  -0.12062,  -0.67313,   0.15175,  -0.93771,   0.96106,  -0.95328,  -0.52528,   0.54862,   0.29960,   0.70426,  -0.44746,   0.77430,   0.36964,  -0.68091,   0.08949,  -0.67313,  -0.43968,  -0.75095,   0.62644,   0.43968,   0.81320,   0.43189,   0.68091,   0.31517,  -0.96884,   0.29960,  -0.82877,  -0.52528,  -0.89881,  -0.55640,   0.64200,   0.82877,  -0.22178,  -0.37742,   0.59531,  -0.74317,   0.94550,  -0.91437,   0.81320,   0.63422,   0.40855,  -0.36186,  -0.96884,   0.61088,  -0.95328,   0.61866,  -0.38520,  -0.60309,   0.40077,  -0.47858,  -0.82877,  -0.71204,   0.33851,  -0.26069,  -0.23735,   0.53306,  -0.27626,  -0.56419,   0.92993,  -0.24513,  -0.68091,   0.96106,  -0.87546,  -0.26847,  -0.96884,  -0.80542,   0.02724,   0.01945,  -0.80542,  -0.98441,   0.36186,  -0.82877,   0.89881,  -0.26069,  -0.12062,  -0.73539,  -0.89102,  -0.77430
   0.10506,  -0.42411,   0.81320,  -0.78986,   0.81320,  -0.67313,   0.32295,  -0.18287,   0.30738,  -0.77430,   0.36964,  -0.54084,   0.79764,  -0.57197,  -0.92215,   0.28404,  -0.79764,  -0.40855,  -0.61866,  -0.43189,  -0.92215,   0.37742,  -0.40855,   0.95328,  -0.47080,  -0.76651,  -0.82099,   0.96106,   0.47080,  -0.05836,  -0.16731,  -0.84433,  -0.33073,  -0.01945,  -0.54862,  -0.01167,   0.61866,  -0.46302,   0.78986,  -0.00389,   0.39298,   0.78986,  -0.36964,   0.57197,  -0.07393,  -0.80542,   0.40077,  -0.94550,  -0.90659,  -0.24513,  -0.81320,  -0.57975,   0.79764,  -0.34629,   0.82099,  -0.08949,   0.30738,   0.26847,  -0.66535,  -0.36964,  -0.37742,  -0.30738,  -0.54084,  -0.89881,  -0.90659,  -0.87546,  -0.56419,  -0.06615,   0.89881,   0.74317,   0.34629,  -0.06615,  -0.35407,  -0.77430,   0.70426,   0.71204,   0.25291,   0.96884,   0.96884,  -0.83655,  -0.58753,   0.90659,   0.33073,  -0.36186,   0.78986,  -0.51749,   0.93771,  -0.95328,   0.02724,  -0.50193,  -0.90659,  -0.38520,  -0.44746,   0.77430,  -0.75873,  -0.02724,  -0.88324,   0.31517,   0.62644,   0.28404,  -0.82877,  -0.89102,  -0.64200,  -0.63422,   0.12062,   0.61088,  -0.47080,  -0.47858,  -0.92993,  -0.12840,  -0.21400,  -0.24513,  -0.81320,   0.05836,  -0.77430,   0.08949,   0.76651,   0.76651,  -0.65757,   0.51749,   0.08171,  -0.81320,   0.67313,  -0.67313,  -0.85990,   0.48637,  -0.86768,   0.83655
  -0.90659,   0.33073,   0.88324,   0.26069,   0.36186,   0.70426,   0.66535,  -0.29960,   0.30738,  -0.83655,   0.39298,  -0.12840,  -0.30738,  -0.78986,  -0.92215,   0.70426,  -0.75873,  -0.78986,   0.55640,  -0.97662,   0.57197,  -0.06615,   0.83655,   0.76651,   0.82877,   0.44746,  -0.54084,  -0.75095,   0.96884,  -0.12062,   0.91437,   0.54084,   0.96884,  -0.48637,   0.78986,  -0.96106,  -0.12840,  -0.50971,  -0.42411,   0.55640,   0.53306,   0.49415,   0.36964,   0.98441,  -0.57197,  -0.62644,  -0.68869,  -0.89102,  -0.83655,  -0.67313,  -0.47080,   0.64200,   0.26847,  -0.50971,   0.49415,  -0.79764,   0.36964,  -0.68091,  -0.33851,  -0.44746,   0.29182,   0.23735,   0.93771,   0.49415,  -0.76651,   0.62644,  -0.02724,  -0.68869,   0.36186,  -0.85990,  -0.35407,   0.47080,  -0.78208,  -0.97662,   0.85990,  -0.85990,   0.81320,  -0.57975,   0.28404,   0.85211,   0.62644,   0.84433,   0.61866,  -0.40077,   0.48637,  -0.53306,  -0.39298,  -0.92215,   0.29182,   0.01167,  -0.29182,  -0.90659,   0.54862,   0.88324,   0.06615,   0.49415,  -0.05058,   0.38520,  -0.83655,   0.29960,  -0.85211,   0.08171,   0.90659,   0.64200,   0.04280,  -0.65757,   0.92215,  -0.52528,   0.61866,  -0.58753,  -0.28404,   0.99219,   0.72760,  -0.34629,  -0.19066,   0.20622,  -0.26069,   0.48637,  -0.97662,   0.82877,  -0.39298,  -0.92215,   0.64200,  -0.27626,  -0.93771,   0.06615,   0.15953,   0.87546
  -0.82877,  -0.74317,   0.83655,   0.48637,   0.71204,  -0.22956,  -0.57197,  -0.56419,   0.92215,   0.47858,   0.78986,  -0.69648,   0.68091,   0.48637,  -0.55640,   0.21400,   0.55640,   0.92215,   0.95328,  -0.43189,   0.81320,  -0.89102,  -0.46302,   0.25291,  -0.89102,  -0.99219,   0.98441,   0.94550,  -0.85211,  -0.22178,  -0.02724,   0.92215,  -0.85211,   0.77430,   0.75095,  -0.40855,  -0.72760,   0.94550,  -0.35407,  -0.45524,   0.95328,  -0.98441,  -0.08949,   0.23735,   0.84433,   0.25291,   0.73539,  -0.40855,  -0.09727,  -0.64200,  -0.56419,   0.20622,   0.53306,  -0.65757,   0.10506,  -0.41633,   0.94550,  -0.26847,   0.73539,  -0.82099,  -0.15953,   0.97662,   0.49415,  -0.54084,   0.14396,  -0.78986,  -0.96106,   0.82099,  -0.45524,  -0.95328,   0.15953,   0.61088,  -0.59531,   0.55640,  -0.51749,   0.68869,  -0.73539,  -0.54084,  -0.96884,  -0.64979,   0.71204,   0.47080,  -0.65757,   0.81320,  -0.54084,  -0.51749,   0.89102,  -0.69648,  -0.53306,  -0.45524,   0.57197,   0.69648,  -0.50971,   0.38520,  -0.04280,  -0.38520,   0.29182,  -0.96884,  -0.76651,  -0.48637,  -0.92993,   0.75873,   0.85990,   0.92215,   0.73539,  -0.89881,   0.64200,  -0.72760,  -0.20622,  -0.19844,   0.23735,  -0.64979,  -0.97662,  -0.12840,  -0.82099,   0.74317,  -0.78986,  -0.60309,   0.51749,  -0.96106,   0.68091,  -0.53306,  -0.24513,  -0.52528,  -0.70426,  -0.01945,  -0.07393,   0.18287
  -0.93771,   0.78986,   0.77430,   0.29960,  -0.01945,  -0.19066,  -0.49415,  -0.57975,   0.55640,   0.76651,  -0.66535,  -0.29182,  -0.94550,   0.10506,  -0.36964,   0.09727,  -0.54862,   0.99219,  -0.76651,  -0.63422,  -0.57197,   0.71982,  -0.22178,   0.62644,  -0.72760,  -0.70426,   0.43968,  -0.02724,   0.01945,  -0.69648,   0.17509,   0.77430,   0.86768,  -0.15175,   0.08171,   0.01945,  -0.67313,   0.83655,   0.64200,  -0.51749,  -0.89881,  -0.44746,   0.58753,   0.09727,   0.91437,  -0.87546,   0.05058,  -0.59531,  -0.80542,  -0.59531,  -0.44746,   0.86768,  -0.85211,  -0.67313,  -0.59531,   0.41633,   0.87546,  -0.89881,   0.65757,  -0.79764,  -0.45524,   0.41633,  -0.92215,  -0.02724,  -0.77430,  -0.59531,   0.27626,   0.61088,   0.27626,  -0.04280,   0.54862,  -0.98441,  -0.57975,  -0.82099,  -0.85211,   0.85990,   0.63422,   0.97662,   0.24513,  -0.89102,  -0.77430,   0.71982,   0.63422,  -0.02724,  -0.79764,  -0.99219,  -0.39298,  -0.78986,   0.76651,  -0.82877,  -0.77430,   0.92215,  -0.48637,  -0.53306,  -0.87546,   0.57975,  -0.92993,   0.89102,   0.72760,  -0.40855,  -0.67313,   0.71982,  -0.19844,   0.60309,   0.93771,  -0.36964,  -0.84433,  -0.63422,  -0.90659,  -0.49415,  -0.50193,  -0.93771,   0.63422,   0.31517,   0.77430,   0.10506,   0.81320,   0.99219,   0.92215,   0.89102,  -0.02724,  -0.12840,  -0.86768,  -0.22956,  -0.86768,  -0.49415,   0.57975,  -0.24513
  -0.76651,   0.97662,   0.57197,   0.40077,   0.15175,   0.94550,   0.75095,  -0.37742,  -0.69648,   0.50971,  -0.01167,   0.62644,  -0.58753,   0.26069,  -0.55640,   0.03502,  -0.63422,   0.44746,   0.26847,  -0.85211,  -0.87546,  -0.24513,  -0.99219,   0.97662,   0.76651,   0.75873,   0.65757,  -0.93771,   0.89881,  -0.64979,  -0.37742,   0.39298,   0.95328,  -0.98441,  -0.75095,   0.37742,  -0.87546,   0.97662,  -0.92993,  -0.03502,   0.42411,   0.67313,   0.40077,  -0.40855,  -0.94550,  -0.59531,  -0.44746,  -0.97662,  -0.49415,  -0.98441,  -0.91437,   0.51749,  -0.82877,  -0.78208,  -0.33851,   0.92215,  -0.33851,  -0.99219,  -0.57197,  -0.75095,   0.17509,  -0.79764,  -0.82877,  -0.43189,  -0.91437,  -0.83655,   0.64979,  -0.92215,   0.38520,  -0.11284,   0.62644,   0.69648,  -0.94550,  -0.82877,   0.74317,   0.68869,  -0.87546,   0.26847,  -0.46302,   0.77430,   0.83655,   0.07393,   0.46302,  -0.64979,  -0.81320,  -0.60309,  -0.50971,  -0.91437,  -0.91437,   0.92993,  -0.04280,   0.57975,   0.75873,  -0.81320,   0.15953,  -0.64200,  -0.59531,   0.62644,   0.96106,   0.72760,  -0.82099,  -0.81320,   0.68091,   0.42411,   0.77430,   0.81320,  -0.72760,  -0.54084,  -0.62644,   0.10506,  -0.82099,   0.18287,   0.72760,  -0.94550,   0.68091,  -0.36186,  -0.33851,   0.78208,   0.62644,   0.66535,   0.83655,  -0.85990,  -0.18287,  -0.12062,   0.98441,   0.08171,  -0.71204,   0.75095
  -0.68091,  -0.47858,   0.74317,  -0.80542,   0.91437,  -0.92993,  -0.87546,   0.04280,   0.68091,   0.56419,   0.80542,   0.46302,   0.89881,   0.12062,   0.71982,   0.48637,   0.82877,   0.88324,   0.62644,  -0.33851,   0.57197,   0.68869,   0.89881,  -0.87546,  -0.36964,  -0.96884,   0.77430,   0.41633,  -0.88324,  -0.89881,   0.07393,   0.03502,   0.52528,  -0.82099,   0.89102,  -0.45524,   0.50971,   0.54084,  -0.82877,  -0.81320,   0.93771,  -0.13618,   0.12062,   0.69648,  -0.05836,  -0.47080,   0.36186,  -0.82877,  -0.93771,  -0.46302,  -0.75095,   0.88324,   0.36964,  -0.29960,  -0.51749,   0.99219,  -0.25291,   0.33851,  -0.82099,  -0.71204,   0.75095,   0.47080,   0.16731,   0.77430,   0.97662,   0.41633,   0.65757,   0.61088,  -0.92215,   0.81320,  -0.57197,  -0.51749,  -0.08949,   0.65757,   0.62644,  -0.78208,  -0.37742,  -0.84433,  -0.45524,  -0.89881,  -0.18287,   0.90659,   0.85990,   0.78986,  -0.82099,   0.39298,   0.45524,  -0.98441,  -0.80542,  -0.43189,   0.27626,  -0.15175,   0.71982,   0.56419,   0.92993,   0.11284,   0.16731,  -0.57197,  -0.01945,   0.89102,   0.23735,   0.73539,   0.08949,   0.54084,  -0.36186,   0.78208,  -0.61088,   0.38520,  -0.71204,   0.23735,  -0.54862,  -0.61866,   0.42411,   0.09727,   0.68869,   0.29960,  -0.54862,  -0.50971,  -0.24513,  -0.79764,  -0.33073,  -0.51749,  -0.74317,  -0.17509,  -0.02724,  -0.92215,  -0.73539,  -0.55640
  -0.69648,   0.92993,   0.97662,   0.92993,   0.97662,   0.35407,  -0.34629,   0.61866,  -0.37742,  -0.12062,  -0.58753,   0.32295,  -0.77430,   0.58753,   0.15953,  -0.80542,  -0.29960,   0.55640,  -0.78986,  -0.54084,  -0.75095,   0.72760,  -0.18287,  -0.96884,   0.67313,  -0.87546,   0.12840,  -0.30738,   0.08949,   0.36186,  -0.53306,   0.13618,   0.78986,  -0.75095,   0.19066,   0.54862,   0.26069,   0.52528,  -0.49415,  -0.00389,  -0.19066,   0.84433,  -0.54084,   0.40855,   0.89102,  -0.36186,   0.96884,  -0.55640,  -0.93771,  -0.31517,  -0.85990,   0.81320,   0.15175,  -0.80542,  -0.68869,   0.50193,  -0.44746,  -0.79764,   0.00389,  -0.03502,   0.14396,  -0.35407,   0.08949,   0.89102,   0.28404,  -0.27626,   0.87546,   0.59531,   0.05058,   0.44746,   0.03502,  -0.70426,   0.50971,  -0.79764,  -0.44746,   0.78208,   0.26847,   0.97662,   0.45524,   0.14396,  -0.11284,   0.62644,   0.00389,   0.86768,  -0.85990,  -0.84433,  -0.71204,  -0.91437,   0.91437,  -0.86768,  -0.99219,   0.82877,  -0.96884,   0.53306,  -0.72760,  -0.52528,   0.88324,   0.27626,  -0.42411,  -0.61088,   0.47080,   0.46302,  -0.12062,   0.12062,  -0.86768,  -0.53306,  -0.83655,  -0.26847,  -0.17509,  -0.33851,   0.83655,  -0.59531,   0.68091,  -0.64979,   0.53306,  -0.61088,   0.85211,   0.83655,   0.98441,  -0.10506,  -0.16731,  -0.67313,  -0.71204,   0.72760,   0.33851,  -0.77430,   0.29960,  -0.19844
  -0.80542,   0.77430,   0.96106,   0.58753,   0.30738,   0.32295,   0.38520,  -0.39298,  -0.65757,   0.67313,  -0.87546,   0.62644,  -0.71982,   0.50971,  -0.05058,  -0.25291,  -0.85211,   0.96884,   0.64979,  -0.26847,  -0.19844,   0.34629,  -0.95328,  -0.53306,  -0.21400,   0.45524,  -0.13618,  -0.95328,   0.38520,  -0.63422,  -0.06615,   0.28404,   0.13618,  -0.18287,  -0.59531,  -0.82099,  -0.25291,   0.76651,  -0.76651,  -0.93771,  -0.43189,   0.78208,   0.47080,   0.92993,  -0.46302,   0.33073,  -0.86768,   0.63422,  -0.82877,  -0.26847,  -0.98441,   0.53306,  -0.15953,   0.33073,  -0.64979,   0.86768,  -0.57975,  -0.36964,   0.75095,   0.98441,  -0.77430,  -0.74317,  -0.78986,   0.56419,  -0.47080,   0.68091,   0.91437,   0.87546,  -0.77430,   0.43968,  -0.78986,   0.52528,   0.59531,  -0.49415,   0.68869,   0.84433,   0.73539,   0.16731,   0.00389,   0.59531,  -0.71982,  -0.01167,  -0.14396,  -0.74317,  -0.96884,   0.00389,  -0.04280,  -0.70426,   0.12062,  -0.92215,  -0.94550,  -0.20622,   0.67313,   0.53306,  -0.60309,  -0.57197,  -0.13618,   0.64200,   0.68091,   0.78208,  -0.55640,  -0.78208,  -0.32295,   0.33073,  -0.08171,   0.75873,  -0.53306,   0.66535,  -0.71204,   0.14396,  -0.75095,  -0.53306,   0.85211,  -0.75095,   0.72760,   0.40077,   0.72760,   0.71982,  -0.35407,   0.82877,   0.85211,  -0.61088,  -0.99219,   0.95328,   0.51749,  -0.17509,  -0.15175,   0.44746
  -0.24513,   0.85990,  -0.40855,   0.03502,  -0.19844,   0.84433,  -0.56419,  -0.64979,  -0.81320,  -0.69648,  -0.54862,  -0.22956,  -0.61866,   0.75873,  -0.89102,  -0.48637,   0.89102,  -0.88324,  -0.06615,   0.56419,   0.59531,  -0.82877,  -0.49415,   0.25291,   0.75095,  -0.61088,   0.25291,   0.50971,  -0.82877,   0.13618,  -0.92215,   0.61866,  -0.84433,   0.71982,   0.32295,  -0.97662,  -0.73539,   0.92215,   0.38520,  -0.71982,  -0.75095,  -0.82877,  -0.92215,  -0.05836,   0.66535,  -0.63422,   0.47080,   0.61866,  -0.80542,  -0.78208,  -0.34629,   0.01167,  -0.94550,  -0.31517,   0.89881,  -0.71204,   0.26847,   0.37742,   0.54084,   0.74317,  -0.06615,   0.56419,  -0.32295,   0.42411,   0.80542,  -0.68869,   0.04280,   0.96106,   0.94550,   0.62644,  -0.94550,   0.84433,  -0.46302,   0.79764,  -0.79764,   0.79764,   0.18287,  -0.14396,   0.08949,   0.24513,   0.51749,   0.47858,  -0.50971,   0.58753,   0.92993,  -0.86768,   0.75095,   0.10506,  -0.57975,   0.39298,  -0.83655,   0.74317,   0.22178,  -0.76651,   0.01945,   0.74317,  -0.72760,  -0.63422,  -0.01945,  -0.46302,  -0.04280,  -0.92215,  -0.56419,  -0.89881,  -0.43968,  -0.50971,  -0.69648,  -0.51749,  -0.64200,  -0.69648,   0.68091,  -0.63422,  -0.19066,   0.33073,  -0.65757,   0.31517,  -0.91437,  -0.40855,  -0.75095,  -0.40077,  -0.91437,  -0.28404,   0.64979,  -0.71982,   0.22957,  -0.26847,   0.84433,  -0.76651
  -0.38520,   0.81320,  -0.29182,   0.80542,   0.57197,  -0.23735,   0.95328,  -0.43189,  -0.57975,  -0.87546,   0.75873,   0.39298,  -0.24513,   0.94550,  -0.73539,  -0.05836,   0.57197,  -0.85990,   0.05836,   0.86768,  -0.76651,   0.50971,   0.05058,   0.05058,  -0.61866,  -0.98441,   0.27626,   0.78208,  -0.20622,   0.64979,  -0.76651,  -0.77430,  -0.95328,   0.64200,  -0.85990,  -0.33073,   0.74317,  -0.30738,  -0.24513,  -0.72760,   0.55640,   0.26069,   0.87546,  -0.60309,   0.67313,   0.96884,  -0.24513,  -0.50971,  -0.89102,  -0.76651,  -0.91437,   0.34629,  -0.40077,   0.43968,   0.33851,  -0.78986,  -0.57197,  -0.16731,  -0.56419,   0.84433,   0.51749,  -0.35407,  -0.77430,   0.53306,  -0.85211,  -0.89102,  -0.61088,  -0.46302,   0.57975,   0.69648,   0.75873,   0.07393,  -0.64200,  -0.52528,   0.78986,  -0.61088,  -0.82877,   0.50193,   0.58753,  -0.19844,  -0.07393,  -0.93771,   0.06615,  -0.33851,   0.82099,   0.10506,  -0.40077,  -0.53306,  -0.89881,   0.11284,  -0.92993,  -0.32295,   0.02724,  -0.40855,   0.68869,   0.71204,   0.01167,  -0.68091,   0.71982,  -0.70426,   0.64200,  -0.87546,  -0.12840,  -0.75095,  -0.85990,   0.82099,  -0.81320,   0.35407,  -0.87546,  -0.15953,  -0.72760,  -0.33851,   0.55640,   0.70426,  -0.33851,  -0.11284,   0.94550,  -0.85211,  -0.32295,  -0.93771,  -0.71204,  -0.82877,   0.08171,   0.53306,   0.23735,   0.78986,   0.90659,  -0.05058
  -0.22956,  -0.85990,  -0.77430,  -0.85211,  -0.09727,   0.63422,  -0.77430,  -0.18287,   0.32295,   0.96884,   0.15953,   0.71982,  -0.20622,   0.19844,  -0.33073,  -0.36964,  -0.95328,  -0.88324,   0.90659,   0.48637,   0.47858,   0.61866,  -0.22956,   0.69648,   0.96884,   0.93771,   0.79764,  -0.36186,   0.90659,   0.43968,  -0.98441,   0.34629,  -0.07393,   0.93771,  -0.34629,  -0.30738,   0.93771,  -0.68869,   0.81320,  -0.96106,   0.54084,   0.86768,   0.06615,   0.15953,   0.60309,   0.49415,  -0.89102,  -0.74317,  -0.59531,   0.70426,  -0.71204,   0.35407,   0.58753,   0.71982,  -0.62644,  -0.27626,  -0.72760,  -0.03502,   0.93771,   0.88324,  -0.02724,  -0.70426,   0.93771,   0.96884,  -0.72760,  -0.57975,  -0.34629,   0.22178,   0.40077,  -0.83655,  -0.10506,  -0.34629,  -0.71204,  -0.54084,   0.26847,  -0.77430,   0.89881,  -0.77430,   0.64979,   0.92215,   0.22957,   0.95328,   0.62644,  -0.70426,   0.15953,   0.80542,   0.30738,  -0.76651,   0.67313,   0.70426,  -0.68869,  -0.23735,   0.92215,  -0.96884,  -0.59531,  -0.61866,   0.87546,  -0.84433,  -0.94550,   0.94550,  -0.69648,   0.90659,   0.36964,  -0.32295,  -0.25291,  -0.53306,   0.15953,  -0.10506,   0.69648,  -0.92993,  -0.40855,  -0.25291,   0.84433,   0.39298,  -0.79764,  -0.46302,  -0.22178,  -0.57197,  -0.63422,   0.41633,  -0.71204,   0.94550,   0.43189,  -0.63422,   0.77430,   0.92215,  -0.59531,   0.73539
  -0.73539,   0.04280,  -0.38520,   0.68091,  -0.03502,   0.82099,   0.59531,  -0.29182,  -0.61088,   0.43968,   0.89881,  -0.81320,  -0.56419,  -0.97662,  -0.37742,  -0.08949,   0.53306,  -0.93771,   0.92993,   0.99219,   0.13618,  -0.98441,  -0.54862,  -0.29182,  -0.96106,   0.17509,   0.87546,   0.47080,  -0.45524,  -0.25291,  -0.84433,  -0.15175,  -0.60309,  -0.93771,   0.80542,  -0.78986,   0.18287,   0.11284,  -0.15953,  -0.04280,  -0.93771,  -0.71982,  -0.82099,   0.53306,   0.89102,  -0.08949,   0.10506,  -0.71982,  -0.89881,  -0.95328,   0.40855,  -0.89881,  -0.31517,  -0.30738,   0.55640,   0.49415,  -0.30738,  -0.91437,  -0.49415,   0.96106,  -0.11284,   0.90659,   0.65757,   0.36964,  -0.97662,  -0.39298,  -0.92215,  -0.08171,   0.56419,   0.30738,   0.82877,  -0.06615,  -0.70426,   0.64979,  -0.93771,   0.79764,   0.82099,  -0.43968,  -0.35407,   0.97662,   0.61088,   0.70426,   0.08949,   0.97662,   0.65757,  -0.51749,   0.64979,  -0.66535,   0.15953,   0.60309,   0.24513,   0.69648,  -0.86768,  -0.96884,  -0.78208,   0.68869,  -0.64200,  -0.90659,  -0.91437,  -0.29960,   0.27626,   0.48637,  -0.54862,  -0.71982,   0.08949,  -0.89881,  -0.82099,  -0.70426,  -0.90659,   0.24513,   0.87546,  -0.82877,  -0.07393,   0.08949,   0.68091,  -0.72760,  -0.89102,  -0.38520,   0.55640,  -0.89881,  -0.96884,  -0.84433,  -0.61088,  -0.36186,  -0.49415,  -0.61866,  -0.42411,   0.05058
  -0.85211,  -0.71982,  -0.27626,  -0.71204,   0.66535,  -0.78208,  -0.96884,   0.48637,   0.64979,   0.30738,  -0.82099,  -0.36964,  -0.36964,  -0.74317,  -0.81320,   0.43189,  -0.77430,  -0.87546,  -0.38520,   0.88324,  -0.32295,   0.36186,   0.85211,  -0.57975,  -0.14396,  -0.50193,   0.68091,  -0.27626,  -0.33851,  -0.42411,  -0.82099,  -0.91437,  -0.41633,   0.41633,   0.82877,  -0.26069,   0.89102,  -0.46302,   0.35407,  -0.19844,   0.50193,  -0.61088,  -0.28404,  -0.67313,   0.95328,  -0.54862,  -0.71204,  -0.71982,  -0.77430,  -0.87546,   0.27626,  -0.43968,   0.99219,   0.95328,   0.90659,  -0.63422,  -0.47080,  -0.15953,   0.78208,   0.82877,  -0.68091,   0.03502,  -0.69648,  -0.92993,   0.61866,  -0.69648,  -0.96106,  -0.22178,   0.75095,   0.97662,   0.57197,   0.91437,  -0.68091,  -0.71982,  -0.20622,   0.64979,  -0.08171,  -0.36964,   0.29182,  -0.49415,  -0.85211,   0.85990,  -0.25291,  -0.82877,   0.80542,  -0.11284,  -0.36964,  -0.97662,  -0.23735,   0.96884,  -0.84433,  -0.76651,  -0.79764,   0.78208,  -0.94550,   0.91437,  -0.68091,  -0.85211,   0.82877,  -0.01945,  -0.47080,  -0.74317,  -0.12062,  -0.66535,   0.79764,  -0.86768,  -0.70426,   0.63422,  -0.79764,   0.87546,   0.98441,   0.68869,   0.78208,   0.27626,   0.97662,  -0.61088,   0.68869,  -0.38520,  -0.04280,   0.12840,  -0.82877,  -0.70426,   0.34629,  -0.87546,  -0.98441,   0.95328,  -0.92215,   0.71204
  -0.47080,  -0.83655,  -0.81320,  -0.46302,   0.64979,   0.89881,   0.64979,   0.57197,   0.96884,   0.54084,  -0.71982,  -0.78986,   0.10506,  -0.89102,  -0.79764,   0.36186,  -0.95328,  -0.71204,   0.97662,  -0.72760,   0.54084,  -0.92215,  -0.72760,   0.73539,   0.31517,   0.75873,   0.50193,  -0.94550,   0.69648,  -0.78986,  -0.96106,  -0.40077,   0.76651,   0.99219,  -0.47858,  -0.67313,   0.74317,  -0.85990,   0.87546,  -0.20622,   0.90659,   0.63422,   0.57197,  -0.57975,   0.82877,  -0.69648,   0.07393,  -0.85211,  -0.79764,  -0.80542,   0.39298,   0.94550,  -0.06615,   0.98441,  -0.50193,  -0.68869,  -0.03502,  -0.97662,  -0.40077,  -0.01945,   0.36186,  -0.54084,  -0.30738,  -0.08171,  -0.87546,   0.49415,   0.74317,  -0.36964,  -0.09727,  -0.73539,   0.41633,  -0.80542,   0.43189,  -0.64200,   0.88324,  -0.66535,   0.79764,  -0.35407,   0.68091,   0.89102,   0.42411,   0.79764,   0.31517,  -0.84433,   0.89881,   0.43189,  -0.47080,  -0.93771,   0.98441,  -0.01945,  -0.33073,  -0.16731,   0.19066,   0.37742,   0.24513,  -0.47080,  -0.82877,  -0.78208,  -0.21400,   0.32295,  -0.95328,  -0.92215,  -0.67313,  -0.92215,   0.89881,   0.97662,  -0.68091,   0.72760,   0.28404,  -0.12840,  -0.48637,   0.51749,   0.53306,  -0.17509,   0.77430,   0.97662,  -0.67313,  -0.90659,  -0.78986,   0.18287,  -0.72760,  -0.91437,   0.30738,  -0.99219,   0.24513,   0.71204,   0.54084,   0.13618
  -0.80542,  -0.86768,  -0.67313,   0.78986,  -0.06615,  -0.61088,   0.85990,   0.91437,   0.06615,   0.68869,  -0.86768,   0.19066,  -0.40855,   0.93771,  -0.86768,   0.85211,   0.50193,   0.46302,   0.45524,   0.78208,  -0.98441,  -0.82877,   0.19844,  -0.96884,  -0.92993,   0.14396,   0.48637,   0.51749,  -0.97662,  -0.55640,  -0.17509,   0.75095,  -0.13618,  -0.61866,   0.71982,  -0.01945,  -0.31517,   0.93771,   0.30738,  -0.54862,  -0.40077,  -0.34629,   0.01945,   0.61866,  -0.35407,   0.39298,  -0.33073,  -0.97662,   0.25291,  -0.83655,  -0.06615,   0.34629,  -0.72760,  -0.02724,  -0.64200,   0.59531,  -0.94550,   0.48637,  -0.02724,  -0.61866,   0.73539,   0.62644,   0.14396,   0.12840,   0.53306,  -0.87546,   0.64979,  -0.45524,  -0.36186,   0.84433,  -0.12062,   0.14396,   0.35407,   0.61866,  -0.99219,   0.41633,  -0.73539,  -0.56419,  -0.36964,  -0.36964,   0.68869,   0.79764,  -0.75873,   0.75873,  -0.40077,   0.72760,   0.15175,   0.29960,  -0.12840,   0.16731,  -0.75873,  -0.77430,   0.85990,   0.98441,   0.72760,   0.54862,  -0.64979,  -0.05836,   0.36186,   0.75095,   0.82877,  -0.98441,   0.92215,   0.67313,   0.80542,   0.98441,  -0.93771,  -0.61866,  -0.68091,   0.84433,   0.21400,   0.36186,  -0.01167,  -0.01945,  -0.41633,   0.60309,  -0.15953,   0.50971,   0.72760,  -0.75873,  -0.64200,  -0.20622,  -0.08171,  -0.13618,   0.80542,  -0.83655,  -0.08949,   0.81320
  -0.96884,  -0.52528,  -0.08171,  -0.55640,   0.43968,  -0.64200,   0.07393,   0.91437,   0.41633,   0.54084,   0.01167,  -0.78986,   0.97662,  -0.53306,  -0.64979,   0.21400,   0.43968,   0.55640,  -0.82877,   0.05836,  -0.61088,   0.79764,  -0.01945,   0.02724,  -0.36964,  -0.77430,   0.80542,   0.83655,  -0.65757,  -0.59531,  -0.68869,   0.61866,   0.96884,  -0.38520,   0.24513,   0.73539,  -0.76651,  -0.43189,   0.91437,  -0.64979,  -0.78986,  -0.68869,   0.91437,   0.73539,  -0.85211,  -0.84433,  -0.68091,  -0.21400,  -0.45524,  -0.90659,  -0.75095,  -0.78208,  -0.03502,   0.67313,  -0.96106,   0.91437,   0.79764,   0.04280,   0.60309,  -0.99219,   0.76651,   0.81320,   0.87546,  -0.36186,   0.67313,  -0.19066,   0.86768,  -0.27626,  -0.47080,  -0.24513,  -0.47080,  -0.01167,   0.71204,   0.38520,   0.97662,   0.51749,  -0.81320,   0.68091,   0.70426,  -0.05058,  -0.73539,   0.33851,   0.90659,  -0.59531,   0.79764,  -0.61866,  -0.32295,   0.85990,   0.50971,  -0.01945,  -0.06615,   0.22178,  -0.58753,   0.77430,  -0.54084,  -0.77430,  -0.45524,   0.73539,  -0.75873,  -0.44746,   0.88324,   0.71982,   0.31517,   0.87546,  -0.05836,  -0.95328,  -0.72760,  -0.70426,  -0.45524,   0.73539,   0.78208,   0.39298,   0.61866,   0.38520,   0.43968,   0.97662,   0.34629,  -0.96884,  -0.24513,  -0.60309,  -0.81320,  -0.75873,  -0.62644,  -0.65757,  -0.93771,  -0.28404,   0.59531,   0.74317
  -0.85990,   0.00389,  -0.96884,   0.31517,   0.84433,   0.85211,  -0.16731,   0.56419,  -0.63422,   0.93771,   0.65757,  -0.41633,  -0.90659,  -0.34629,  -0.17509,  -0.71982,  -0.65757,   0.11284,   0.96106,  -0.75873,   0.43968,   0.86768,  -0.78208,  -0.03502,  -0.43968,   0.82877,   0.57975,  -0.47080,   0.78208,  -0.67313,  -0.37742,   0.64200,   0.99219,  -0.80542,   0.69648,  -0.92215,  -0.75873,  -0.50971,  -0.89881,  -0.61866,   0.59531,   0.69648,   0.72760,   0.64979,  -0.09727,  -0.81320,   0.23735,  -0.96106,  -0.56419,  -0.26847,  -0.47858,  -0.43968,  -0.59531,  -0.49415,  -0.55640,  -0.57197,   0.52528,  -0.80542,  -0.12062,  -0.80542,  -0.05058,  -0.89881,  -0.62644,  -0.19844,  -0.16731,   0.96106,   0.60309,  -0.78208,  -0.21400,  -0.98441,   0.69648,   0.29960,  -0.31517,  -0.34629,   0.61866,   0.22178,  -0.02724,  -0.18287,   0.31517,   0.68091,  -0.28404,   0.60309,   0.96884,  -0.98441,  -0.82877,  -0.79764,   0.97662,   0.94550,   0.52528,   0.96106,  -0.79764,   0.21400,   0.81320,  -0.94550,   0.78986,  -0.60309,  -0.79764,  -0.52528,  -0.71982,   0.65757,  -0.97662,   0.19066,  -0.03502,   0.90659,  -0.89102,   0.43968,   0.29960,   0.71204,   0.30738,   0.43189,   0.29960,  -0.29960,   0.70426,  -0.32295,  -0.34629,  -0.16731,   0.18287,  -0.87546,  -0.23735,   0.92993,  -0.82877,  -0.43968,   0.52528,  -0.33073,  -0.65757,  -0.41633,  -0.03502,   0.72760
   0.53306,   0.92215,  -0.82099,   0.80542,  -0.85211,   0.26069,  -0.22178,  -0.97662,  -0.57197,   0.92993,  -0.78986,   0.30738,  -0.54862,   0.89102,  -0.41633,  -0.59531,  -0.59531,   0.91437,   0.57975,   0.25291,  -0.78208,  -0.72760,   0.38520,   0.25291,  -0.13618,   0.61866,   0.77430,   0.38520,  -0.92993,  -0.71982,  -0.98441,  -0.07393,  -0.70426,   0.29960,   0.08949,   0.92215,  -0.41633,  -0.30738,  -0.22178,   0.55640,  -0.40855,   0.29960,  -0.89881,   0.12062,  -0.80542,   0.97662,  -0.74317,   0.96884,   0.12062,  -0.39298,   0.44746,  -0.78208,  -0.79764,   0.08171,   0.47080,  -0.64979,  -0.71204,   0.26847,  -0.91437,   0.97662,   0.58753,   0.79764,   0.54862,  -0.40855,  -0.74317,  -0.96884,   0.87546,  -0.92215,  -0.13618,  -0.95328,   0.37742,  -0.50193,   0.84433,   0.75095,  -0.75873,   0.18287,   0.52528,  -0.39298,  -0.85990,   0.68091,   0.19066,  -0.82099,  -0.17509,   0.49415,   0.05058,   0.65757,   0.57975,   0.96884,   0.29960,   0.53306,   0.58753,  -0.94550,  -0.85211,  -0.84433,   0.97662,  -0.27626,   0.65757,  -0.41633,  -0.99219,   0.47858,   0.94550,   0.62644,   0.74317,  -0.51749,   0.65757,   0.29960,   0.59531,   0.00389,   0.67313,  -0.98441,  -0.73539,   0.87546,  -0.93771,  -0.17509,  -0.49415,  -0.22178,   0.18287,  -0.95328,  -0.98441,   0.18287,  -0.40855,   0.28404,   0.26069,  -0.21400,   0.78986,   0.90659,   0.83655,  -0.82099
   0.67313,  -0.40855,  -0.85211,   0.05836,  -0.24513,  -0.82877,  -0.85211,  -0.78208,   0.15953,  -0.90659,  -0.72760,  -0.28404,  -0.93771,   0.36964,  -0.96884,   0.54862,  -0.50193,   0.08949,  -0.22956,   0.09727,  -0.14396,  -0.78986,   0.28404,  -0.40855,  -0.18287,  -0.72760,   0.58753,   0.70426,  -0.68869,  -0.80542,   0.09727,  -0.42411,  -0.69648,   0.35407,  -0.35407,   0.64200,  -0.44746,  -0.60309,  -0.68091,   0.00389,  -0.56419,   0.19844,  -0.86768,   0.15953,  -0.33073,   0.71204,  -0.93771,  -0.07393,  -0.22178,  -0.13618,   0.85211,   0.63422,  -0.83655,   0.96884,   0.75873,  -0.77430,  -0.81320,   0.85211,   0.94550,   0.26847,  -0.40855,   0.87546,   0.82877,  -0.42411,   0.48637,  -0.56419,   0.07393,  -0.37742,   0.58753,  -0.67313,  -0.70426,  -0.92993,   0.40077,   0.55640,  -0.57975,   0.43968,  -0.59531,  -0.13618,  -0.99219,  -0.02724,  -0.63422,  -0.58753,  -0.37742,  -0.68869,  -0.14396,   0.10506,  -0.69648,   0.88324,   0.80542,   0.89102,   0.60309,  -0.71982,  -0.88324,   0.94550,  -0.60309,  -0.73539,  -0.65757,  -0.80542,   0.54084,   0.15175,   0.57975,   0.85990,  -0.90659,  -0.86768,   0.64200,  -0.61088,  -0.48637,  -0.17509,   0.47858,  -0.74317,  -0.33851,   0.72760,  -0.80542,   0.93771,  -0.54084,   0.08949,   0.00389,  -0.57197,  -0.19066,   0.97662,  -0.93771,   0.78208,   0.61866,  -0.84433,   0.62644,   0.72760,  -0.67313,  -0.08949
   0.55640,  -0.93771,  -0.81320,  -0.82877,   0.29182,   0.61866,   0.36186,  -0.15953,   0.50971,  -0.94550,  -0.26847,  -0.82877,  -0.89102,  -0.15175,  -0.80542,  -0.82099,   0.23735,  -0.82099,  -0.14396,   0.44746,  -0.85211,  -0.83655,  -0.69648,   0.51749,   0.41633,  -0.51749,   0.69648,  -0.96884,   0.44746,   0.08949,  -0.61866,  -0.87546,   0.47080,   0.34629,  -0.71204,  -0.09727,   0.39298,  -0.89102,  -0.54862,  -0.84433,  -0.82877,  -0.71204,  -0.51749,  -0.63422,  -0.70426,  -0.89102,  -0.95328,  -0.45524,   0.40077,  -0.77430,  -0.65757,  -0.97662,   0.04280,   0.71982,   0.33851,  -0.77430,   0.02724,   0.16731,  -0.42411,   0.39298,  -0.19066,   0.94550,   0.26069,  -0.26069,  -0.33073,   0.61088,  -0.21400,  -0.81320,   0.00389,  -0.43189,   0.03502,  -0.48637,   0.12062,   0.14396,  -0.36964,   0.33073,   0.54084,  -0.83655,   0.21400,   0.76651,   0.79764,   0.67313,   0.22957,  -0.20622,   0.26847,  -0.62644,  -0.70426,  -0.68869,  -0.03502,   0.64979,  -0.75095,   0.47858,  -0.73539,   0.64200,   0.62644,  -0.58753,  -0.33851,  -0.68091,   0.84433,  -0.48637,  -0.29960,  -0.85990,  -0.65757,   0.95328,   0.68869,   0.86768,  -0.43189,  -0.38520,   0.95328,  -0.63422,  -0.84433,   0.54084,  -0.97662,   0.64979,  -0.26847,  -0.85211,   0.02724,  -0.38520,   0.37742,   0.86768,  -0.53306,  -0.22178,   0.62644,  -0.52528,  -0.44746,   0.88324,   0.93771,  -0.65757
   0.33073,   0.00389,  -0.86768,   0.89881,  -0.85211,   0.92993,   0.80542,  -0.99219,   0.20622,   0.28404,  -0.82099,  -0.36186,   0.73539,  -0.96884,  -0.85990,  -0.09727,   0.54084,  -0.64979,   0.95328,  -0.67313,  -0.63422,   0.73539,   0.83655,  -0.61866,  -0.73539,  -0.65757,   0.81320,  -0.97662,  -0.91437,   0.54084,  -0.76651,  -0.60309,  -0.97662,   0.94550,   0.81320,   0.49415,  -0.67313,   0.22957,  -0.55640,  -0.20622,  -0.17509,  -0.47858,  -0.83655,   0.64200,  -0.92993,   0.87546,  -0.65757,   0.60309,   0.35407,  -0.78208,   0.71204,  -0.82099,   0.22957,  -0.89881,   0.49415,  -0.88324,  -0.09727,  -0.07393,   0.22957,   0.52528,   0.92993,  -0.80542,  -0.41633,  -0.18287,  -0.09727,  -0.65757,   0.35407,  -0.90659,  -0.22956,   0.07393,   0.01945,   0.16731,  -0.55640,   0.33851,   0.93771,   0.69648,  -0.55640,  -0.50193,  -0.69648,   0.91437,   0.59531,  -0.09727,  -0.58753,   0.40077,   0.76651,   0.75873,   0.57975,   0.43189,  -0.82099,  -0.23735,   0.15175,  -0.43968,   0.83655,   0.83655,   0.45524,   0.58753,   0.85990,  -0.89881,   0.64200,  -0.01945,   0.71204,  -0.96106,   0.78208,  -0.58753,  -0.95328,   0.52528,   0.26847,   0.52528,  -0.02724,  -0.72760,   0.64200,  -0.81320,  -0.80542,   0.85211,   0.15175,  -0.33073,   0.92993,  -0.82099,  -0.33073,  -0.21400,  -0.75873,  -0.47080,  -0.28404,  -0.28404,  -0.78208,  -0.68869,  -0.59531,  -0.39298
   0.90659,  -0.98441,  -0.62644,  -0.79764,  -0.44746,  -0.40855,  -0.70426,  -0.88324,   0.50971,  -0.85211,  -0.52528,  -0.56419,  -0.67313,  -0.38520,  -0.99219,  -0.20622,   0.48637,  -0.74317,   0.28404,  -0.89881,  -0.33851,  -0.29182,  -0.90659,   0.40855,   0.38520,  -0.57975,   0.85211,   0.89102,  -0.63422,   0.61866,  -0.84433,  -0.31517,  -0.87546,   0.75095,  -0.68091,   0.88324,   0.09727,  -0.60309,  -0.88324,  -0.62644,  -0.96884,   0.75873,  -0.58753,   0.87546,  -0.16731,  -0.96884,  -0.98441,  -0.33073,  -0.82099,  -0.89102,   0.54862,  -0.12840,  -0.68091,   0.61088,   0.88324,  -0.96884,  -0.84433,  -0.38520,  -0.86768,   0.99219,   0.90659,  -0.22956,   0.62644,  -0.61866,   0.92215,   0.22957,   0.68869,  -0.74317,   0.50193,  -0.53306,  -0.95328,  -0.96884,   0.43189,   0.83655,   0.68869,  -0.49415,  -0.93771,  -0.64979,  -0.46302,  -0.64200,  -0.89102,   0.67313,  -0.79764,  -0.76651,   0.36964,  -0.75873,  -0.89881,  -0.10506,   0.98441,  -0.23735,  -0.85211,  -0.69648,   0.86768,   0.61866,  -0.84433,  -0.69648,   0.36186,  -0.81320,  -0.89102,   0.83655,   0.89102,   0.61866,   0.27626,   0.03502,  -0.99219,  -0.82877,   0.99219,  -0.34629,   0.86768,  -0.47080,  -0.50971,  -0.56419,  -0.81320,   0.81320,  -0.96106,   0.82099,  -0.71982,  -0.76651,  -0.63422,  -0.62644,  -0.86768,  -0.44746,   0.51749,   0.49415,  -0.78986,   0.36186,  -0.54862,   0.76651
   0.57975,  -0.29960,  -0.37742,  -0.67313,   0.81320,   0.65757,  -0.78986,  -0.74317,   0.82099,  -0.92993,  -0.54084,  -0.89102,  -0.80542,   0.76651,  -0.81320,   0.05058,   0.49415,   0.29182,  -0.54084,  -0.72760,  -0.08171,   0.04280,   0.49415,   0.77430,   0.57975,  -0.64200,   0.99219,  -0.95328,   0.91437,   0.58753,  -0.67313,   0.35407,  -0.97662,   0.52528,  -0.73539,   0.51749,  -0.89102,  -0.82877,  -0.67313,   0.49415,  -0.60309,  -0.77430,  -0.92993,  -0.37742,  -0.71982,  -0.43189,  -0.59531,   0.90659,   0.09727,  -0.92215,  -0.40077,  -0.83655,   0.84433,  -0.58753,  -0.36964,  -0.43968,   0.43968,  -0.80542,   0.92215,  -0.58753,  -0.85211,   0.30738,  -0.37742,  -0.90659,   0.75873,   0.53306,  -0.54084,  -0.74317,   0.49415,  -0.60309,  -0.46302,  -0.49415,  -0.01167,   0.56419,  -0.85990,  -0.79764,  -0.07393,  -0.61866,  -0.17509,   0.91437,   0.38520,   0.67313,  -0.29182,  -0.64200,  -0.33851,  -0.72760,  -0.95328,  -0.71982,  -0.71982,  -0.89881,  -0.47080,   0.84433,  -0.15175,  -0.88324,  -0.65757,  -0.63422,   0.56419,  -0.97662,   0.32295,  -0.54862,   0.44746,   0.56419,  -0.22956,   0.75873,  -0.61088,  -0.47080,  -0.28404,  -0.48637,   0.85211,  -0.80542,  -0.34629,  -0.73539,  -0.85990,  -0.90659,  -0.49415,  -0.68091,  -0.26847,  -0.78986,  -0.69648,   0.39298,  -0.76651,   0.40855,   0.33073,  -0.08949,  -0.82877,   0.31517,  -0.36964,   0.77430
   0.25291,  -0.71982,  -0.71204,  -0.85211,   0.38520,  -0.73539,  -0.93771,  -0.78208,   0.45524,  -0.91437,   0.43189,  -0.92993,  -0.50971,  -0.60309,  -0.97662,   0.01167,   0.71982,  -0.13618,   0.12840,  -0.86768,  -0.78986,  -0.80542,  -0.56419,   0.71982,   0.03502,   0.82099,   0.33073,  -0.42411,  -0.66535,   0.68869,  -0.89881,  -0.50193,  -0.84433,  -0.47080,   0.68091,  -0.82877,  -0.99219,   0.71982,   0.78986,  -0.55640,  -0.87546,  -0.63422,  -0.44746,  -0.89102,  -0.98441,  -0.40855,  -0.83655,   0.70426,   0.50971,  -0.17509,   0.92215,   0.17509,   0.92215,   0.79764,  -0.55640,  -0.84433,  -0.36186,   0.71204,   0.71204,  -0.26069,  -0.84433,  -0.64200,  -0.10506,  -0.89102,  -0.74317,  -0.57975,  -0.12840,  -0.79764,   0.67313,   0.00389,  -0.81320,   0.89881,  -0.79764,   0.80542,  -0.48637,   0.87546,  -0.57975,  -0.68869,  -0.33073,  -0.59531,   0.86768,  -0.48637,   0.81320,   0.96884,  -0.26069,  -0.98441,   0.08171,  -0.79764,  -0.71204,  -0.55640,  -0.34629,   0.01167,   0.33073,  -0.07393,  -0.12840,   0.99219,  -0.88324,  -0.33851,   0.28404,   0.22178,  -0.42411,  -0.78986,   0.57197,  -0.96106,   0.38520,  -0.96884,  -0.01167,   0.56419,  -0.86768,  -0.74317,   0.92993,  -0.90659,  -0.56419,   0.90659,  -0.94550,   0.77430,  -0.36186,   0.14396,  -0.65757,  -0.61088,  -0.43968,  -0.55640,  -0.22956,  -0.76651,  -0.97662,  -0.50971,  -0.65757,  -0.52528
   0.10506,   0.45524,  -0.98441,  -0.71204,   0.59531,   0.71982,   0.09727,   0.91437,   0.65757,  -0.83655,   0.68091,  -0.78208,  -0.98441,   0.80542,  -0.89881,  -0.42411,   0.78986,  -0.88324,   0.94550,  -0.90659,  -0.51749,  -0.74317,  -0.91437,   0.87546,   0.70426,   0.74317,   0.84433,  -0.75095,  -0.79764,   0.43968,  -0.85990,  -0.70426,  -0.61866,   0.85990,  -0.90659,  -0.68869,  -0.52528,  -0.54084,   0.88324,  -0.24513,  -0.67313,   0.54862,  -0.76651,  -0.18287,  -0.44746,  -0.52528,  -0.84433,  -0.81320,   0.03502,   0.22178,   0.57975,  -0.56419,  -0.19066,   0.96884,  -0.15175,  -0.87546,   0.49415,  -0.90659,  -0.48637,  -0.95328,   0.46302,  -0.60309,  -0.50193,  -0.81320,  -0.29182,  -0.46302,  -0.81320,  -0.46302,   0.79764,  -0.68869,  -0.36186,  -0.39298,   0.60309,   0.20622,  -0.42411,  -0.76651,   0.26069,  -0.31517,  -0.46302,  -0.40855,  -0.74317,   0.20622,  -0.09727,  -0.94550,   0.88324,  -0.57197,  -0.50193,  -0.19066,   0.71982,  -0.89102,  -0.22956,  -0.81320,   0.96106,  -0.43968,   0.92993,   0.44746,   0.92993,  -0.53306,   0.54862,   0.92215,   0.68869,  -0.87546,  -0.99219,   0.81320,   0.01167,   0.61088,  -0.52528,   0.64979,  -0.54862,  -0.54084,   0.89881,  -0.78208,  -0.27626,   0.41633,  -0.58753,  -0.56419,   0.20622,   0.20622,  -0.61088,  -0.08171,  -0.48637,  -0.18287,  -0.92993,  -0.35407,   0.14396,  -0.64979,  -0.75873,   0.37742
   0.80542,   0.41633,  -0.12840,   0.61088,   0.75095,   0.22178,  -0.25291,   0.88324,   0.71204,  -0.81320,   0.88324,  -0.76651,  -0.89102,   0.08171,   0.72760,   0.29960,   0.75873,  -0.22178,  -0.83655,  -0.45524,   0.74317,  -0.92993,   0.66535,   0.91437,   0.27626,   0.23735,   0.50193,  -0.71982,  -0.42411,   0.43968,  -0.77430,   0.07393,   0.33851,  -0.51749,  -0.38520,  -0.53306,   0.09727,  -0.21400,   0.33073,   0.99219,  -0.98441,   0.70426,   0.69648,  -0.33851,   0.04280,   0.64979,  -0.82877,   0.67313,  -0.88324,  -0.61088,   0.68091,  -0.91437,  -0.66535,  -0.50971,  -0.74317,  -0.57197,   0.75873,  -0.44746,  -0.98441,  -0.94550,   0.19066,  -0.55640,   0.67313,  -0.99219,   0.72760,   0.94550,  -0.74317,  -0.24513,   0.89102,  -0.69648,  -0.71204,  -0.28404,  -0.95328,  -0.67313,   0.10506,  -0.13618,   0.18287,   0.64979,  -0.15175,  -0.11284,   0.90659,   0.90659,   0.69648,  -0.64979,  -0.78986,  -0.85990,   0.49415,   0.86768,  -0.59531,  -0.85211,  -0.19844,  -0.64979,  -0.31517,   0.46302,  -0.22956,  -0.90659,   0.12062,  -0.85211,  -0.26847,  -0.19844,  -0.55640,   0.41633,  -0.09727,   0.82877,   0.08171,  -0.44746,  -0.90659,   0.78986,   0.54084,  -0.58753,  -0.99219,  -0.33073,  -0.68869,  -0.83655,  -0.47080,  -0.74317,  -0.05058,  -0.12062,  -0.65757,   0.75095,  -0.90659,   0.60309,   0.24513,   0.15953,  -0.91437,  -0.88324,  -0.49415,  -0.08171
   0.29182,  -0.84433,  -0.39298,   0.89881,   0.81320,  -0.98441,   0.75095,  -0.27626,  -0.26847,  -0.80542,   0.33851,  -0.43968,  -0.14396,   0.97662,  -0.97662,   0.43189,   0.96884,  -0.61866,   0.77430,   0.36186,  -0.47858,   0.96884,   0.57975,   0.12840,  -0.82877,  -0.92215,   0.72760,   0.85990,  -0.63422,   0.81320,  -0.50971,  -0.94550,  -0.05058,   0.58753,   0.76651,   0.08171,  -0.22956,  -0.91437,  -0.95328,  -0.84433,  -0.25291,  -0.32295,  -0.46302,   0.98441,  -0.93771,  -0.68091,   0.16731,   0.17509,  -0.74317,  -0.55640,  -0.86768,  -0.29960,  -0.54084,  -0.88324,   0.71982,  -0.91437,  -0.93771,   0.85990,  -0.03502,   0.57197,   0.90659,   0.85211,  -0.96106,   0.97662,   0.10506,  -0.92215,  -0.75873,  -0.40855,   0.81320,  -0.28404,  -0.36964,   0.61866,   0.68869,   0.57197,  -0.74317,   0.22178,   0.78986,   0.71204,  -0.07393,   0.79764,   0.61866,   0.65757,   0.58753,   0.07393,   0.49415,  -0.36964,   0.82099,  -0.85990,  -0.28404,   0.48637,  -0.38520,   0.63422,  -0.68091,   0.95328,   0.19066,   0.75873,  -0.56419,  -0.83655,  -0.31517,  -0.49415,  -0.85990,  -0.67313,  -0.96106,   0.92993,  -0.01945,   0.92993,   0.88324,  -0.39298,  -0.77430,  -0.96106,   0.08949,   0.06615,  -0.53306,   0.71204,  -0.70426,  -0.12062,   0.26847,  -0.38520,  -0.08171,  -0.87546,  -0.97662,  -0.87546,  -0.40855,  -0.81320,  -0.70426,  -0.74317,  -0.61088,   0.47858
   0.63422,  -0.89881,   0.71982,  -0.92993,  -0.69648,  -0.04280,  -0.40855,   0.08949,   0.07393,   0.29960,  -0.64979,   0.97662,  -0.33073,   0.67313,  -0.90659,   0.92215,   0.98441,  -0.77430,   0.54084,   0.61088,   0.19066,  -0.40855,  -0.39298,   0.71204,   0.16731,   0.53306,   0.94550,  -0.51749,  -0.83655,   0.92215,  -0.67313,  -0.46302,  -0.41633,   0.45524,  -0.82877,   0.58753,  -0.62644,  -0.59531,  -0.75095,  -0.57975,  -0.33073,   0.76651,   0.26847,  -0.05058,   0.88324,   0.39298,  -0.94550,  -0.84433,  -0.85990,  -0.35407,   0.01945,  -0.76651,  -0.64200,   0.78208,   0.67313,  -0.81320,   0.61866,  -0.29182,  -0.67313,   0.21400,   0.08171,  -0.46302,   0.70426,  -0.83655,  -0.59531,  -0.06615,   0.60309,   0.39298,   0.77430,  -0.22956,  -0.75873,   0.71982,  -0.42411,  -0.96884,   0.91437,  -0.68091,   0.19844,   0.73539,  -0.57197,  -0.48637,   0.06615,   0.88324,   0.64200,  -0.52528,  -0.23735,   0.89881,  -0.96884,  -0.58753,   0.33073,  -0.99219,  -0.83655,  -0.68091,  -0.29960,   0.44746,  -0.81320,  -0.99219,  -0.15175,  -0.89102,  -0.84433,  -0.91437,  -0.50193,   0.61088,  -0.86768,  -0.47080,  -0.05058,  -0.36186,  -0.13618,   0.61088,  -0.31517,  -0.61088,  -0.56419,   0.65757,   0.84433,  -0.95328,  -0.82099,   0.58753,   0.37742,  -0.69648,  -0.96106,   0.91437,  -0.79764,   0.54862,   0.78986,  -0.93771,  -0.74317,   0.93771,   0.31517,   0.33073
   0.54084,   0.58753,  -0.58753,   0.57975,   0.45524,   0.21400,  -0.69648,   0.72760,  -0.99219,  -0.40855,   0.43189,  -0.21400,  -0.92215,   0.62644,  -0.71204,   0.23735,  -0.78986,  -0.19066,   0.68869,   0.62644,   0.78208,   0.61866,   0.78986,   0.51749,   0.10506,   0.54084,   0.78986,  -0.48637,   0.33073,  -0.33073,  -0.62644,   0.32295,   0.80542,   0.87546,  -0.61088,   0.01945,  -0.25291,  -0.91437,  -0.73539,  -0.19844,  -0.48637,   0.91437,  -0.11284,  -0.96106,  -0.94550,   0.22957,  -0.25291,  -0.73539,  -0.29182,  -0.92215,  -0.95328,  -0.38520,  -0.88324,  -0.57975,   0.26069,  -0.99219,   0.54862,   0.00389,   0.48637,  -0.60309,  -0.46302,   0.27626,  -0.11284,   0.04280,  -0.46302,   0.39298,  -0.17509,  -0.63422,   0.87546,  -0.45524,  -0.40077,   0.29182,  -0.89102,  -0.87546,   0.05058,  -0.97662,  -0.47858,   0.73539,   0.67313,   0.78208,   0.82099,   0.83655,   0.99219,  -0.85211,  -0.70426,   0.92215,  -0.01945,  -0.81320,  -0.75873,   0.25291,  -0.68091,  -0.91437,   0.61866,  -0.29182,  -0.57975,  -0.78986,   0.68091,  -0.57197,   0.43189,  -0.61088,  -0.82877,  -0.54862,   0.08949,   0.16731,   0.98441,   0.08949,  -0.88324,   0.39298,   0.76651,  -0.67313,  -0.56419,   0.63422,   0.68869,  -0.46302,  -0.89102,  -0.19066,   0.81320,  -0.31517,  -0.95328,   0.60309,  -0.78208,   0.68091,   0.84433,  -0.61088,   0.76651,  -0.01167,   0.43968,   0.85211
  -0.49415,  -0.94550,  -0.86768,  -0.18287,   0.90659,  -0.78208,  -0.53306,  -0.59531,   0.29182,   0.93771,  -0.98441,   0.75095,   0.89881,  -0.81320,  -0.77430,   0.71982,   0.89102,   0.43968,   0.44746,   0.92215,  -0.51749,   0.68869,   0.82877,  -0.82877,   0.00389,   0.26847,   0.96884,   0.83655,  -0.66535,   0.92215,  -0.82877,   0.33073,  -0.66535,   0.66535,   0.62644,  -0.66535,   0.53306,   0.52528,   0.01945,  -0.49415,   0.92993,  -0.86768,  -0.80542,   0.43189,  -0.67313,  -0.06615,  -0.69648,  -0.61088,  -0.63422,  -0.91437,   0.25291,  -0.63422,   0.91437,   0.91437,   0.00389,  -0.66535,   0.37742,   0.56419,   0.81320,  -0.78986,  -0.92993,   0.73539,   0.72760,  -0.25291,   0.50193,  -0.92993,  -0.13618,   0.50971,  -0.71982,   0.42411,  -0.62644,   0.31517,  -0.85990,   0.97662,  -0.08949,  -0.15175,   0.68091,  -0.86768,   0.56419,  -0.38520,   0.06615,   0.43189,   0.28404,   0.40855,   0.59531,  -0.99219,   0.98441,  -0.07393,  -0.25291,   0.89102,  -0.67313,   0.35407,  -0.95328,  -0.29182,  -0.15953,   0.29960,  -0.86768,  -0.98441,   0.62644,   0.61088,  -0.26847,  -0.58753,   0.52528,   0.61866,  -0.89102,  -0.60309,  -0.48637,  -0.70426,  -0.99219,   0.59531,   0.36186,  -0.61088,   0.39298,   0.85990,   0.43189,   0.94550,  -0.54084,  -0.35407,  -0.12062,  -0.98441,  -0.95328,  -0.94550,  -0.10506,   0.71204,  -0.31517,  -0.96884,   0.54084,  -0.31517
  -0.80542,   0.74317,  -0.71204,  -0.26069,  -0.27626,   0.93771,   0.72760,  -0.77430,   0.08949,   0.47858,   0.68091,  -0.96106,  -0.51749,  -0.80542,  -0.60309,   0.78208,   0.64200,  -0.78208,   0.21400,   0.47080,  -0.78986,  -0.21400,  -0.41633,  -0.51749,   0.77430,   0.83655,   0.74317,  -0.69648,  -0.92993,  -0.58753,  -0.88324,  -0.74317,  -0.29960,  -0.94550,  -0.27626,   0.37742,   0.91437,  -0.50971,   0.38520,  -0.84433,   0.42411,   0.29960,  -0.45524,  -0.18287,   0.38520,   0.64200,  -0.88324,  -0.05058,  -0.63422,  -0.92215,   0.31517,  -0.88324,   0.96884,  -0.40855,   0.77430,   0.01945,   0.42411,  -0.79764,  -0.92993,  -0.58753,  -0.84433,   0.26847,  -0.96106,   0.40077,  -0.58753,  -0.44746,  -0.36186,  -0.15953,   0.41633,  -0.50971,   0.64200,   0.81320,  -0.96884,   0.19844,  -0.36186,  -0.96884,   0.58753,  -0.77430,  -0.13618,   0.68091,  -0.59531,   0.61866,   0.95328,  -0.96884,   0.85990,  -0.28404,  -0.82877,  -0.95328,   0.29182,   0.20622,  -0.40077,   0.65757,  -0.91437,   0.34629,   0.10506,  -0.05058,   0.56419,  -0.00389,   0.74317,  -0.03502,  -0.03502,  -0.85990,  -0.31517,  -0.77430,  -0.63422,   0.92993,  -0.61088,  -0.49415,  -0.90659,  -0.64979,   0.48637,  -0.50193,   0.64979,  -0.88324,   0.88324,  -0.85990,  -0.35407,  -0.97662,   0.76651,   0.96106,  -0.88324,  -0.89102,   0.05836,   0.26069,  -0.54084,  -0.61088,   0.69648,   0.36186
  -0.30738,  -0.02724,   0.01167,   0.92993,   0.05836,  -0.08171,  -0.92993,  -0.85211,  -0.81320,   0.54084,  -0.58753,   0.88324,  -0.85990,  -0.75095,  -0.51749,  -0.64979,  -0.92993,  -0.92215,   0.30738,   0.54084,  -0.68869,   0.68091,  -0.18287,  -0.22956,   0.76651,  -0.84433,   0.19066,  -0.81320,  -0.14396,   0.18287,  -0.74317,   0.26069,   0.73539,  -0.75095,  -0.71204,   0.04280,   0.95328,  -0.64200,  -0.22956,  -0.64200,   0.79764,   0.47080,   0.12840,   0.05058,   0.55640,   0.22178,  -0.56419,  -0.32295,  -0.96106,  -0.92993,   0.88324,  -0.40855,   0.71204,  -0.49415,   0.36964,  -0.97662,  -0.79764,   0.47080,   0.31517,  -0.53306,   0.57197,  -0.91437,   0.20622,   0.63422,  -0.51749,  -0.81320,  -0.75873,  -0.45524,   0.54862,   0.33073,   0.87546,   0.91437,  -0.88324,  -0.40855,   0.47080,  -0.76651,  -0.57197,  -0.36964,   0.79764,   0.62644,   0.81320,   0.78986,   0.86768,  -0.63422,   0.72760,  -0.10506,   0.77430,  -0.91437,  -0.64979,   0.33851,  -0.98441,  -0.06615,   0.75095,   0.86768,   0.38520,  -0.21400,   0.83655,   0.36964,  -0.82877,   0.05836,  -0.14396,   0.37742,   0.12062,  -0.23735,  -0.76651,  -0.88324,  -0.39298,   0.46302,  -0.68869,  -0.87546,  -0.71982,  -0.04280,   0.44746,  -0.80542,   0.90659,  -0.82099,  -0.41633,  -0.93771,   0.07393,   0.72760,  -0.57197,  -0.21400,   0.67313,  -0.02724,  -0.26069,  -0.62644,  -0.80542,   0.89881
  -0.65757,   0.64200,  -0.91437,  -0.68091,  -0.35407,   0.42411,   0.18287,  -0.14396,   0.68869,   0.79764,   0.57197,   0.95328,   0.25291,  -0.40077,   0.51749,  -0.49415,   0.61866,   0.26847,  -0.41633,  -0.54862,  -0.24513,  -0.07393,   0.79764,  -0.61088,   0.95328,   0.68869,   0.50971,   0.87546,  -0.83655,   0.05836,  -0.54084,  -0.05836,  -0.73539,  -0.08949,   0.30738,   0.47080,   0.26069,  -0.51749,  -0.52528,  -0.71204,  -0.16731,  -0.50193,  -0.90659,   0.16731,   0.11284,   0.71982,  -0.47080,  -0.22956,  -0.76651,  -0.80542,  -0.41633,   0.64979,   0.51749,   0.12062,  -0.71204,  -0.49415,  -0.68091,  -0.08949,   0.57197,  -0.62644,  -0.31517,   0.96106,   0.18287,  -0.54862,   0.23735,  -0.19844,  -0.78986,   0.71982,  -0.69648,   0.57197,   0.55640,  -0.89881,  -0.98441,   0.59531,   0.50971,   0.84433,   0.22957,  -0.88324,   0.46302,   0.18287,  -0.85211,   0.54084,   0.26069,   0.69648,  -0.10506,  -0.02724,  -0.68869,  -0.96106,   0.20622,   0.57197,  -0.71204,  -0.88324,  -0.72760,  -0.43968,  -0.45524,   0.66535,   0.26847,  -0.89102,  -0.71982,  -0.78986,   0.47858,   0.05058,  -0.24513,  -0.86768,   0.28404,  -0.98441,   0.80542,   0.77430,  -0.59531,   0.63422,   0.64979,   0.33851,   0.68869,   0.19844,   0.18287,  -0.54862,   0.26847,  -0.82877,   0.01945,  -0.82099,  -0.73539,  -0.76651,  -0.57197,   0.05058,   0.65757,  -0.93771,   0.19844,  -0.89102
  -0.68091,  -0.92215,  -0.75873,   0.25291,  -0.64979,   0.81320,  -0.78208,  -0.56419,  -0.29960,   0.82877,  -0.64200,  -0.08949,  -0.94550,   0.88324,   0.92993,   0.33073,  -0.64979,   0.82099,  -0.76651,   0.60309,  -0.22956,  -0.68869,   0.81320,  -0.97662,   0.37742,  -0.04280,   0.11284,  -0.58753,  -0.08949,  -0.94550,  -0.94550,  -0.24513,   0.97662,  -0.79764,  -0.66535,   0.23735,  -0.85990,  -0.20622,  -0.54084,   0.26069,  -0.82099,  -0.29182,  -0.96884,   0.41633,   0.47080,   0.75095,   0.28404,  -0.40855,   0.47858,  -0.68091,  -0.85990,  -0.97662,  -0.61088,  -0.82099,  -0.57975,  -0.40077,   0.15175,  -0.56419,   0.12062,  -0.69648,  -0.08949,   0.22178,   0.47858,  -0.87546,   0.50971,  -0.53306,   0.82877,  -0.40855,   0.65757,   0.48637,   0.00389,   0.45524,  -0.90659,   0.24513,   0.30738,   0.44746,  -0.22178,  -0.94550,  -0.86768,   0.15953,  -0.96106,   0.76651,   0.96884,   0.61866,  -0.31517,   0.52528,  -0.64979,  -0.39298,  -0.52528,  -0.58753,  -0.22956,   0.96884,  -0.60309,   0.77430,   0.21400,  -0.76651,  -0.90659,  -0.86768,  -0.16731,  -0.93771,   0.93771,   0.46302,   0.43968,  -0.25291,   0.81320,  -0.26847,  -0.76651,  -0.40077,  -0.94550,   0.79764,   0.81320,   0.92993,   0.78986,  -0.91437,   0.29182,  -0.24513,  -0.15953,  -0.78986,   0.87546,  -0.43968,  -0.80542,  -0.88324,  -0.90659,  -0.02724,  -0.54084,  -0.93771,  -0.70426,  -0.26069
  -0.26847,  -0.29960,  -0.39298,  -0.50971,   0.72760,  -0.20622,   0.35407,   0.61866,   0.27626,   0.30738,  -0.63422,   0.84433,  -0.35407,   0.99219,  -0.52528,   0.55640,  -0.83655,   0.28404,  -0.43968,  -0.43968,   0.43189,  -0.89881,   0.34629,   0.07393,   0.82877,  -0.22956,   0.61088,  -0.93771,   0.20622,  -0.37742,  -0.86768,   0.15175,   0.66535,  -0.81320,   0.16731,   0.28404,  -0.04280,  -0.36186,   0.93771,   0.67313,  -0.55640,   0.09727,   0.19844,  -0.24513,  -0.46302,  -0.43189,   0.44746,   0.38520,   0.33073,  -0.95328,  -0.53306,   0.81320,  -0.90659,   0.78208,  -0.96106,  -0.82099,   0.94550,   0.22178,  -0.73539,  -0.29960,   0.79764,  -0.98441,   0.47858,  -0.79764,  -0.50971,  -0.48637,   0.98441,  -0.68091,   0.72760,   0.29960,  -0.82877,   0.12062,   0.56419,  -0.14396,   0.54084,   0.86768,  -0.54084,   0.25291,   0.64979,  -0.78986,   0.30738,   0.45524,   0.56419,  -0.85211,   0.51749,  -0.93771,  -0.67313,  -0.54862,  -0.50971,  -0.83655,  -0.14396,   0.48637,   0.14396,   0.01945,   0.84433,   0.71204,   0.26847,  -0.06615,  -0.02724,  -0.65757,   0.16731,  -0.22956,  -0.05058,   0.92993,   0.93771,   0.72760,  -0.33073,   0.93771,  -0.92993,   0.47080,   0.38520,   0.68869,  -0.42411,  -0.79764,   0.99219,   0.64200,   0.78208,  -0.43189,   0.38520,   0.78986,  -0.96884,  -0.91437,   0.49415,   0.45524,  -0.26847,  -0.98441,   0.09727,   0.87546
   0.84433,  -0.58753,  -0.95328,   0.93771,   0.66535,   0.83655,   0.65757,  -0.88324,  -0.89881,  -0.57975,  -0.50193,  -0.97662,   0.95328,  -0.22178,  -0.71982,  -0.85990,   0.51749,   0.38520,   0.91437,   0.88324,   0.74317,  -0.03502,   0.47080,  -0.76651,   0.97662,  -0.59531,  -0.17509,   0.45524,  -0.76651,  -0.99219,  -0.48637,   0.88324,  -0.57975,   0.79764,   0.69648,   0.87546,   0.55640,  -0.85211,   0.08949,  -0.86768,  -0.59531,  -0.71982,  -0.79764,   0.71982,   0.70426,   0.20622,  -0.43189,  -0.25291,   0.51749,  -0.72760,  -0.78986,  -0.84433,  -0.15953,  -0.88324,   0.75095,   0.25291,  -0.29960,   0.82099,   0.34629,   0.86768,   0.83655,   0.98441,  -0.70426,   0.97662,   0.89881,   0.22957,  -0.39298,  -0.41633,  -0.19844,  -0.41633,   0.02724,   0.45524,  -0.23735,   0.98441,   0.33851,   0.34629,   0.97662,   0.46302,  -0.05058,   0.46302,  -0.30738,   0.19066,   0.86768,   0.13618,   0.80542,  -0.85211,  -0.62644,  -0.22178,   0.88324,  -0.14396,  -0.78986,   0.36186,  -0.31517,  -0.26847,   0.61866,   0.93771,   0.54084,  -0.10506,  -0.08949,   0.77430,  -0.27626,  -0.75095,  -0.10506,  -0.46302,  -0.73539,   0.26847,   0.34629,   0.12840,  -0.78986,  -0.61866,   0.64979,  -0.59531,   0.81320,   0.69648,  -0.32295,   0.78208,   0.85990,  -0.91437,  -0.24513,  -0.99219,  -0.19844,  -0.12840,  -0.40077,  -0.08171,  -0.82877,  -0.58753,  -0.60309,   0.37742
   0.33851,   0.10506,  -0.13618,  -0.84433,   0.49415,   0.73539,  -0.89881,  -0.58753,  -0.84433,  -0.46302,  -0.69648,  -0.55640,   0.51749,  -0.28404,  -0.90659,  -0.29182,   0.90659,  -0.48637,   0.92215,   0.55640,  -0.26069,   0.91437,   0.09727,   0.78208,   0.14396,   0.28404,   0.82099,  -0.68091,   0.66535,   0.91437,  -0.18287,   0.12840,  -0.15953,   0.73539,  -0.29960,  -0.77430,   0.02724,  -0.76651,   0.88324,   0.24513,   0.05058,   0.56419,  -0.01945,   0.89102,   0.57197,  -0.52528,  -0.36964,  -0.80542,  -0.74317,  -0.58753,  -0.75095,  -0.96884,   0.47858,   0.34629,   0.92215,  -0.32295,  -0.01945,   0.56419,  -0.05058,   0.80542,   0.37742,  -0.44746,   0.61088,   0.94550,  -0.78986,  -0.84433,  -0.54084,  -0.12840,   0.91437,   0.75095,  -0.78986,   0.56419,   0.24513,  -0.77430,   0.67313,  -0.97662,   0.97662,   0.12062,  -0.05836,   0.84433,  -0.34629,   0.96884,   0.50971,   0.68869,   0.26847,  -0.45524,  -0.62644,  -0.46302,   0.68091,  -0.98441,  -0.63422,   0.66535,  -0.52528,   0.14396,  -0.07393,  -0.09727,   0.43968,  -0.65757,  -0.96106,  -0.84433,  -0.40077,   0.72760,  -0.58753,  -0.97662,   0.71204,  -0.13618,  -0.22956,  -0.61088,   0.92215,  -0.86768,  -0.28404,  -0.92993,   0.87546,  -0.02724,  -0.47858,   0.75095,  -0.67313,  -0.73539,  -0.65757,  -0.70426,  -0.50971,   0.97662,   0.78986,  -0.85990,  -0.76651,   0.01945,   0.22957,   0.49415
   0.63422,  -0.23735,  -0.64200,   0.08171,  -0.04280,   0.70426,  -0.58753,  -0.92993,  -0.68091,  -0.75095,   0.69648,   0.49415,  -0.96884,   0.49415,  -0.85211,   0.11284,  -0.96884,  -0.81320,  -0.91437,   0.23735,   0.68091,   0.84433,  -0.15175,   0.96884,   0.85990,   0.05836,  -0.32295,   0.73539,   0.88324,   0.75873,   0.29960,   0.43968,  -0.01945,  -0.58753,   0.32295,  -0.48637,  -0.50971,  -0.85211,   0.69648,   0.71982,   0.14396,   0.95328,  -0.27626,  -0.86768,   0.94550,   0.02724,   0.64200,  -0.93771,  -0.23735,  -0.52528,  -0.96884,   0.43189,  -0.91437,  -0.05058,   0.51749,  -0.25291,   0.40855,   0.32295,   0.60309,  -0.26069,  -0.51749,   0.04280,   0.80542,   0.42411,  -0.51749,  -0.83655,  -0.71982,   0.51749,   0.80542,   0.84433,   0.36186,  -0.01167,  -0.60309,  -0.86768,  -0.73539,  -0.63422,  -0.78208,   0.45524,   0.66535,   0.89881,  -0.19066,   0.12062,  -0.43189,  -0.33851,   0.25291,  -0.72760,   0.27626,  -0.88324,  -0.73539,  -0.91437,  -0.83655,  -0.56419,   0.78208,  -0.44746,  -0.01167,   0.29182,   0.24513,  -0.72760,   0.37742,  -0.71204,  -0.33851,  -0.71204,  -0.41633,  -0.76651,   0.65757,   0.39298,  -0.25291,  -0.17509,   0.75873,  -0.68869,  -0.68091,  -0.61088,   0.15953,  -0.47080,  -0.76651,   0.13618,   0.99219,  -0.65757,   0.76651,   0.77430,  -0.69648,   0.43968,   0.87546,  -0.15175,   0.98441,   0.22957,   0.08949,  -0.03502
   0.69648,  -0.54862,  -0.49415,  -0.25291,   0.47858,   0.85990,   0.22957,   0.15953,   0.12062,   0.97662,  -0.75095,   0.94550,   0.68091,  -0.40855,  -0.92215,   0.05058,   0.71204,   0.77430,   0.95328,   0.75095,   0.33073,  -0.95328,   0.21400,  -0.71982,  -0.89102,   0.36186,   0.10506,  -0.88324,   0.57975,  -0.94550,  -0.60309,   0.40077,   0.00389,   0.77430,   0.95328,  -0.56419,   0.26069,  -0.93771,   0.32295,  -0.83655,  -0.19066,  -0.95328,   0.61866,  -0.63422,   0.82099,   0.54862,  -0.80542,  -0.59531,   0.41633,  -0.86768,   0.86768,   0.50193,   0.69648,   0.29960,   0.70426,  -0.49415,  -0.12840,  -0.72760,   0.64979,  -0.68869,  -0.98441,   0.22957,  -0.46302,  -0.43189,   0.08949,  -0.64979,   0.54862,  -0.78208,  -0.30738,  -0.88324,   0.16731,   0.09727,  -0.72760,   0.64200,   0.45524,   0.18287,   0.81320,  -0.73539,  -0.84433,  -0.57975,   0.99219,   0.13618,   0.67313,   0.19066,   0.78208,  -0.89102,   0.94550,  -0.64200,   0.63422,   0.46302,  -0.82099,  -0.12840,  -0.90659,  -0.64200,  -0.05058,  -0.56419,  -0.50193,  -0.26069,   0.68091,   0.86768,   0.77430,   0.28404,  -0.71982,  -0.19066,   0.80542,  -0.87546,   0.99219,   0.84433,  -0.91437,   0.73539,   0.83655,   0.78986,  -0.89102,   0.90659,   0.54862,   0.22957,   0.47858,  -0.44746,  -0.12062,  -0.45524,  -0.95328,  -0.26069,  -0.09727,  -0.93771,   0.95328,   0.59531,   0.89102,  -0.09727
  -0.40855,   0.47080,  -0.80542,   0.05836,  -0.52528,  -0.12062,   0.85211,   0.40077,  -0.33851,   0.95328,   0.95328,  -0.12840,  -0.49415,  -0.89102,  -0.87546,   0.43968,   0.87546,  -0.79764,  -0.54862,   0.50971,  -0.63422,  -0.15953,   0.47080,   0.47080,   0.37742,  -0.83655,   0.43968,  -0.04280,   0.90659,  -0.70426,  -0.78208,  -0.47858,  -0.07393,  -0.53306,  -0.33851,  -0.16731,   0.68091,  -0.74317,   0.77430,   0.48637,  -0.58753,  -0.33851,   0.37742,  -0.46302,  -0.10506,   0.72760,  -0.06615,  -0.59531,  -0.76651,  -0.72760,   0.51749,  -0.65757,   0.55640,  -0.33851,   0.66535,  -0.60309,   0.88324,  -0.61088,  -0.61866,  -0.95328,   0.90659,   0.39298,  -0.23735,  -0.83655,   0.15175,  -0.41633,  -0.94550,  -0.86768,   0.97662,   0.97662,   0.69648,   0.68091,  -0.32295,   0.03502,  -0.75873,   0.05058,  -0.04280,  -0.64200,  -0.90659,   0.62644,   0.38520,   0.97662,  -0.91437,   0.73539,   0.96106,  -0.40077,   0.45524,  -0.08949,  -0.64979,  -0.72760,   0.61088,   0.82099,   0.34629,  -0.95328,   0.68091,  -0.65757,  -0.89881,  -0.40855,   0.67313,   0.88324,  -0.57197,  -0.71982,  -0.61866,  -0.96106,  -0.58753,   0.71982,  -0.86768,   0.29182,  -0.86768,  -0.09727,   0.68091,   0.75873,   0.61088,  -0.86768,   0.85990,  -0.97662,  -0.45524,  -0.73539,   0.33073,  -0.38520,  -0.99219,  -0.33851,  -0.69648,  -0.60309,   0.10506,  -0.97662,   0.75095,  -0.69648
  -0.26847,  -0.83655,  -0.42411,   0.12840,  -0.82099,  -0.91437,  -0.74317,  -0.63422,   0.72760,   0.38520,  -0.93771,   0.57197,  -0.62644,  -0.99219,   0.32295,   0.26847,  -0.70426,  -0.68869,   0.53306,   0.96106,   0.29960,   0.15175,  -0.44746,   0.86768,  -0.26069,   0.51749,   0.97662,   0.56419,   0.72760,  -0.78208,  -0.72760,  -0.97662,   0.40855,  -0.81320,  -0.38520,  -0.29960,   0.43189,  -0.95328,   0.71982,   0.85990,   0.79764,   0.64200,   0.64200,  -0.99219,   0.89102,  -0.46302,  -0.47858,  -0.44746,  -0.81320,  -0.25291,   0.26847,   0.57197,   0.49415,  -0.54862,   0.15953,  -0.46302,  -0.30738,   0.86768,  -0.64200,  -0.59531,   0.54862,  -0.68869,   0.70426,  -0.33851,  -0.49415,  -0.23735,   0.54862,  -0.51749,   0.76651,   0.61866,   0.46302,  -0.46302,  -0.21400,  -0.56419,   0.71204,  -0.68869,  -0.83655,  -0.97662,   0.82099,   0.32295,   0.64200,   0.73539,  -0.64200,  -0.98441,   0.54862,   0.83655,   0.87546,  -0.08171,   0.36186,   0.92215,  -0.05836,  -0.05836,   0.68869,   0.90659,  -0.85211,  -0.52528,  -0.18287,  -0.25291,  -0.50193,  -0.22178,  -0.59531,   0.05058,   0.10506,  -0.66535,  -0.92215,   0.56419,  -0.69648,  -0.11284,   0.43189,  -0.41633,  -0.30738,   0.33851,  -0.64200,  -0.52528,   0.93771,  -0.94550,   0.37742,  -0.82877,   0.74317,   0.71204,  -0.74317,   0.47080,   0.30738,  -0.78986,  -0.97662,  -0.70426,  -0.78986,   0.85990
   0.39298,   0.34629,  -0.57197,   0.12840,  -0.85211,   0.32295,   0.01945,   0.70426,   0.88324,   0.52528,   0.50971,   0.82099,   0.45524,  -0.31517,  -0.81320,  -0.22178,   0.71204,   0.71982,   0.47858,  -0.46302,  -0.26847,  -0.55640,   0.44746,  -0.75095,  -0.42411,   0.63422,  -0.71204,  -0.09727,   0.95328,  -0.80542,  -0.61088,  -0.10506,  -0.32295,  -0.73539,   0.89102,  -0.11284,   0.52528,   0.07393,   0.43968,  -0.54862,  -0.14396,   0.17509,  -0.86768,   0.91437,  -0.50971,   0.65757,  -0.01167,  -0.69648,   0.71982,  -0.69648,   0.70426,  -0.57975,  -0.08171,   0.26069,  -0.44746,  -0.11284,   0.18287,  -0.74317,   0.46302,  -0.81320,   0.89881,   0.15953,   0.76651,  -0.48637,  -0.74317,  -0.21400,   0.14396,  -0.83655,  -0.89102,  -0.90659,   0.40077,  -0.89102,   0.67313,   0.75095,  -0.25291,   0.85990,   0.49415,  -0.43968,   0.13618,   0.40855,   0.33851,  -0.61088,   0.62644,   0.21400,  -0.27626,   0.92215,  -0.11284,   0.99219,   0.50193,  -0.23735,   0.46302,  -0.90659,  -0.75095,  -0.05058,  -0.13618,  -0.14396,  -0.73539,  -0.96884,  -0.78986,   0.27626,  -0.64979,   0.51749,   0.23735,  -0.76651,  -0.40077,  -0.60309,   0.35407,   0.43189,  -0.58753,   0.24513,   0.82877,   0.71982,   0.78986,  -0.64200,   0.36964,  -0.97662,  -0.89881,  -0.97662,  -0.19066,  -0.57197,  -0.29960,  -0.26069,  -0.56419,  -0.29182,   0.36186,  -0.57197,   0.99219,  -0.82877
  -0.05058,  -0.81320,  -0.85990,   0.86768,  -0.29960,  -0.99219,  -0.70426,   0.85211,   0.32295,   0.90659,  -0.86768,   0.74317,  -0.98441,   0.66535,  -0.92993,   0.09727,  -0.58753,   0.64200,  -0.85211,  -0.61088,  -0.40855,  -0.16731,   0.77430,  -0.19844,  -0.78986,  -0.24513,   0.14396,   0.96884,   0.43968,  -0.62644,  -0.75095,  -0.08171,   0.17509,  -0.71204,   0.90659,  -0.26069,   0.08171,  -0.58753,   0.95328,  -0.52528,  -0.47080,  -0.33851,   0.79764,   0.95328,  -0.76651,   0.44746,   0.41633,  -0.16731,   0.09727,  -0.34629,  -0.96884,   0.57975,  -0.99219,  -0.40077,  -0.92215,   0.93771,   0.61866,   0.19844,   0.86768,  -0.98441,  -0.78986,   0.12062,  -0.47080,  -0.99219,  -0.14396,  -0.92993,   0.96106,  -0.80542,  -0.29960,   0.89881,   0.71204,  -0.94550,   0.64979,  -0.54084,  -0.74317,   0.75095,  -0.60309,  -0.59531,   0.77430,  -0.54862,  -0.71982,   0.70426,  -0.90659,   0.90659,   0.01945,   0.28404,   0.34629,   0.19844,  -0.70426,  -0.05058,  -0.21400,  -0.29960,  -0.89102,   0.74317,  -0.01167,  -0.81320,  -0.94550,  -0.06615,   0.61088,   0.33851,  -0.37742,   0.50971,  -0.27626,  -0.69648,   0.66535,  -0.40855,  -0.03502,  -0.76651,  -0.82099,   0.91437,   0.89102,   0.68091,   0.30738,  -0.54084,  -0.15953,  -0.62644,  -0.80542,  -0.78208,   0.40855,  -0.47858,  -0.78208,  -0.54084,  -0.82099,  -0.46302,  -0.30738,  -0.96884,  -0.95328,  -0.21400
   0.17509,  -0.83655,  -0.57975,  -0.75873,   0.78986,  -0.77430,   0.71204,   0.42411,   0.82099,   0.29960,  -0.92215,  -0.51749,  -0.85990,   0.22178,  -0.97662,   0.45524,  -0.69648,   0.51749,  -0.96106,  -0.74317,   0.41633,   0.07393,  -0.43189,   0.07393,   0.54862,   0.71982,  -0.84433,  -0.33073,  -0.39298,  -0.93771,  -0.08949,   0.33073,   0.81320,  -0.35407,  -0.62644,   0.67313,  -0.36964,  -0.04280,   0.50971,  -0.29960,  -0.18287,   0.93771,   0.56419,   0.73539,   0.03502,  -0.82099,   0.98441,   0.27626,   0.08171,  -0.60309,  -0.40077,   0.49415,  -0.32295,  -0.36964,  -0.92993,   0.17509,   0.75873,   0.47080,  -0.50971,   0.50971,   0.18287,   0.78986,  -0.72760,  -0.98441,  -0.31517,   0.40855,   0.78986,   0.49415,   0.89881,   0.87546,   0.31517,  -0.42411,   0.96884,  -0.89102,   0.00389,   0.67313,  -0.68091,  -0.79764,  -0.53306,  -0.43968,   0.09727,  -0.15175,  -0.67313,   0.92215,   0.85990,   0.63422,  -0.32295,   0.63422,   0.95328,  -0.43189,  -0.92993,   0.52528,   0.80542,   0.61866,   0.95328,  -0.64979,  -0.67313,  -0.36186,   0.82099,   0.01945,  -0.19066,  -0.19066,   0.74317,  -0.73539,   0.95328,   0.54862,  -0.78986,  -0.11284,  -0.53306,   0.98441,   0.78986,   0.97662,  -0.69648,  -0.49415,  -0.17509,   0.96884,  -0.75873,   0.31517,   0.36964,   0.72760,  -0.87546,  -0.29182,  -0.58753,  -0.04280,   0.02724,  -0.67313,  -0.43968,  -0.82877
  -0.31517,   0.06615,   0.15175,   0.33073,  -0.50193,  -0.55640,   0.54862,  -0.30738,  -0.29182,   0.79764,   0.20622,   0.71204,   0.54862,  -0.68091,   0.67313,   0.89881,  -0.36964,  -0.92993,  -0.52528,   0.97662,  -0.96884,   0.98441,  -0.40855,  -0.93771,  -0.50193,  -0.26069,  -0.82099,  -0.79764,   0.40855,  -0.99219,   0.30738,  -0.83655,   0.91437,  -0.39298,  -0.26847,  -0.99219,   0.72760,   0.66535,  -0.43968,   0.57197,  -0.75095,   0.95328,   0.02724,   0.70426,  -0.82099,  -0.78986,  -0.53306,   0.24513,  -0.40855,   0.36186,   0.35407,   0.10506,   0.37742,  -0.54862,  -0.93771,   0.97662,  -0.51749,   0.01945,  -0.58753,  -0.76651,   0.91437,   0.50971,  -0.38520,   0.95328,  -0.85990,   0.60309,   0.49415,   0.50193,  -0.96106,  -0.22178,   0.92215,   0.73539,  -0.57975,  -0.80542,  -0.15953,  -0.78986,   0.37742,   0.64200,  -0.06615,  -0.56419,  -0.22956,  -0.81320,  -0.10506,  -0.89102,   0.67313,  -0.16731,   0.29960,   0.78208,  -0.86768,   0.96106,  -0.19066,  -0.57197,  -0.08171,   0.01945,   0.47080,  -0.51749,   0.43968,  -0.20622,  -0.21400,  -0.12062,   0.92993,  -0.78208,   0.10506,  -0.25291,  -0.49415,   0.74317,   0.57975,   0.89881,  -0.37742,  -0.78208,  -0.97662,  -0.88324,   0.54862,   0.74317,  -0.37742,  -0.52528,   0.96106,  -0.18287,  -0.04280,   0.30738,   0.82877,  -0.83655,  -0.33073,   0.87546,   0.76651,  -0.86768,  -0.83655,  -0.95328
   0.84433,   0.59531,  -0.12062,   0.18287,  -0.77430,   0.36186,  -0.63422,   0.54084,  -0.97662,   0.97662,  -0.22178,   0.54862,  -0.39298,  -0.37742,   0.54084,   0.68091,   0.64200,  -0.08171,   0.47080,   0.62644,   0.19066,  -0.50971,  -0.77430,  -0.84433,   0.66535,   0.52528,   0.53306,  -0.68091,  -0.79764,  -0.44746,   0.44746,  -0.74317,   0.10506,  -0.63422,   0.32295,  -0.74317,   0.85990,   0.38520,  -0.24513,   0.12062,  -0.67313,  -0.66535,  -0.58753,  -0.01945,  -0.67313,  -0.91437,  -0.34629,   0.90659,  -0.23735,   0.12840,   0.47080,   0.91437,   0.57197,   0.41633,   0.48637,   0.98441,  -0.73539,   0.05836,  -0.34629,   0.42411,   0.47080,   0.22178,   0.67313,   0.90659,  -0.92215,   0.55640,   0.82099,  -0.47858,  -0.95328,  -0.96106,  -0.50971,  -0.32295,  -0.74317,   0.47080,   0.79764,   0.04280,   0.75873,  -0.62644,  -0.71982,   0.89881,   0.11284,  -0.60309,  -0.53306,  -0.74317,   0.84433,   0.83655,   0.19066,   0.50193,   0.28404,  -0.02724,   0.02724,  -0.63422,  -0.70426,  -0.02724,   0.21400,   0.47080,  -0.17509,  -0.43968,  -0.93771,  -0.64200,   0.50193,   0.83655,  -0.25291,  -0.83655,  -0.29182,  -0.97662,   0.52528,  -0.85211,   0.15175,  -0.82877,  -0.37742,  -0.23735,   0.38520,  -0.50193,   0.91437,   0.32295,  -0.91437,   0.00389,  -0.85211,  -0.12840,   0.56419,  -0.03502,   0.86768,   0.63422,  -0.06615,  -0.80542,  -0.98441,  -0.32295
   0.07393,  -0.85211,  -0.68091,  -0.14396,   0.61088,   0.44746,   0.78986,   0.62644,  -0.48637,   0.13618,  -0.68091,  -0.14396,   0.14396,   0.13618,  -0.37742,  -0.36186,   0.71982,  -0.11284,  -0.64200,   0.74317,   0.24513,  -0.68869,   0.68091,  -0.89102,  -0.65757,  -0.64979,  -0.65757,   0.99219,  -0.50193,  -0.59531,  -0.45524,  -0.75873,  -0.97662,   0.48637,   0.22178,  -0.89102,   0.07393,  -0.34629,  -0.97662,   0.43968,  -0.31517,  -0.74317,  -0.25291,   0.86768,  -0.89881,   0.94550,  -0.54862,   0.62644,  -0.82099,   0.24513,   0.59531,   0.16731,   0.90659,  -0.90659,   0.08949,   0.92993,   0.15953,   0.14396,   0.71204,   0.86768,  -0.54862,  -0.75095,   0.26069,  -0.05836,   0.32295,  -0.92993,   0.43189,   0.83655,  -0.68869,  -0.76651,  -0.58753,  -0.40855,  -0.78208,   0.59531,  -0.41633,  -0.36964,  -0.49415,   0.87546,   0.30738,  -0.46302,  -0.86768,  -0.96106,  -0.79764,   0.70426,  -0.46302,   0.70426,   0.15175,   0.87546,  -0.89102,   0.66535,   0.12062,  -0.55640,  -0.98441,   0.60309,   0.57975,   0.13618,  -0.85990,   0.15175,   0.36186,   0.88324,   0.64979,   0.23735,  -0.82877,  -0.50193,  -0.96884,   0.40855,   0.02724,  -0.64979,  -0.81320,  -0.61088,   0.79764,   0.85990,  -0.19066,  -0.76651,   0.82877,   0.82877,   0.30738,  -0.96106,  -0.89102,  -0.75873,   0.81320,   0.84433,  -0.04280,   0.33073,  -0.92993,  -0.65757,   0.46302,   0.89102
   0.90659,  -0.73539,  -0.61088,  -0.96884,  -0.68869,  -0.40077,  -0.60309,   0.57975,  -0.85211,  -0.71204,  -0.87546,   0.71982,   0.71982,   0.68869,  -0.77430,  -0.12062,  -0.19844,  -0.61866,  -0.46302,  -0.26069,  -0.75873,   0.96884,   0.89102,   0.45524,   0.18287,  -0.43968,   0.80542,  -0.33851,  -0.83655,  -0.55640,  -0.84433,  -0.93771,  -0.20622,  -0.82877,  -0.61866,   0.63422,  -0.82099,   0.64200,  -0.61866,  -0.08171,  -0.54862,   0.80542,  -0.74317,  -0.17509,  -0.62644,  -0.43189,  -0.65757,   0.92215,   0.75095,  -0.22956,  -0.13618,   0.11284,  -0.66535,   0.75095,   0.62644,  -0.08949,  -0.85990,   0.08171,   0.61088,   0.15175,  -0.96106,   0.09727,  -0.52528,  -0.75873,  -0.11284,  -0.68869,   0.52528,  -0.68091,  -0.71982,   0.13618,  -0.88324,   0.85211,   0.36964,  -0.98441,  -0.42411,  -0.36964,   0.82877,   0.78208,   0.91437,  -0.72760,  -0.81320,  -0.89881,   0.20622,   0.18287,   0.29182,   0.00389,  -0.04280,   0.05836,  -0.33073,  -0.31517,  -0.80542,   0.68869,   0.55640,   0.33073,  -0.12062,   0.57975,  -0.53306,   0.93771,   0.92215,  -0.49415,   0.56419,  -0.01945,   0.31517,  -0.61866,   0.60309,   0.56419,   0.44746,   0.33073,   0.96884,  -0.97662,  -0.24513,   0.83655,  -0.77430,  -0.85211,  -0.85211,   0.71982,   0.83655,  -0.85211,   0.74317,   0.40855,   0.58753,  -0.47080,  -0.12840,  -0.84433,   0.64979,   0.00389,  -0.26847,  -0.19066
   0.80542,   0.68091,  -0.71204,   0.92993,  -0.84433,   0.25291,   0.70426,   0.38520,  -0.97662,  -0.74317,   0.60309,  -0.45524,   0.35407,   0.86768,  -0.71204,   0.75873,   0.24513,  -0.88324,   0.89102,   0.62644,  -0.92993,  -0.88324,  -0.30738,   0.81320,   0.37742,   0.23735,   0.56419,  -0.52528,  -0.97662,  -0.90659,   0.85211,   0.60309,  -0.96884,   0.75873,  -0.47858,  -0.05058,   0.42411,  -0.12062,  -0.69648,   0.42411,  -0.27626,   0.76651,  -0.59531,  -0.74317,  -0.47080,   0.95328,  -0.36186,   0.02724,   0.55640,  -0.47858,   0.35407,  -0.58753,  -0.89102,  -0.52528,   0.64200,  -0.36964,  -0.95328,   0.27626,  -0.89881,   0.71204,   0.78208,  -0.86768,  -0.69648,  -0.84433,  -0.57975,  -0.95328,  -0.10506,  -0.85211,  -0.79764,   0.36964,  -0.90659,  -0.25291,   0.53306,   0.61088,   0.57197,  -0.26847,   0.66535,  -0.15175,  -0.91437,   0.12062,   0.44746,  -0.87546,  -0.37742,  -0.03502,   0.67313,   0.54084,  -0.92993,   0.73539,  -0.01167,  -0.50193,   0.21400,   0.43968,  -0.26847,  -0.93771,   0.90659,   0.96106,  -0.40077,   0.50971,  -0.36186,  -0.29182,  -0.01945,  -0.15175,  -0.87546,  -0.89102,   0.76651,   0.88324,   0.82099,  -0.93771,   0.43968,  -0.53306,  -0.51749,   0.84433,  -0.97662,  -0.68091,  -0.93771,  -0.99219,  -0.89881,  -0.88324,   0.75873,  -0.48637,   0.02724,  -0.12840,  -0.08949,  -0.50193,   0.98441,   0.71204,   0.28404,  -0.12062
   0.98441,  -0.66535,  -0.67313,  -0.81320,   0.78986,  -0.96884,  -0.85990,   0.61088,   0.92215,  -0.44746,   0.87546,   0.70426,  -0.46302,   0.89881,  -0.79764,   0.57197,   0.51749,  -0.58753,  -0.43968,  -0.29182,  -0.78986,  -0.62644,   0.68869,  -0.25291,  -0.76651,  -0.02724,   0.11284,   0.90659,  -0.68091,  -0.88324,   0.96884,   0.36964,  -0.96884,   0.73539,   0.81320,   0.13618,   0.55640,  -0.61866,   0.28404,   0.30738,  -0.73539,  -0.82099,  -0.73539,   0.05836,  -0.52528,   0.83655,  -0.50971,  -0.84433,   0.18287,   0.03502,   0.78208,  -0.84433,   0.92215,   0.74317,   0.44746,  -0.21400,   0.54084,   0.70426,  -0.71204,   0.49415,  -0.03502,   0.91437,   0.63422,  -0.23735,   0.44746,  -0.41633,  -0.50193,   0.96884,  -0.22956,   0.01167,  -0.77430,  -0.70426,   0.40855,   0.83655,  -0.82099,  -0.82099,  -0.73539,   0.54084,   0.84433,  -0.98441,   0.43968,  -0.81320,   0.10506,   0.42411,   0.62644,   0.27626,   0.79764,  -0.40855,  -0.15953,  -0.23735,  -0.20622,  -0.46302,  -0.56419,  -0.44746,  -0.97662,   0.52528,  -0.98441,   0.01945,  -0.82877,  -0.36964,  -0.64979,   0.30738,  -0.85211,  -0.64979,  -0.22178,   0.09727,   0.22178,  -0.81320,  -0.99219,  -0.63422,  -0.82099,   0.59531,  -0.50193,  -0.97662,  -0.52528,  -0.46302,   0.61088,  -0.62644,   0.64200,  -0.93771,   0.97662,  -0.85990,   0.92215,  -0.61088,   0.17509,   0.69648,   0.96884,   0.97662
  -0.71204,   0.43189,   0.83655,  -0.70426,  -0.63422,  -0.14396,   0.50193,  -0.66535,  -0.79764,  -0.75095,   0.80542,   0.86768,  -0.11284,  -0.96884,  -0.10506,   0.53306,   0.61088,   0.50193,  -0.23735,  -0.67313,  -0.55640,   0.38520,  -0.28404,   0.62644,   0.17509,   0.97662,   0.92215,  -0.54862,  -0.80542,   0.62644,  -0.57975,  -0.11284,  -0.54084,   0.21400,  -0.89881,  -0.87546,   0.09727,   0.92215,   0.76651,  -0.73539,  -0.29182,   0.89881,   0.27626,   0.95328,  -0.81320,   0.66535,  -0.35407,  -0.09727,  -0.95328,   0.73539,  -0.45524,   0.89102,  -0.68869,   0.15953,   0.84433,  -0.82877,   0.80542,  -0.78208,   0.53306,   0.80542,   0.62644,  -0.34629,   0.96884,   0.69648,  -0.85990,  -0.24513,  -0.54084,  -0.01945,  -0.57197,   0.37742,   0.92993,  -0.72760,   0.59531,   0.95328,  -0.73539,   0.87546,   0.19844,   0.96884,   0.27626,  -0.68091,  -0.58753,  -0.25291,  -0.59531,   0.90659,   0.49415,   0.44746,  -0.80542,  -0.78986,   0.19066,   0.95328,  -0.22178,   0.96884,   0.67313,  -0.79764,  -0.47858,  -0.29960,   0.86768,   0.42411,  -0.77430,   0.15953,  -0.85990,   0.27626,   0.87546,  -0.99219,  -0.54862,  -0.95328,   0.40855,   0.96884,  -0.33073,  -0.62644,  -0.31517,  -0.98441,  -0.85990,  -0.26069,  -0.72760,   0.03502,   0.94550,   0.85211,  -0.66535,   0.68869,  -0.08171,   0.75873,   0.13618,   0.85990,   0.19066,   0.14396,   0.71204,  -0.82099
  -0.47858,  -0.09727,   0.00389,   0.96106,  -0.89881,   0.50971,   0.58753,  -0.57197,   0.50971,  -0.65757,   0.64200,  -0.58753,   0.26069,  -0.72760,  -0.72760,  -0.75873,  -0.15175,   0.24513,   0.75873,  -0.86768,  -0.26847,  -0.92993,  -0.64979,   0.87546,  -0.91437,   0.90659,   0.87546,   0.19066,  -0.85211,   0.57197,  -0.76651,   0.97662,  -0.78986,   0.90659,  -0.77430,  -0.08949,  -0.98441,  -0.78986,   0.84433,   0.53306,  -0.77430,   0.93771,   0.04280,   0.60309,   0.93771,   0.88324,   0.21400,  -0.88324,  -0.29182,  -0.16731,  -0.68869,   0.29960,   0.88324,  -0.69648,   0.19844,  -0.55640,   0.97662,   0.04280,   0.94550,  -0.42411,  -0.99219,   0.42411,  -0.40077,   0.50971,  -0.52528,  -0.26069,  -0.96106,  -0.06615,   0.22957,  -0.56419,   0.78208,  -0.93771,   0.91437,   0.80542,  -0.35407,  -0.78986,   0.43968,  -0.25291,  -0.75095,   0.89881,  -0.61866,  -0.98441,   0.15175,  -0.91437,  -0.70426,  -0.73539,   0.00389,  -0.75095,   0.50193,  -0.49415,   0.77430,   0.56419,   0.78208,  -0.71204,   0.49415,   0.93771,   0.93771,   0.37742,   0.74317,   0.95328,  -0.93771,   0.92215,  -0.33851,  -0.62644,  -0.41633,  -0.45524,   0.19844,   0.47858,   0.76651,  -0.92215,  -0.77430,  -0.96884,  -0.89102,  -0.90659,  -0.98441,  -0.75095,   0.37742,  -0.57197,   0.38520,   0.04280,  -0.59531,   0.78986,   0.20622,  -0.91437,   0.31517,   0.96884,  -0.36186,  -0.43968
  -0.40077,  -0.60309,  -0.42411,  -0.42411,   0.51749,  -0.16731,  -0.52528,  -0.67313,   0.78208,  -0.53306,  -0.07393,   0.72760,   0.15175,  -0.49415,  -0.39298,   0.29182,   0.82877,   0.26069,   0.95328,  -0.25291,   0.43968,  -0.87546,   0.01945,   0.64979,  -0.22956,  -0.25291,   0.78208,   0.87546,   0.81320,   0.99219,   0.64979,   0.40855,   0.64979,   0.87546,  -0.51749,  -0.34629,  -0.74317,  -0.50971,   0.57197,  -0.22956,  -0.74317,  -0.87546,   0.43189,  -0.05058,   0.54862,   0.66535,  -0.06615,  -0.83655,   0.70426,  -0.71982,  -0.85211,  -0.46302,   0.54862,  -0.05058,   0.39298,  -0.33073,   0.72760,   0.64200,  -0.24513,  -0.40077,   0.34629,  -0.26069,  -0.55640,   0.89881,  -0.61866,  -0.89881,  -0.78986,  -0.71982,   0.54862,   0.53306,  -0.43189,  -0.22956,   0.78208,  -0.82877,   0.49415,  -0.76651,  -0.74317,   0.80542,  -0.98441,  -0.82099,   0.26847,  -0.12062,  -0.64979,   0.43968,  -0.89881,  -0.71204,   0.29182,  -0.54862,  -0.27626,  -0.05058,  -0.94550,  -0.73539,   0.76651,   0.76651,   0.42411,  -0.50193,   0.61866,  -0.67313,  -0.44746,   0.91437,  -0.88324,   0.69648,  -0.60309,   0.13618,   0.34629,   0.69648,  -0.80542,  -0.12062,   0.85990,  -0.79764,  -0.14396,  -0.33851,  -0.88324,  -0.27626,  -0.87546,   0.78208,  -0.43189,  -0.64200,   0.18287,  -0.34629,   0.38520,  -0.95328,  -0.68091,  -0.42411,   0.82877,   0.84433,  -0.50193,  -0.76651
   0.85990,  -0.50193,  -0.27626,  -0.28404,   0.17509,   0.33851,  -0.91437,   0.72760,  -0.12062,   0.24513,  -0.96106,   0.47080,   0.96884,  -0.20622,   0.63422,  -0.07393,  -0.75873,  -0.28404,   0.98441,  -0.45524,   0.83655,   0.87546,  -0.77430,  -0.08949,   0.91437,   0.48637,  -0.32295,  -0.74317,   0.30738,  -0.81320,   0.99219,   0.12062,   0.90659,   0.19066,   0.68869,  -0.01167,  -0.92993,   0.57975,  -0.80542,  -0.85211,  -0.77430,   0.95328,  -0.86768,  -0.82877,  -0.68869,  -0.86768,  -0.68091,   0.34629,   0.87546,  -0.19844,   0.93771,   0.79764,   0.82877,  -0.33073,   0.16731,   0.77430,   0.35407,  -0.92993,   0.95328,  -0.72760,  -0.68869,  -0.29960,  -0.78986,  -0.48637,   0.33851,   0.66535,   0.08171,  -0.71204,  -0.19066,  -0.93771,  -0.15953,   0.63422,  -0.73539,  -0.31517,  -0.56419,  -0.73539,   0.93771,  -0.57197,  -0.27626,  -0.05058,   0.85211,   0.12062,  -0.55640,  -0.02724,   0.69648,  -0.57197,  -0.30738,   0.31517,   0.11284,  -0.08171,  -0.71982,  -0.02724,  -0.99219,   0.78208,  -0.92215,  -0.36186,  -0.74317,   0.68869,   0.96884,   0.77430,   0.43968,  -0.47858,   0.99219,   0.40077,   0.65757,   0.78986,   0.22178,  -0.59531,   0.86768,  -0.24513,  -0.96884,   0.75873,   0.79764,  -0.94550,   0.74317,   0.40855,   0.13618,  -0.75095,  -0.99219,   0.26069,   0.73539,  -0.89881,  -0.54084,  -0.29960,  -0.02724,   0.43968,  -0.40077,  -0.77430
   0.90659,   0.98441,   0.19066,  -0.31517,  -0.47858,   0.78208,   0.18287,   0.50193,  -0.85211,  -0.39298,  -0.64200,  -0.88324,   0.41633,  -0.81320,   0.51749,   0.58753,  -0.71204,  -0.71204,  -0.92215,   0.84433,   0.42411,  -0.67313,   0.98441,  -0.68869,   0.61866,   0.80542,  -0.22178,  -0.68091,   0.18287,  -0.35407,   0.58753,   0.10506,   0.13618,  -0.50971,  -0.61866,  -0.87546,   0.94550,  -0.88324,  -0.90659,  -0.83655,  -0.23735,  -0.92215,  -0.96106,  -0.60309,  -0.14396,  -0.82877,   0.39298,   0.88324,   0.61866,   0.57197,   0.88324,  -0.29182,   0.73539,   0.79764,   0.12840,   0.87546,   0.63422,  -0.75095,  -0.89102,  -0.93771,   0.61088,   0.81320,  -0.68091,  -0.52528,  -0.61866,  -0.92215,   0.69648,  -0.55640,  -0.51749,  -0.52528,  -0.65757,   0.17509,  -0.29182,   0.84433,  -0.26847,  -0.53306,  -0.74317,   0.13618,  -0.94550,   0.11284,  -0.50193,  -0.16731,  -0.82877,  -0.21400,   0.99219,  -0.88324,  -0.84433,   0.46302,  -0.82877,   0.94550,   0.22957,   0.08171,  -0.78986,  -0.28404,   0.15175,   0.21400,  -0.03502,   0.74317,   0.84433,  -0.83655,   0.93771,  -0.86768,   0.13618,  -0.68869,  -0.75095,   0.47080,  -0.09727,  -0.69648,  -0.33073,   0.09727,  -0.94550,   0.36964,  -0.33073,  -0.42411,   0.49415,   0.77430,   0.18287,   0.87546,   0.40855,   0.73539,   0.36186,  -0.89881,   0.31517,   0.13618,  -0.26069,  -0.96106,   0.87546,  -0.53306
   0.56419,   0.98441,  -0.50193,   0.36964,   0.72760,   0.15953,  -0.33073,  -0.19066,  -0.85211,  -0.59531,   0.91437,  -0.96106,  -0.76651,  -0.81320,  -0.19066,   0.71982,   0.19066,  -0.97662,  -0.18287,   0.26069,  -0.82877,   0.07393,  -0.92993,  -0.78208,  -0.20622,  -0.61088,  -0.60309,  -0.18287,   0.89102,  -0.20622,  -0.81320,   0.44746,  -0.43968,   0.62644,   0.43189,   0.64979,   0.74317,  -0.64979,   0.68091,   0.63422,  -0.64200,   0.06615,  -0.54862,   0.82099,  -0.86768,   0.93771,  -0.56419,   0.36964,  -0.18287,   0.92993,   0.64979,   0.97662,   0.75873,  -0.69648,  -0.92993,   0.81320,  -0.73539,   0.63422,  -0.37742,  -0.98441,   0.29960,  -0.10506,   0.50193,   0.84433,   0.92993,   0.12062,   0.72760,   0.53306,   0.06615,   0.15953,   0.80542,   0.84433,   0.54084,   0.75095,  -0.88324,  -0.44746,  -0.93771,  -0.53306,   0.50971,  -0.35407,   0.11284,  -0.63422,   0.37742,   0.22178,  -0.61088,   0.98441,   0.57975,   0.84433,  -0.68869,   0.55640,   0.73539,   0.89881,  -0.91437,  -0.36964,  -0.86768,   0.49415,   0.88324,  -0.50971,  -0.90659,  -0.50193,   0.59531,   0.35407,  -0.73539,  -0.84433,  -0.08171,  -0.19844,  -0.94550,  -0.74317,  -0.53306,   0.87546,   0.03502,  -0.54084,   0.95328,   0.91437,   0.81320,  -0.86768,  -0.64979,   0.48637,   0.99219,  -0.73539,   0.66535,   0.01945,   0.88324,   0.61866,  -0.86768,   0.10506,  -0.33073,   0.64979
  -0.19066,   0.96884,   0.43968,  -0.75095,  -0.57975,   0.32295,  -0.86768,  -0.45524,   0.33073,  -0.82877,   0.46302,   0.75095,  -0.40077,   0.78208,   0.19066,   0.61088,  -0.43968,  -0.78208,   0.87546,  -0.20622,   0.96884,   0.51749,  -0.34629,   0.01167,   0.52528,   0.57975,   0.36186,  -0.89881,  -0.88324,  -0.17509,   0.65757,  -0.60309,   0.75873,  -0.63422,   0.68869,   0.73539,  -0.98441,   0.60309,  -0.67313,   0.69648,   0.29960,   0.71982,  -0.33073,   0.04280,  -0.36964,   0.47080,   0.46302,   0.97662,  -0.45524,  -0.71204,  -0.91437,  -0.99219,  -0.33851,   0.71982,   0.21400,  -0.31517,  -0.22178,  -0.48637,   0.92993,   0.97662,  -0.09727,   0.93771,   0.98441,  -0.61088,  -0.47080,  -0.98441,  -0.61088,   0.22178,   0.34629,  -0.87546,   0.27626,  -0.40855,   0.96106,  -0.78986,  -0.02724,  -0.63422,  -0.56419,   0.17509,  -0.30738,  -0.75873,  -0.91437,  -0.40855,   0.00389,   0.99219,  -0.81320,   0.28404,  -0.61866,   0.01167,   0.70426,  -0.22956,  -0.78208,   0.89102,   0.22957,  -0.37742,   0.27626,  -0.71982,   0.35407,  -0.84433,  -0.90659,  -0.05836,  -0.33073,   0.78208,  -0.95328,  -0.77430,   0.22957,  -0.60309,   0.42411,   0.87546,  -0.07393,  -0.96106,  -0.96106,  -0.69648,   0.32295,  -0.95328,   0.52528,   0.19844,  -0.83655,  -0.85990,   0.87546,  -0.05836,  -0.81320,   0.60309,   0.54084,  -0.36186,   0.06615,   0.36964,   0.81320,  -0.73539
   0.78986,   0.73539,   0.85990,   0.75873,  -0.92993,  -0.84433,  -0.92215,   0.61866,  -0.77430,  -0.88324,   0.46302,   0.50193,  -0.14396,   0.57197,   0.70426,   0.47858,   0.93771,  -0.15953,  -0.77430,  -0.82877,   0.01945,   0.05058,   0.75095,   0.71982,  -0.85211,   0.26847,  -0.26069,  -0.92993,   0.75095,  -0.12062,   0.12062,  -0.63422,  -0.91437,   0.36964,  -0.75095,   0.22957,  -0.75095,  -0.16731,  -0.60309,   0.27626,  -0.89881,  -0.29182,   0.52528,  -0.35407,  -0.60309,   0.57975,   0.83655,   0.40077,   0.92215,   0.15175,   0.10506,  -0.21400,  -0.63422,  -0.92215,   0.05836,  -0.30738,  -0.96106,  -0.64200,   0.26847,  -0.95328,  -0.50193,  -0.53306,  -0.20622,  -0.89881,  -0.76651,  -0.70426,  -0.57975,  -0.02724,  -0.99219,   0.81320,   0.72760,   0.08949,   0.30738,   0.93771,  -0.89102,   0.54862,  -0.58753,  -0.97662,  -0.71204,   0.31517,   0.37742,  -0.50971,  -0.71982,   0.95328,   0.33073,  -0.59531,  -0.75873,  -0.87546,  -0.88324,  -0.97662,  -0.28404,   0.47858,  -0.77430,  -0.69648,  -0.49415,   0.12840,  -0.80542,  -0.08949,   0.95328,  -0.19066,  -0.57975,  -0.73539,  -0.96884,  -0.90659,   0.19844,  -0.88324,  -0.49415,  -0.68869,   0.05058,  -0.18287,   0.01167,   0.10506,   0.06615,  -0.19066,  -0.76651,  -0.74317,  -0.77430,   0.52528,   0.40077,   0.30738,   0.31517,  -0.60309,  -0.68091,  -0.36186,   0.24513,   0.91437,  -0.85211,  -0.15175
   0.96884,  -0.80542,   0.58753,  -0.22956,  -0.02724,  -0.73539,   0.13618,   0.92215,  -0.04280,  -0.64200,  -0.93771,   0.04280,  -0.56419,   0.69648,  -0.84433,  -0.48637,   0.71204,  -0.67313,   0.31517,  -0.37742,  -0.88324,   0.77430,  -0.90659,   0.60309,  -0.92993,  -0.78986,  -0.26069,   0.96106,  -0.08949,  -0.40077,   0.47858,   0.55640,  -0.85211,   0.29960,  -0.76651,   0.36186,   0.98441,  -0.58753,   0.88324,   0.99219,  -0.83655,  -0.98441,  -0.22178,   0.12062,   0.17509,   0.05836,  -0.32295,  -0.74317,   0.99219,   0.60309,  -0.81320,  -0.40855,   0.07393,  -0.01167,  -0.48637,   0.67313,  -0.12062,  -0.07393,  -0.04280,  -0.69648,   0.14396,   0.08171,  -0.82877,  -0.68869,  -0.87546,  -0.82877,  -0.71204,   0.99219,  -0.46302,   0.20622,  -0.77430,  -0.85990,   0.72760,  -0.39298,  -0.66535,  -0.63422,  -0.92993,   0.05058,   0.78208,  -0.25291,  -0.27626,  -0.27626,  -0.57975,   0.89102,   0.68869,   0.94550,   0.27626,  -0.47858,   0.92993,   0.99219,  -0.87546,   0.29960,  -0.95328,   0.82099,   0.28404,   0.50193,  -0.97662,   0.92993,   0.73539,  -0.23735,  -0.92993,  -0.85990,  -0.96106,  -0.87546,   0.78208,   0.66535,  -0.89102,  -0.83655,  -0.24513,   0.82877,   0.45524,   0.77430,   0.22178,   0.03502,  -0.54084,  -0.47080,   0.88324,   0.43968,   0.43189,  -0.58753,  -0.11284,  -0.86768,   0.69648,  -0.82099,   0.13618,   0.83655,  -0.57975,   0.32295
  -0.93771,  -0.74317,   0.36186,   0.87546,  -0.75095,   0.98441,   0.57975,  -0.01945,  -0.36186,  -0.96884,  -0.74317,  -0.05836,  -0.27626,  -0.33073,  -0.97662,   0.02724,   0.50971,   0.93771,   0.89102,  -0.50971,  -0.10506,   0.96884,  -0.89102,   0.50971,  -0.61866,   0.61088,   0.94550,  -0.57197,  -0.36964,   0.81320,   0.53306,  -0.78208,  -0.71982,   0.97662,  -0.80542,   0.20622,  -0.58753,   0.95328,  -0.29182,   0.48637,   0.49415,   0.52528,   0.89102,  -0.26847,   0.52528,   0.68869,   0.68091,   0.81320,  -0.48637,   0.97662,   0.63422,  -0.85211,  -0.22956,  -0.77430,   0.30738,  -0.80542,  -0.95328,   0.20622,  -0.93771,   0.78986,   0.92993,   0.05836,  -0.89102,   0.07393,  -0.37742,  -0.88324,  -0.33851,   0.43189,  -0.31517,   0.22178,  -0.20622,  -0.71982,   0.16731,   0.55640,   0.54084,  -0.02724,   0.36186,   0.12840,  -0.88324,  -0.85211,   0.19844,   0.20622,  -0.75095,  -0.91437,   0.04280,   0.57975,  -0.06615,  -0.50971,   0.22957,  -0.71982,  -0.01945,  -0.73539,   0.91437,   0.87546,   0.97662,  -0.55640,  -0.22178,  -0.36186,  -0.26847,   0.77430,  -0.52528,  -0.99219,  -0.51749,  -0.64979,  -0.05836,   0.57975,   0.57975,   0.26069,   0.36186,  -0.91437,  -0.69648,   0.86768,   0.98441,  -0.40855,  -0.78208,  -0.76651,  -0.34629,   0.41633,  -0.89102,   0.79764,  -0.78208,   0.41633,  -0.82099,  -0.91437,   0.26847,   0.39298,  -0.61866,  -0.78208
  -0.51749,  -0.77430,   0.37742,  -0.43189,  -0.96106,  -0.64979,  -0.77430,  -0.59531,  -0.22956,  -0.87546,  -0.51749,  -0.57197,  -0.80542,  -0.74317,  -0.48637,  -0.54084,  -0.42411,  -0.64200,  -0.91437,  -0.28404,   0.71204,  -0.56419,   0.79764,   0.95328,  -0.55640,   0.19844,  -0.39298,   0.76651,   0.65757,   0.93771,  -0.89881,  -0.84433,  -0.54862,  -0.01945,   0.27626,   0.84433,   0.54084,   0.40077,   0.78208,   0.82877,   0.75095,  -0.59531,   0.71204,   0.99219,   0.12840,  -0.54862,  -0.83655,  -0.32295,  -0.81320,   0.36964,  -0.94550,   0.76651,  -0.15175,   0.15175,   0.10506,  -0.77430,   0.57197,   0.84433,  -0.50971,   0.18287,   0.48637,  -0.48637,   0.94550,   0.59531,  -0.32295,  -0.38520,  -0.72760,   0.61866,   0.06615,   0.47858,  -0.69648,  -0.88324,  -0.33851,   0.93771,  -0.43968,  -0.35407,  -0.73539,  -0.54862,   0.71204,   0.33851,   0.15953,   0.92215,  -0.88324,   0.92993,  -0.92993,   0.33851,   0.74317,  -0.87546,  -0.47080,   0.75873,  -0.83655,   0.94550,   0.31517,   0.42411,  -0.78986,  -0.68869,   0.92215,   0.76651,  -0.55640,   0.16731,  -0.99219,   0.66535,  -0.66535,  -0.99219,  -0.71204,  -0.90659,  -0.77430,   0.58753,   0.08949,  -0.92993,  -0.51749,  -0.85990,  -0.67313,  -0.29960,  -0.29960,   0.72760,  -0.73539,   0.54084,  -0.78986,  -0.71204,  -0.42411,   0.73539,  -0.86768,  -0.52528,  -0.13618,   0.14396,  -0.31517,  -0.62644
